{"name": "encoder", "layers": [{"type": "linear", "weight": [[0.15420293807983398, 0.1330823302268982, -0.06216549500823021, 0.16627484560012817, -0.08366775512695312, 0.04234511777758598, -0.11135485768318176, 0.13668090105056763, 0.20765991508960724, -0.11747594177722931, 0.19724895060062408, 0.006666307337582111, 0.18708962202072144, 0.04973222687840462, 0.1300717294216156, 0.004645753651857376, 0.15782108902931213, 0.048218075186014175, -0.04773562774062157, 0.06584049761295319, -0.09542382508516312, -0.02789938449859619, -0.09025010466575623, 0.14213423430919647, -0.18570098280906677], [-0.1114269345998764, -0.06912337243556976, -0.1483125537633896, 0.0052085816860198975, -0.22704416513442993, 0.15919318795204163, -0.20405001938343048, 0.1494426727294922, 0.026741985231637955, -0.10820692032575607, 0.14312949776649475, 0.02069631963968277, 0.17549914121627808, -0.040767185389995575, -0.0699755996465683, -0.007705787196755409, -0.083991639316082, 0.11347521096467972, 0.14000976085662842, 0.12617123126983643, -0.03708229586482048, 0.16778893768787384, 0.06811734288930893, 0.0689176544547081, -0.09248057007789612], [-0.19282591342926025, -0.07308193296194077, -0.19134019315242767, 0.16646496951580048, 0.06757068634033203, 0.11178570985794067, 0.05524784326553345, 0.005285220220685005, 0.16763868927955627, -0.15174555778503418, 0.00831567868590355, -0.10981272161006927, 0.0317431278526783, -0.10741066932678223, 0.07059578597545624, -0.09444954246282578, 0.12786458432674408, -0.12284453958272934, -0.1825127899646759, -0.10116207599639893, 0.22239777445793152, 0.10531880706548691, 0.23405523598194122, -0.22435830533504486, -0.18055567145347595], [-0.16490432620048523, -0.14842617511749268, 0.06833899766206741, 0.05375728756189346, 0.22482562065124512, -0.11842364072799683, -0.1478414386510849, 0.1010245531797409, -0.085414357483387, 0.09634007513523102, -0.07702832669019699, 0.11374785006046295, -0.17194309830665588, -0.13567714393138885, 0.05451064184308052, -0.020691625773906708, -0.07914382219314575, 0.12451118975877762, 0.07990393042564392, -0.15764619410037994, -0.06679201126098633, 0.22519540786743164, -0.038726430386304855, -0.1271921843290329, -0.2173936665058136], [-0.12256095558404922, 0.06575671583414078, -0.03705816715955734, -0.16620716452598572, 0.02656206116080284, -0.1621021032333374, -0.1877060979604721, -0.13562479615211487, -0.17952664196491241, -0.14566823840141296, 0.22712460160255432, 0.034666914492845535, 0.06774565577507019, -0.23897020518779755, -0.14175735414028168, -0.1328953504562378, 0.024795392528176308, -0.16351427137851715, -0.14751112461090088, -0.12676727771759033, -0.04766712337732315, -0.1322159469127655, -0.0017727442318573594, -0.1855243295431137, -0.1258591264486313], [-0.12982776761054993, -0.0872272476553917, -0.1779467910528183, 0.14946551620960236, -0.007395746186375618, 0.15788649022579193, 0.051949478685855865, -0.18569032847881317, 0.13470010459423065, -0.08451475203037262, -0.11404005438089371, -0.16277825832366943, -0.23383691906929016, 0.011498288251459599, -0.0465056449174881, 0.03321971371769905, -0.20602332055568695, 0.16545918583869934, -0.20300385355949402, -0.008891313336789608, 0.10279374569654465, 0.1708887219429016, 0.2087096869945526, 0.14052365720272064, -0.12941010296344757], [0.06655838340520859, -0.1062769889831543, -0.012292475439608097, -0.1861099749803543, 0.20666185021400452, -0.14510634541511536, 0.12096822261810303, 0.08410528302192688, 0.0937666967511177, -0.06572966277599335, 0.2183889001607895, 0.04157642275094986, 0.03327781707048416, -0.1632409691810608, 0.109425388276577, -0.0016084638191387057, -0.09153499454259872, 0.19070160388946533, 0.09023763984441757, -0.08595716953277588, -0.1437937170267105, -0.07162545621395111, 0.11722639203071594, -0.062190644443035126, -0.18036170303821564], [-0.07070759683847427, -0.16584540903568268, 0.08202630281448364, 0.14919230341911316, -0.22583694756031036, 0.05484820157289505, 0.09993329644203186, 0.024273904040455818, -0.06694334000349045, 0.13544748723506927, 0.10291607677936554, 0.07353925704956055, -0.03471183031797409, -0.011920394375920296, 0.031415119767189026, 0.03142410144209862, -0.056383706629276276, 0.11872576177120209, 0.22575198113918304, -0.011899490840733051, -0.054724641144275665, -0.021110838279128075, -0.020730305463075638, 0.10522600263357162, 0.07135483622550964], [-0.20653705298900604, -0.07994361966848373, 0.17250756919384003, 0.044404879212379456, -0.03985197842121124, -0.16366712749004364, -0.14046628773212433, -0.21379299461841583, -0.10024826973676682, 0.009907939471304417, 0.08532709628343582, 0.08305136859416962, -0.17854732275009155, -0.15725143253803253, -0.06497658789157867, 0.14742684364318848, 0.03469664603471756, -0.032985568046569824, 0.07175694406032562, -0.1446855068206787, -0.15689578652381897, 0.13367629051208496, -0.1151459589600563, -0.10128112137317657, -0.2673149108886719], [0.12101129442453384, 0.10762037336826324, 0.13375891745090485, -0.13100787997245789, -0.16515785455703735, -0.16079621016979218, 0.16828469932079315, 0.0883222445845604, 0.12641488015651703, 0.12492149323225021, 0.03617873415350914, -0.0390351302921772, -0.11373860388994217, -0.13419049978256226, -0.23378437757492065, 0.10352380573749542, -0.10521597415208817, -0.05706622451543808, -0.10723965615034103, -0.0426923893392086, -0.12384437024593353, -0.10951890051364899, 0.06763364374637604, -0.052349694073200226, 0.10069777071475983], [-0.1089620590209961, -0.15722623467445374, -0.07182206958532333, -0.15199759602546692, -0.0706329345703125, -0.24361082911491394, 0.06805255264043808, -0.18336419761180878, 0.08447838574647903, 0.047872718423604965, 0.10770635306835175, -0.1774718463420868, 0.1598147451877594, -0.1504470556974411, 0.05859814211726189, 0.23712044954299927, -0.044444210827350616, -0.0053071980364620686, -0.0023647481575608253, -0.18911860883235931, 0.10374506562948227, -0.19678381085395813, 0.13378643989562988, 0.23926961421966553, 0.2760172188282013], [-0.05869563668966293, -0.1682969033718109, 0.04047009348869324, 0.10399574041366577, -0.19233226776123047, -0.060200661420822144, -0.1412232667207718, -0.02404806576669216, -0.09841614961624146, -0.11244082450866699, -0.06655098497867584, -0.2034424990415573, 0.18678268790245056, 0.10856431722640991, -0.03543548285961151, -0.08947066962718964, -0.09670437127351761, -0.1534421741962433, -0.25582870841026306, 0.07210205495357513, -0.10861966758966446, -0.14160305261611938, 0.007250740192830563, -0.12273139506578445, -0.07083458453416824], [0.009485851973295212, -0.05119508504867554, -0.08532682806253433, -0.0989920049905777, -0.17502106726169586, 0.20180730521678925, -0.09063587337732315, 0.05378247797489166, -0.0466119647026062, 0.057532887905836105, 0.20480315387248993, 0.09422403573989868, -0.17275260388851166, 0.11111730337142944, 0.21506090462207794, 0.10617350786924362, 0.15138064324855804, 0.23614300787448883, 0.01794971525669098, 0.082481250166893, -0.1660119742155075, -0.062411610037088394, 0.1264268010854721, 0.13974669575691223, -0.1288992315530777], [-0.17164656519889832, -0.14436087012290955, -0.2294473797082901, -0.16955117881298065, -0.0377061665058136, 0.10432129353284836, 0.015400944277644157, -0.16121582686901093, -0.16120797395706177, 0.06997706741094589, -0.16071629524230957, -0.0328894779086113, 0.10601183772087097, -0.15071143209934235, -0.027473436668515205, -0.0857774168252945, -0.04774676263332367, -0.12077458947896957, -0.24015332758426666, -0.16595864295959473, -0.11329466104507446, 0.2033461034297943, -0.10189130157232285, -0.18212929368019104, 0.06030545383691788], [0.06319655478000641, 0.09977658092975616, 0.18664921820163727, 0.11614149808883667, -0.17426598072052002, 0.032736122608184814, 0.14331234991550446, -0.00575434323400259, -0.16477076709270477, 0.22323310375213623, -0.12879611551761627, -0.10462591797113419, -0.19808870553970337, 0.0604502372443676, 0.06277968734502792, 0.09727431833744049, -0.034625496715307236, -0.18036550283432007, -0.22992467880249023, 0.04256664589047432, 0.2494773119688034, 0.17310163378715515, -0.048261214047670364, -0.026671363040804863, -0.20766422152519226], [-0.12719020247459412, 0.020069919526576996, 0.09781322628259659, 0.11590740829706192, -0.2196890264749527, 0.12670522928237915, -0.1954927146434784, 0.07703211158514023, 0.2086942195892334, 0.013424770906567574, 0.20736204087734222, -0.2138066440820694, -0.02507755532860756, 0.07698049396276474, 0.005647196434438229, 0.0032030190341174603, -0.0929773673415184, 0.14007198810577393, 0.15171508491039276, 0.08747555315494537, -0.14955194294452667, -0.20954053103923798, 0.02681545913219452, 0.12494684010744095, -0.03720947355031967], [-0.06391075253486633, 0.17269015312194824, -0.0035917710047215223, -0.0033228988759219646, -0.028154157102108, -0.19717279076576233, -0.21149274706840515, -0.10113368183374405, -0.09654176980257034, 0.0280351210385561, -0.06023884937167168, -0.08331973850727081, 0.20019976794719696, 0.0015745764831081033, 0.14282095432281494, -0.162308931350708, -0.0892738550901413, 0.09473294764757156, -0.1993003934621811, -0.1346893459558487, -0.004503848496824503, -0.09803064167499542, -0.13103559613227844, 0.08646920323371887, 0.23706181347370148], [0.02920292131602764, -0.05386563763022423, -0.2139730006456375, -0.11674605309963226, 0.04413525387644768, 0.08298790454864502, -0.03841054067015648, -0.12163005769252777, 0.12986457347869873, -0.14183953404426575, 0.16746877133846283, -0.08187904208898544, 0.02082630805671215, -0.033236369490623474, 0.04934154078364372, -0.00725744292140007, 0.18077009916305542, -0.015912441536784172, 0.20383761823177338, 0.19287578761577606, -0.15768848359584808, -0.21056008338928223, 0.11835361272096634, 0.203139066696167, -0.15103085339069366], [-0.03252456709742546, -0.2412751019001007, -0.19960813224315643, 0.006713480688631535, 0.025559263303875923, 0.07050780206918716, -0.06954675167798996, 0.19832517206668854, 0.025974532589316368, -0.1313297599554062, 0.01872888021171093, 0.07059275358915329, 0.06576604396104813, -0.18248184025287628, 0.07205135375261307, -0.14373761415481567, -0.21068495512008667, -0.12674270570278168, 0.1502811759710312, 0.2297096848487854, 0.2256520390510559, 0.1664143204689026, 0.19918881356716156, -0.07238098978996277, -0.09530435502529144], [0.10210443288087845, -0.1160065159201622, -0.16201326251029968, -0.07214746624231339, 0.04609833285212517, 0.13385158777236938, -0.07344749569892883, -0.12481237202882767, 0.03176073357462883, -0.07829894125461578, -0.12603096663951874, 0.10805230587720871, -0.039368871599435806, 0.23688580095767975, 0.20988716185092926, 0.11992985010147095, 0.03701867535710335, 0.05945839360356331, 0.060510966926813126, -0.016521286219358444, 0.024941520765423775, 0.0768931582570076, 0.21527600288391113, -0.03470214456319809, -0.14087750017642975], [-0.06663814932107925, -0.11013492196798325, 0.0032728889491409063, 0.12125419825315475, 0.18384207785129547, 0.08228561282157898, -0.1788109391927719, -0.12778732180595398, -0.04415646567940712, -0.06881194561719894, 0.01087272446602583, -0.19357934594154358, 0.0726231262087822, -0.19819287955760956, -0.13063058257102966, -0.2131129503250122, 0.17113903164863586, -0.170391246676445, 0.11669798195362091, -0.002626672387123108, -0.011398044414818287, 0.13703866302967072, -0.0019956249743700027, 0.11655455827713013, 0.22676153481006622], [-0.19884559512138367, 0.08457394689321518, -0.029571354389190674, 0.0020062727853655815, -0.037239667028188705, 0.027779992669820786, -0.1567680686712265, -0.009059631265699863, 0.1979464292526245, 0.12358655035495758, 0.053808070719242096, -0.2307165414094925, 0.061105649918317795, -0.18489928543567657, 0.17399071156978607, -0.13399258255958557, -0.019589068368077278, 0.030590705573558807, 0.09954038262367249, 0.2704284191131592, 0.06195499002933502, 0.181116983294487, 0.1569145917892456, 0.2094903141260147, 0.010425368323922157], [-0.02451108954846859, 0.11032980680465698, -0.017916351556777954, 0.07396703213453293, -0.015614794567227364, -0.16587944328784943, 0.10777395218610764, 0.04908163845539093, 0.11012671142816544, 0.23427987098693848, 0.16019736230373383, 0.20860615372657776, -0.007438998203724623, -0.16747592389583588, -0.12416523694992065, -0.10415826737880707, -0.14034909009933472, -0.1572399139404297, -0.19611091911792755, -0.24086102843284607, -0.16838115453720093, -0.2453441172838211, -0.16975349187850952, 0.1255786418914795, 0.24757695198059082], [-0.061924394220113754, -0.049534570425748825, 0.12263116985559464, -0.12946803867816925, -0.09094766527414322, 0.11943143606185913, -0.19439847767353058, 0.01835428923368454, 0.19818726181983948, 0.06598864495754242, 0.09200593829154968, -0.13300077617168427, 0.025468947365880013, 0.03206904977560043, 0.07803669571876526, 0.14850501716136932, 0.20123840868473053, -0.1631757915019989, 0.0565774105489254, -0.12826646864414215, -0.21547651290893555, -0.07206110656261444, -0.21923574805259705, 0.21904419362545013, 0.08379311859607697], [-0.10265540331602097, 0.0967378094792366, -0.20688462257385254, -0.07242220640182495, -0.07233130931854248, -0.19588179886341095, -0.12439757585525513, -0.027016259729862213, 0.16323161125183105, 0.2442166656255722, 0.16552136838436127, -0.12277089059352875, -0.12158124148845673, 0.22676017880439758, 0.08932023495435715, 0.06000598892569542, 0.02326449751853943, -0.17086859047412872, -0.030223289504647255, 0.22086957097053528, -0.04393418878316879, -0.0014127063332125545, -0.18473704159259796, -0.1085314080119133, -0.08669089525938034], [-0.13808965682983398, -0.03410826623439789, 0.06234836205840111, -0.21403129398822784, 0.11520597338676453, -0.1634702980518341, -0.11340867727994919, 0.07473425567150116, 0.15929678082466125, -0.09556431323289871, -0.11490605026483536, -0.19354398548603058, -0.11686592549085617, -0.21407029032707214, -0.04876776412129402, -0.030306126922369003, -0.20213483273983002, 0.18663248419761658, 0.08762388676404953, -0.2114124447107315, -0.08603151887655258, 0.06900984048843384, -0.03292645886540413, -0.06185613200068474, -0.06840941309928894], [0.16769903898239136, -0.14129087328910828, 0.213270366191864, 0.01571056619286537, 0.06417802721261978, 0.17369768023490906, -0.01930667646229267, -0.1143152043223381, -0.030072038993239403, 0.2064884752035141, -0.14450488984584808, 0.04806935042142868, -0.20139096677303314, 0.15677745640277863, 0.08883927762508392, 0.058141548186540604, 0.09551192820072174, -0.013327576220035553, 0.1659950315952301, -0.16834086179733276, -0.06296112388372421, 0.06826654821634293, 0.1855553686618805, 0.10259225219488144, -0.21377268433570862], [0.16057798266410828, -0.034630268812179565, -0.042573586106300354, -0.20144248008728027, -0.018078289926052094, 0.17192530632019043, 0.036679983139038086, -0.10036859661340714, 0.06938980519771576, -0.03563801571726799, 0.19665038585662842, -0.1736306995153427, -0.0627414882183075, -0.1635371893644333, -0.062471505254507065, 0.11983930319547653, 0.1627153605222702, 0.05259986221790314, 0.2354212999343872, 0.07482131570577621, 0.15326935052871704, 0.200409933924675, 0.18706771731376648, -0.05940724164247513, 0.20822115242481232], [0.12976336479187012, -0.10194335877895355, -0.09089014679193497, -0.19733817875385284, 0.047248825430870056, -0.19521667063236237, 0.09188655763864517, 0.06732872128486633, -0.16439615190029144, 0.09176979213953018, -0.0020796700846403837, 0.09945199638605118, 0.10669620335102081, -0.17710329592227936, 0.19975991547107697, 0.22720038890838623, 0.08944044262170792, -0.1936713606119156, -0.011078341864049435, -0.05747532099485397, -0.03899355232715607, 0.12072639912366867, 0.052232980728149414, 0.2099209576845169, -0.06688114255666733], [0.050249405205249786, 0.0705646499991417, -0.21618323028087616, -0.2491588592529297, -0.09917391836643219, 0.13950659334659576, -0.2534116804599762, -0.20423507690429688, 0.1396278738975525, 0.12166456878185272, 0.19362382590770721, -0.1906954050064087, -0.09865206480026245, 0.1059691309928894, 0.21062789857387543, 0.15899041295051575, 0.06564578413963318, 0.06343064457178116, 0.2524568438529968, -0.17600899934768677, -0.144620880484581, 0.09150224179029465, -0.18254631757736206, -0.04073789715766907, 0.1814073771238327], [0.06491503119468689, 0.06283693760633469, -0.08211128413677216, -0.026598365977406502, 0.20334012806415558, -0.13638225197792053, 0.012482588179409504, 0.11564277112483978, -0.16567857563495636, 0.22571590542793274, -0.15679223835468292, -0.048502083867788315, -0.07129157334566116, -0.11779873818159103, -0.2202077955007553, 0.17804674804210663, 0.0067755174823105335, -0.19844584167003632, -0.06398500502109528, 0.21694780886173248, 0.1263779252767563, 0.12588804960250854, -0.09678692370653152, -0.04116763547062874, -0.03602437302470207], [-0.023807698860764503, -0.1307239979505539, 0.025804659351706505, -0.004571504890918732, -0.032750338315963745, -0.00514326523989439, -0.0811307281255722, 0.06585340201854706, 0.11328054964542389, -0.12050393223762512, -0.1844361424446106, 0.11717519164085388, 0.0342276394367218, -0.1553945541381836, 0.21907010674476624, -0.1591472625732422, 0.17165224254131317, 0.12502528727054596, -0.22924023866653442, 0.14357665181159973, -0.21580231189727783, -0.12261779606342316, -0.07395389676094055, -0.20508545637130737, 0.14905861020088196], [-0.03244461864233017, 0.07371827214956284, -0.19517482817173004, 0.1060694083571434, -0.07603935152292252, -0.19538697600364685, 0.026502182707190514, 0.10802307724952698, 0.18660233914852142, -0.12401177734136581, -0.10199594497680664, 0.05805279314517975, 0.015637928619980812, 0.033760569989681244, 0.11271332949399948, -0.09108053147792816, 0.1328115165233612, 0.15862558782100677, -0.11148011684417725, 0.1805940419435501, 0.143312469124794, 0.23756156861782074, -0.13010622560977936, -0.16126590967178345, -0.10306154191493988], [0.001377613516524434, 0.143738254904747, -0.13735119998455048, 0.08368571102619171, -0.031040271744132042, 0.09942378103733063, -0.03497914969921112, -0.19807864725589752, -0.10145693272352219, -0.16421468555927277, 0.07730274647474289, -0.11977498978376389, -0.04768430069088936, -0.025285275653004646, -0.10218357294797897, 0.06587442010641098, -0.21515758335590363, -0.1558162122964859, -0.24572527408599854, -0.05978121981024742, -0.04265018552541733, 0.0573326051235199, -0.016261938959360123, 0.1678553819656372, 0.28347381949424744], [0.07141665369272232, -0.06144974008202553, -0.21057550609111786, 0.06379498541355133, -0.10389640182256699, 0.13076694309711456, 0.132107675075531, 0.08346841484308243, 0.1953512579202652, 0.2248997539281845, 0.06765339523553848, -0.16010576486587524, 0.19599781930446625, -0.06863323599100113, -0.08020619302988052, 0.2323552370071411, 0.16871222853660583, 0.08633076399564743, 0.07196315377950668, -0.14278079569339752, -0.041728779673576355, 0.17603006958961487, 0.03683440014719963, 0.06360584497451782, -0.06588982045650482], [-0.06107620522379875, 0.11656129360198975, 0.038060639053583145, 0.13567118346691132, -0.013099225237965584, 0.10626909881830215, 0.09553369134664536, 0.043116625398397446, 0.13668125867843628, 0.16834931075572968, 0.19653759896755219, 0.15162384510040283, -0.04772714152932167, -0.13565847277641296, 0.05512615665793419, 0.05473034083843231, -0.04266011714935303, -0.04942568391561508, 0.05798782780766487, 0.18248990178108215, 0.027977602556347847, -0.10848435759544373, -0.09246858954429626, -0.015279513783752918, -0.08995586633682251], [0.1978718340396881, 0.1187867745757103, 0.2089945524930954, 0.017003437504172325, 0.06631336361169815, 0.097853884100914, -0.1671513020992279, 0.03998775780200958, 0.0050225527957081795, -0.07245483249425888, -0.1543102115392685, 0.18537825345993042, 0.15338993072509766, 0.13079839944839478, 0.21694278717041016, -0.03626229241490364, -0.03032548539340496, 0.06836103647947311, 0.00158220948651433, -0.04262741282582283, -0.19049286842346191, 0.04007348045706749, -0.13477632403373718, 0.04861383140087128, 0.21718622744083405], [-0.0723559632897377, -0.06592928618192673, 0.10369431972503662, -0.08920718729496002, -0.025576971471309662, 0.16892610490322113, -0.09925854951143265, -0.15494577586650848, -0.11219299584627151, -0.08405889570713043, -0.0838446244597435, -0.11085185408592224, 0.09494487196207047, -0.026121411472558975, -0.06883105635643005, -0.22456590831279755, -0.0696590393781662, -0.059971634298563004, -0.12805718183517456, -0.18584245443344116, 0.017509572207927704, -0.19147130846977234, -0.13990932703018188, -0.21972595155239105, 0.08095637708902359], [-0.10774035006761551, -0.1054021492600441, 0.20554500818252563, 0.10418441891670227, 0.16281740367412567, -0.23359884321689606, -0.121318019926548, -0.10904774069786072, 0.17729735374450684, 0.04989011958241463, -0.21322773396968842, 0.03456158563494682, -0.2121558040380478, -0.024931352585554123, -0.04696190357208252, 0.2249276340007782, 0.017134614288806915, -0.05745136737823486, 0.06226802244782448, -0.10172934830188751, 0.10473685711622238, 0.09363119304180145, 0.0831749439239502, -0.014076806604862213, 0.2343241423368454], [0.0174858458340168, -0.05725325271487236, 0.1520129293203354, 0.18671464920043945, 0.22781366109848022, 0.06401112675666809, -0.026182757690548897, 0.14904287457466125, 0.20334601402282715, -0.15320152044296265, -0.053029004484415054, -0.12370432168245316, 0.011822385713458061, 0.11725787073373795, -0.016452020034193993, -0.03819061443209648, 0.10666992515325546, -0.01619185134768486, -0.19903860986232758, 0.21134144067764282, -0.06516414880752563, 0.022463416680693626, 0.0009660124778747559, -0.06699758768081665, -0.258683443069458], [0.06770924478769302, -0.10112179815769196, -0.11859146505594254, 0.025688229128718376, -0.12615855038166046, -0.11680717021226883, -0.09865663200616837, -0.09187083691358566, -0.09585937112569809, -0.10389968752861023, 0.028754884377121925, -0.1757081151008606, -0.11254008859395981, -0.05520731583237648, 0.0159920547157526, 0.05673708766698837, -0.11003842204809189, 0.09880752116441727, 0.07704246044158936, 0.0872042253613472, -0.21177922189235687, -0.1032533198595047, -0.20562057197093964, -0.16800934076309204, 0.1051669716835022], [-0.01048990711569786, 0.09805535525083542, -0.117557592689991, 0.04508392885327339, -0.1541798710823059, 0.08742906898260117, -0.06256856769323349, -0.06019741669297218, -0.18386520445346832, 0.03944053128361702, 0.2267092913389206, 0.11385373026132584, -0.11917740106582642, 0.04495072737336159, -0.036822400987148285, -0.1787647306919098, 0.1895902454853058, -0.0654279813170433, 0.07881322503089905, -0.08682031184434891, -0.14343978464603424, -0.021708901971578598, 0.03598285838961601, -0.008950632996857166, -0.17115537822246552], [0.17592363059520721, -0.03094489872455597, -0.1225513443350792, -0.14129407703876495, 0.1834123581647873, 0.0060210879892110825, -0.021922055631875992, -0.06462275981903076, -0.0992884412407875, -0.2059386819601059, -0.20071539282798767, 0.07158752530813217, 0.2079286128282547, 0.2281876802444458, -0.19007860124111176, 0.1638551503419876, -0.16610261797904968, 0.17170500755310059, 0.21143193542957306, 0.17160549759864807, 0.18203169107437134, 0.15733326971530914, 0.035192135721445084, 0.1527339220046997, -0.036219313740730286], [0.0990602895617485, -0.04341624677181244, 0.02528366819024086, -0.20844566822052002, -0.06803485751152039, -0.12489910423755646, -0.05437154322862625, -0.1400982290506363, -0.21543624997138977, 0.036427754908800125, 0.12751582264900208, 0.19903741776943207, 0.09563985466957092, -0.07242438197135925, -0.23204684257507324, 0.14780300855636597, 0.1259300857782364, -0.17776286602020264, 0.12882110476493835, 0.1933221071958542, -0.013819978572428226, -0.1321077048778534, 0.13599537312984467, 0.16880717873573303, 0.19081883132457733], [-0.1504133939743042, 0.15736594796180725, -0.134964257478714, 0.1933397650718689, -0.07772204279899597, 0.1136259213089943, 0.035143062472343445, 0.06991955637931824, -0.056342676281929016, 0.045391906052827835, -0.12699227035045624, -0.16280612349510193, -0.1408909112215042, 0.11233346164226532, -0.0720384493470192, 0.07295222580432892, -0.07236124575138092, 0.23224420845508575, 0.06653226912021637, 0.1259801834821701, -0.07802239060401917, -0.14247632026672363, 0.0078197056427598, -0.09896233677864075, 0.21036462485790253], [-0.2045905739068985, 0.13711369037628174, 0.2027309238910675, 0.09957510232925415, 0.08698849380016327, -0.21631845831871033, 0.1766912043094635, -0.04992619529366493, -0.1998416930437088, 0.1633511185646057, -0.06258159875869751, -0.01929386332631111, 0.19209742546081543, -0.19246594607830048, -0.15612909197807312, -0.020954851061105728, 0.02423664927482605, 0.08252907544374466, -0.2312535047531128, -0.019521459937095642, -0.14762623608112335, -0.159537211060524, -0.22328400611877441, 0.08063452690839767, 0.08487983793020248], [-0.14956194162368774, 0.18847082555294037, 0.10923675447702408, 0.03383902832865715, -0.12248530983924866, 0.025265125557780266, 0.2217162549495697, 0.16098371148109436, -0.19264021515846252, 0.2094556987285614, 0.015620081685483456, 0.11263085156679153, 0.1351553201675415, 0.21023176610469818, -0.18922539055347443, 0.2305549532175064, -0.13928619027137756, 0.037010058760643005, -0.14546902477741241, -0.040570832788944244, -0.0029202967416495085, -0.019280433654785156, -0.03968049958348274, 0.06351140886545181, 0.22218120098114014], [0.11638951301574707, 0.11123344302177429, 0.05765574797987938, 0.15223494172096252, -0.0319918729364872, -0.005640160292387009, 0.043936651200056076, -0.1863735318183899, -0.1562040150165558, -0.003377739107236266, -0.0826457142829895, 0.0005415207706391811, -0.0539231076836586, -0.020862063392996788, 0.12012844532728195, -0.1399933397769928, 0.1922917664051056, 0.1514175534248352, -0.21852241456508636, -0.18186017870903015, -0.18486522138118744, -0.11921146512031555, -0.1207580417394638, -0.08785293251276016, -0.10552473366260529], [-0.1080225482583046, -0.09598339349031448, -0.031328558921813965, 0.17874756455421448, -0.06138606369495392, -0.1902056187391281, 0.08209562301635742, -0.031595148146152496, 0.1530296951532364, 0.14237861335277557, 0.22537556290626526, -0.16350355744361877, 0.16050949692726135, 0.19188104569911957, -0.09283525496721268, 0.24530082941055298, 0.17766903340816498, 0.0035105538554489613, 0.14448271691799164, -0.07515086978673935, -0.22066034376621246, 0.005684852134436369, 0.03231039270758629, -0.07749880850315094, 0.10825332254171371], [-0.16813494265079498, 0.11655973643064499, 0.2253081053495407, 0.06185346469283104, -0.12708106637001038, 0.09876387566328049, 0.03716564178466797, 0.027935344725847244, 0.0870228260755539, 0.22127023339271545, -0.036976635456085205, -0.09345200657844543, 0.12318670004606247, 0.07627604156732559, 0.18981601297855377, -0.06237294524908066, 0.01791461743414402, 0.019798872992396355, 0.002121246885508299, 0.19282425940036774, 0.0010940390639007092, -0.20995469391345978, -0.05138665810227394, -0.10290775448083878, -0.08099358528852463], [-0.015921393409371376, -0.23151741921901703, -0.017344936728477478, -0.015145272016525269, -0.06432811915874481, 0.21083876490592957, -0.03169715031981468, 0.13231833279132843, 0.060318250209093094, -0.13900767266750336, 0.05814987048506737, 0.17001071572303772, -0.1342882663011551, -0.08198074996471405, 0.21055454015731812, 0.21406053006649017, -0.11371877044439316, 0.08714436739683151, 0.02489803358912468, -0.21519482135772705, -0.0055388412438333035, 0.021477844566106796, -0.06579599529504776, 0.07125504314899445, -0.24871623516082764], [0.15487149357795715, 0.18724845349788666, 0.1462247222661972, 0.05251108482480049, 0.09098634123802185, -0.15177327394485474, -0.030516864731907845, 0.005250950809568167, -0.10199025273323059, -0.11311937123537064, 0.14559251070022583, 0.1439897119998932, -0.1896076202392578, 0.09709258377552032, 0.09615876525640488, 0.23763366043567657, 0.12401808798313141, 0.2093774527311325, -0.0365392230451107, 0.17693094909191132, 0.14285004138946533, -0.20010384917259216, -0.17656750977039337, 0.08388666063547134, 0.13920162618160248], [-0.08052666485309601, -0.006972338538616896, 0.039071206003427505, 0.06331998854875565, -0.13159076869487762, 0.13979306817054749, 0.16068066656589508, -0.1537826657295227, 0.020248280838131905, 0.041786979883909225, 0.10087191313505173, 0.2036793977022171, 0.04510164633393288, -0.01913122646510601, 0.18919412791728973, -0.050333768129348755, -0.05907803773880005, -0.05345248430967331, -0.13669735193252563, -0.00986693985760212, -0.18758510053157806, -0.03285722807049751, 0.00920330360531807, -0.01914181374013424, -0.2494315207004547], [-0.1768743395805359, 0.08585899323225021, 0.21170757710933685, -0.18752676248550415, 0.10408689081668854, -0.1433759480714798, 0.03171246126294136, 0.18827156722545624, 0.164664164185524, -0.10765302926301956, 0.14941538870334625, 0.10972781479358673, -0.0021429392509162426, 0.24224638938903809, -0.06354963779449463, -0.006481208838522434, -0.10676589608192444, -0.03602626919746399, 0.0984751507639885, -0.00950009748339653, -0.13879303634166718, -0.12407775968313217, 0.08200030028820038, -0.16928255558013916, -0.09381203353404999], [-0.016410203650593758, -0.11393973976373672, 0.04009547084569931, -0.01492900401353836, 0.1877879649400711, -0.025008730590343475, -0.16307717561721802, 0.18108674883842468, 0.05427450314164162, -0.07793519645929337, -0.15762414038181305, 0.042468488216400146, -0.22085261344909668, 0.046321287751197815, 0.12085764110088348, -0.21613679826259613, -0.16910646855831146, -0.19298848509788513, 0.13294975459575653, 0.17727884650230408, 0.056622087955474854, 0.23575571179389954, -0.026110652834177017, -0.16872428357601166, 0.1503968983888626], [0.09333812445402145, 0.23414619266986847, 0.030467035248875618, 0.1708412915468216, 0.15021342039108276, 0.1605110764503479, -0.19363440573215485, 0.19801095128059387, -0.157866969704628, 0.18508729338645935, 0.029822129756212234, -0.16406796872615814, 0.06264671683311462, -0.06535732746124268, -0.16354124248027802, -0.13414375483989716, 0.031023059040308, 0.17956525087356567, -0.11844076961278915, 0.13220171630382538, 0.01660856045782566, -0.009706065058708191, 0.04002457112073898, -0.19999362528324127, -0.22412653267383575], [-0.0385972335934639, -0.21566075086593628, -0.11297603696584702, -0.014188592322170734, -0.09144758433103561, -0.07897673547267914, -0.01682325266301632, 0.02557072415947914, -0.07743173092603683, 0.03595197573304176, 0.016490399837493896, 0.09210715442895889, -0.0027386590372771025, -0.12028029561042786, -0.03823866695165634, -0.05450394004583359, -0.16401703655719757, 0.04163024574518204, -0.06455494463443756, 0.1490117758512497, 0.11197309195995331, 0.2191449999809265, 0.035490699112415314, -0.19154523313045502, 0.11014121770858765], [-0.14162564277648926, -0.020910782739520073, -0.086001917719841, -0.12125906348228455, -0.07725068926811218, 0.14124153554439545, 0.09503503143787384, 0.05166560783982277, 0.18385431170463562, -0.19627924263477325, 0.020506517961621284, 0.12142768502235413, 0.14164569973945618, -0.21547649800777435, 0.05493226647377014, -0.1820916384458542, 0.01675279811024666, -0.03794471547007561, -0.2254655808210373, -0.19712431728839874, -0.15204137563705444, 0.08082234859466553, 0.06743829697370529, -0.23333539068698883, -0.10131662338972092], [0.012855075299739838, -0.19552485644817352, 0.1522403061389923, 0.18802382051944733, 0.029115993529558182, -0.17521509528160095, 0.07011937350034714, 0.09455398470163345, 0.14164592325687408, -0.062052927911281586, -0.22748686373233795, 0.08450388163328171, 0.006050614640116692, -0.005230084527283907, -0.09311170130968094, -0.07870855182409286, 0.17186863720417023, -0.05014622583985329, 0.18484890460968018, 0.20236684381961823, 0.03409064933657646, 0.072377510368824, -0.04431143403053284, 0.10186256468296051, -0.2755027115345001], [0.055078573524951935, -0.04353554546833038, 0.1047455221414566, -0.04770875349640846, -0.07793497294187546, -0.058642275631427765, 0.08845178037881851, -0.167286679148674, -0.12822438776493073, -0.06452101469039917, -0.07627461105585098, 0.07014387100934982, 0.14475074410438538, -0.07733456045389175, 0.18279118835926056, -0.087677001953125, -0.14512814581394196, -0.1171647384762764, -0.20016081631183624, -0.15495546162128448, -0.1922367662191391, -0.20383521914482117, 0.08124975860118866, 0.16627490520477295, 0.28735628724098206], [0.17973147332668304, -0.007271206472069025, 0.073933444917202, -0.12615516781806946, 0.1087864339351654, -0.2058854103088379, 0.10900797694921494, 0.041507381945848465, 0.06876760721206665, 0.11471837759017944, -0.08654806762933731, 0.17592310905456543, 0.09022029489278793, 0.17186900973320007, 0.04157485067844391, 0.1861024647951126, 0.14019939303398132, 0.07640037685632706, 0.20053064823150635, -0.0174062792211771, 0.12763674557209015, 0.04036106914281845, 0.10062741488218307, 0.2522125840187073, 0.07445701956748962], [-0.06701040267944336, -0.008200623095035553, 0.07651742547750473, 0.01651822216808796, -0.08056743443012238, 0.12397849559783936, 0.15265080332756042, -0.1424277126789093, -0.030745577067136765, -0.035178035497665405, -0.13382917642593384, 0.028964508324861526, -0.08168715238571167, -0.12688089907169342, -0.08455014228820801, -0.13870495557785034, 0.238559290766716, 0.040263496339321136, 0.2047937959432602, 0.031160665675997734, 0.019134148955345154, 0.07237955927848816, -0.009675402194261551, -0.21806296706199646, -0.16938623785972595], [-0.051963839679956436, 0.012164353393018246, 0.08933962136507034, 0.0740639865398407, 0.18400725722312927, 0.02216596156358719, -0.0790228545665741, -0.16893570125102997, -0.1485070139169693, -0.1431005597114563, 0.07165545225143433, 0.11045605689287186, 0.17633865773677826, -0.11609933525323868, -0.024048827588558197, -0.12947620451450348, 0.00787149928510189, 0.0789780244231224, -0.06713330000638962, 0.005862065125256777, 0.002737634116783738, 0.04521828144788742, -0.05905202776193619, -0.1758161336183548, 0.04737107828259468], [0.015750009566545486, -0.056216198951005936, 0.10280772298574448, -0.002198091708123684, -0.04426390677690506, -0.14012785255908966, -0.0038531527388840914, -0.18681129813194275, 0.08584480732679367, 0.024148182943463326, 0.18061967194080353, 0.04639706388115883, -0.006216111592948437, 0.051235131919384, 0.17599403858184814, -0.17122629284858704, 0.17044107615947723, 0.05944489315152168, -0.1737813651561737, 0.0876617431640625, -0.16785895824432373, -0.09244383871555328, -0.15525582432746887, -0.2200411707162857, 0.12150032073259354], [-0.16101723909378052, 0.12046471983194351, -0.196419820189476, -0.031256817281246185, 0.0315471775829792, 0.16445042192935944, -0.05683122202754021, 0.07026409357786179, 0.05553659051656723, 0.1560806930065155, 0.014147995039820671, 0.09040014445781708, -0.14015521109104156, -0.10374918580055237, 0.20380252599716187, -0.08620786666870117, -0.0325578972697258, -0.03170129284262657, 0.23056864738464355, -0.021746084094047546, -0.1822320818901062, -0.08117613941431046, 0.09945082664489746, 0.15172411501407623, 0.24217210710048676], [-0.050456445664167404, 0.12407982349395752, -0.212676003575325, 0.057188477367162704, 0.10664919018745422, 0.09691949933767319, -0.13722877204418182, -0.0636301338672638, 0.05035095661878586, -0.17019911110401154, -0.1634981334209442, -0.20066788792610168, 0.024037014693021774, 0.07133448123931885, 0.04620455950498581, -0.053397342562675476, 0.11934570223093033, -0.14061148464679718, -0.025858089327812195, -0.08482847362756729, -0.1506839543581009, 0.13743993639945984, -0.19703646004199982, -0.021100183948874474, -0.20340315997600555], [-0.005256845150142908, -0.09243372082710266, 0.08571771532297134, -0.14985276758670807, 0.15433816611766815, -0.19949908554553986, 0.12707020342350006, -0.16756261885166168, 0.12003261595964432, -0.07892470061779022, 0.015977462753653526, -0.028602052479982376, 0.12700363993644714, 0.08236633241176605, -0.1524002104997635, 0.0734332874417305, -0.163474902510643, 0.15227191150188446, 0.07671414315700531, -0.0116372499614954, -0.0791633278131485, 0.09536656737327576, -0.10938679426908493, 0.17011159658432007, 0.1769198179244995], [0.16668671369552612, 0.08254338055849075, -0.2176886945962906, 0.1311061680316925, -0.0652599185705185, -0.08217974007129669, -0.01494094729423523, 0.18609409034252167, 0.19870276749134064, 0.038765791803598404, 0.1698291301727295, -0.2239641398191452, 0.05634196847677231, -0.22475768625736237, 0.11798026412725449, -0.2137923687696457, -0.025472337380051613, 0.15193437039852142, 0.235123410820961, -0.11097106337547302, -0.17070305347442627, -0.02579706721007824, 0.04200911149382591, -0.11495231837034225, -0.10461317002773285], [-0.1210351511836052, 0.07344257086515427, 0.2423754334449768, -0.11318496614694595, 0.11719316244125366, 0.11581791192293167, 0.18365973234176636, -0.013732611201703548, 0.011884605512022972, 0.19512873888015747, 0.1527087539434433, 0.18642906844615936, -0.03908756002783775, 0.14059211313724518, 0.14996890723705292, -0.12738439440727234, 0.06511218845844269, -0.07234227657318115, 0.17081746459007263, -0.1054268479347229, -0.047374337911605835, 0.05791468173265457, -0.21099108457565308, -0.20677663385868073, -0.1793317347764969], [0.1353449523448944, 0.13036532700061798, -0.1281922161579132, 0.04291839525103569, -0.10208644717931747, -0.06772449612617493, 0.1873892843723297, 0.11060357838869095, -0.052268605679273605, 0.07087603211402893, 0.041023723781108856, 0.04433029145002365, -0.0657399594783783, -0.07122709602117538, 0.1439780443906784, 0.08450434356927872, 0.05033164098858833, -0.06220947578549385, 0.15119831264019012, 0.1848023384809494, 0.1598878800868988, 0.09041240811347961, 0.21805091202259064, 0.03442653268575668, 0.016558149829506874], [0.20132678747177124, 0.19361573457717896, -0.05809945613145828, 0.20435889065265656, 0.07999397069215775, -0.021648181602358818, 0.1945689618587494, -0.0971173346042633, 0.12801998853683472, 0.22775191068649292, -0.1633743941783905, -0.12475597858428955, -0.19822588562965393, 0.004892929457128048, -0.18225575983524323, -0.03319808095693588, 0.07901596277952194, 0.14631278812885284, 0.15329048037528992, 0.14837178587913513, 0.06106776371598244, -0.1523149311542511, -0.18005932867527008, 0.03385775536298752, 0.17556937038898468], [-0.027502035722136497, 0.014129777438938618, -0.16177962720394135, -0.14136768877506256, -0.15402071177959442, 0.13520783185958862, -0.08560410141944885, -0.20859943330287933, 0.007999608293175697, -0.014704142697155476, -0.030388610437512398, 0.03967917710542679, 0.1299627125263214, -0.21895481646060944, -0.1657806932926178, 0.050545062869787216, -0.18360882997512817, -0.18630221486091614, 0.22686806321144104, -0.0550570972263813, -0.1454644799232483, -0.11372002959251404, -0.17562448978424072, 0.24152308702468872, 0.03451341390609741], [-0.14819079637527466, -0.1834813356399536, 0.09507681429386139, -0.07550028711557388, -0.0058226739056408405, -0.08383416384458542, -0.149505153298378, 0.003573691239580512, 0.14905133843421936, -0.15517131984233856, -0.016127318143844604, -0.17116476595401764, -0.07995888590812683, 0.10181142389774323, -0.002884615445509553, 0.192337766289711, -0.027569705620408058, -0.11504867672920227, -0.17205801606178284, 0.13961666822433472, -0.19287051260471344, 0.06785538047552109, 0.03503095731139183, 0.12827624380588531, 0.20716021955013275], [-0.05805112421512604, 0.129756361246109, -0.18340733647346497, -0.07900102436542511, 0.17560870945453644, 0.04743940755724907, -0.03848457708954811, -0.056430522352457047, -0.12812958657741547, 0.10064903646707535, -0.027680490165948868, -0.007991711609065533, 0.04299818351864815, 0.10034666955471039, -0.11014414578676224, -0.1287514567375183, 0.14321553707122803, 0.12518490850925446, -0.1575106680393219, -0.20976820588111877, 0.0455302968621254, 0.12080062180757523, 0.030522018671035767, 0.09143288433551788, -0.18125653266906738], [0.05065280571579933, -0.1527087539434433, 0.15102069079875946, 0.10847991704940796, 0.03327290713787079, 0.1556437462568283, -0.1661781668663025, -0.2242574244737625, -0.24391761422157288, 0.09199517965316772, 0.09040282666683197, -0.20579172670841217, 0.15488292276859283, 0.20286865532398224, -0.24160616099834442, 0.1511099934577942, -0.022055944427847862, 0.07233761996030807, 0.22884692251682281, 0.18096458911895752, 0.1344013810157776, 0.206698477268219, 0.12923197448253632, -0.03191684931516647, -0.26689064502716064], [0.032366424798965454, -0.17936602234840393, 0.0909828320145607, 0.02010255493223667, 0.007122550625354052, -0.18910051882266998, -0.11133592575788498, 0.1264752596616745, 0.09811875224113464, 0.1505354642868042, -0.060984961688518524, -0.043844327330589294, -0.04212016984820366, 0.19062566757202148, -0.07844185829162598, 0.1908334344625473, 0.1546204537153244, -0.20360426604747772, 0.06106201931834221, -0.07933727651834488, -0.1619800180196762, 0.0393252894282341, -0.05804538354277611, 0.20176389813423157, -0.1762923300266266], [0.07080081105232239, -0.18078264594078064, -0.12738779187202454, -0.008688874542713165, 0.17790739238262177, 0.06789535284042358, -0.18667268753051758, 0.0043371631763875484, -0.12252775579690933, -0.039809271693229675, -0.18915638327598572, -0.06532502174377441, 0.13718754053115845, -0.22977377474308014, -0.1992112547159195, -0.012217968702316284, 0.03420117124915123, -0.03999995440244675, 0.1541491597890854, -0.1492210328578949, -0.16775564849376678, -0.19181154668331146, -0.048425428569316864, -0.04746582359075546, 0.19929592311382294], [0.000980555429123342, 0.07678482681512833, -0.08089135587215424, 0.17490024864673615, 0.18802252411842346, -0.16045106947422028, -0.056035857647657394, -0.16074952483177185, 0.09538345038890839, -0.14084157347679138, -0.10119771957397461, 0.21123287081718445, -0.2085832953453064, 0.17709556221961975, 0.0360506996512413, 0.21625873446464539, -0.08092211931943893, 0.14526410400867462, 0.0708879604935646, 0.01540960930287838, 0.11195062100887299, -0.20188143849372864, -0.19618968665599823, 0.248508483171463, -0.08056298643350601], [-0.14300432801246643, -0.009324978105723858, -0.09909271448850632, -0.040366169065237045, -0.1370343565940857, 0.05763258412480354, -0.19921107590198517, 0.026434946805238724, 0.12057141214609146, 0.023987285792827606, 0.028913559392094612, 0.03263722360134125, -0.05748970806598663, -0.08793868869543076, -0.08744905143976212, -0.2040838748216629, -0.12378387153148651, 0.20762059092521667, -0.0956215187907219, 0.09468308836221695, 0.17090438306331635, 0.015386690385639668, -0.08968990296125412, -0.19238999485969543, -0.0892980620265007], [0.11713377386331558, -0.17439991235733032, -0.00016786449123173952, 0.049229662865400314, 0.19052653014659882, 0.05294059216976166, 0.07316090911626816, 0.17913053929805756, 0.14198942482471466, 0.10793732851743698, -0.058119650930166245, -0.12765495479106903, -0.06922496855258942, -0.02940789796411991, 0.059000372886657715, -0.05624522268772125, 0.095755934715271, 0.1412702202796936, -0.12789054214954376, -0.20554013550281525, -0.12865909934043884, -0.11141657829284668, 0.10084041208028793, -0.21504336595535278, -0.09082040935754776], [-0.042029477655887604, -0.16777384281158447, 0.07924732565879822, -0.13078077137470245, -0.003231574548408389, -0.18187260627746582, -0.05082205682992935, 0.045643094927072525, 0.016735974699258804, -0.07118953764438629, 0.10688961297273636, -0.058108359575271606, -0.08526687324047089, -0.19732512533664703, -0.03145071491599083, -0.2392020970582962, 0.1555071473121643, -0.09780789166688919, -0.10743802785873413, 0.04500389099121094, 0.06830880790948868, -0.007377785164862871, 0.1528560221195221, -0.1580532193183899, 0.12038648873567581], [0.0020254331175237894, -0.19300931692123413, -0.058533068746328354, 0.03572417423129082, 0.04327257350087166, 0.15197321772575378, 0.14826633036136627, -0.13640277087688446, -0.08327760547399521, -0.033297259360551834, -0.20466487109661102, -0.04470153898000717, -0.1876840889453888, 0.09328456968069077, 0.1543157696723938, 0.059552744030952454, -0.1840546429157257, -0.18312467634677887, -0.03256048262119293, 0.0408901572227478, 0.030215343460440636, 0.055686093866825104, 0.2095154970884323, 0.1478920429944992, 0.09703481942415237], [-0.05418813228607178, 0.10619897395372391, 0.04871143400669098, -0.22520139813423157, -0.147356316447258, 0.006614798679947853, 0.05472468584775925, 0.10072053223848343, -0.13394643366336823, -0.226851224899292, -0.06725465506315231, -0.04009952396154404, 0.05406833812594414, -0.0490918904542923, 0.15116673707962036, 0.07780000567436218, 0.16033631563186646, -0.14779239892959595, 0.12756794691085815, -0.010268100537359715, -0.1032620295882225, 0.11035449057817459, -0.22211754322052002, 0.24153000116348267, 0.09599024802446365], [0.0013148370198905468, 0.0751616358757019, 0.055589716881513596, 0.06945407390594482, 0.13260427117347717, -0.1839337795972824, 0.1348273605108261, -0.042796581983566284, -0.07208578288555145, 0.03236961364746094, 0.14330878853797913, -0.1202172189950943, -0.12158109992742538, 0.17664159834384918, -0.11616572737693787, 0.12110067903995514, -0.08623822033405304, 0.0305898729711771, 0.20810194313526154, -0.1563490331172943, -0.09423232823610306, 0.06567854434251785, 0.0584382601082325, 0.0073772300966084, -0.21687935292720795], [0.17914079129695892, 0.0041969348676502705, -0.02755923569202423, -0.07784333825111389, -0.02477949671447277, 0.12902778387069702, 0.006180889904499054, 0.1813599020242691, 0.0018071341328322887, 0.0038601504638791084, 0.12729191780090332, -0.005762218497693539, -0.037460703402757645, 0.0937240719795227, 0.1753581464290619, 0.10019303858280182, 0.16003017127513885, 0.16994546353816986, 0.09282063692808151, 0.1084098145365715, 0.06036675348877907, 0.021528633311390877, 0.14640924334526062, 0.23096385598182678, 0.08604995161294937], [-0.0013413599226623774, 0.18446084856987, -0.16180075705051422, 0.13121569156646729, 0.1270529180765152, 0.1412573903799057, -0.00501282000914216, -0.1389431655406952, 0.14415542781352997, -0.05861077457666397, 0.021678471937775612, 0.1195235326886177, -0.19934599101543427, 0.04591339826583862, -0.058211762458086014, 0.20041440427303314, -0.12172599881887436, 0.15448346734046936, 0.18482878804206848, 0.14122755825519562, 0.2143535614013672, 0.059968020766973495, -0.20086410641670227, 0.20041286945343018, 0.05350333824753761], [0.007858713157474995, -0.2177658975124359, -0.04075208678841591, -0.12183544784784317, 0.22532959282398224, 0.1730615794658661, 0.15671400725841522, 0.15339970588684082, -0.10686922818422318, -0.07412515580654144, -0.056069061160087585, -0.08595071732997894, 0.17953959107398987, 0.07384040206670761, 0.18662536144256592, 0.015814589336514473, -0.21988610923290253, -0.021014411002397537, 0.17509107291698456, 0.16351811587810516, 0.1061074361205101, -0.016183532774448395, -0.15317076444625854, -0.0550604946911335, 0.16199429333209991], [-0.09429217129945755, 0.08669518679380417, 0.018421662971377373, -0.08630447834730148, 0.11603042483329773, -0.0843658447265625, -0.028616826981306076, -0.0855405330657959, -0.18845278024673462, -0.0004833275743294507, 0.04928036779165268, -0.10428919643163681, 0.13018018007278442, -0.24211761355400085, -0.19515900313854218, -0.18636678159236908, -0.09167362004518509, 0.006826478522270918, -0.10300001502037048, 0.09846773743629456, -0.14426739513874054, 0.06027037277817726, 0.027532637119293213, 0.00884205847978592, 0.22445310652256012], [0.12491293251514435, -0.1142469197511673, -0.1463625133037567, -0.04524499922990799, -0.1355033665895462, 0.09658336639404297, 0.01820104382932186, 0.162852942943573, 0.06879718601703644, -0.006085109896957874, -0.01942547969520092, 0.04956715553998947, -0.0321812704205513, 0.21822555363178253, -0.1561414748430252, 0.16278725862503052, -0.14282388985157013, -0.19305071234703064, 0.025641467422246933, 0.10602327436208725, 0.17263241112232208, 0.07884562015533447, -0.017177961766719818, 0.021282989531755447, -0.14861957728862762], [-0.02619069814682007, 0.01216488890349865, 0.16704951226711273, 0.10967027395963669, -0.17507122457027435, -0.011655873619019985, -0.14067941904067993, -0.035472411662340164, -0.1702304631471634, 0.026894377544522285, -0.1182343140244484, 0.19554434716701508, 0.16024883091449738, -0.19173090159893036, -0.2026611566543579, -0.054072342813014984, -0.012216995470225811, 0.08397728204727173, -0.19352728128433228, 0.07311394065618515, -0.22387853264808655, -0.15417391061782837, -0.1417645663022995, 0.04639134183526039, -0.034354619681835175], [-0.22631239891052246, -0.12225989997386932, -0.11836635321378708, -0.2298891842365265, 0.06621318310499191, 0.06497317552566528, -0.08466235548257828, -0.11203362792730331, -0.019922740757465363, -0.20641586184501648, -0.13867948949337006, -0.014309778809547424, 0.17305275797843933, -0.09040038287639618, 0.08016366511583328, -0.03065343387424946, -0.0861736312508583, -0.16339002549648285, 0.19879424571990967, 0.21683460474014282, 0.012456974945962429, 0.13020290434360504, 0.18814674019813538, 0.18423762917518616, 0.1945871114730835], [-0.2066674828529358, -0.19859632849693298, -0.18341046571731567, 0.05125073716044426, -0.17184241116046906, -0.1672869324684143, -0.11874265223741531, -0.20253725349903107, -0.009997840039432049, 0.0004588346928358078, -0.1327611207962036, 0.12059006094932556, -0.06743641942739487, -0.09248855710029602, 0.14013731479644775, 0.12589356303215027, -0.07354020327329636, -0.13069477677345276, -0.14931368827819824, 0.02418580837547779, 0.17588795721530914, 0.15048374235630035, -0.027894463390111923, -0.23363448679447174, -0.19208835065364838], [-0.06169915944337845, 0.007984457537531853, -0.09785658121109009, -0.1948779821395874, 0.062309302389621735, -0.16567574441432953, -0.17298594117164612, -0.16915519535541534, -0.014728489331901073, 0.17154063284397125, 0.04853196442127228, 0.006110908929258585, 7.01785902492702e-05, 0.07901331037282944, 0.0478094257414341, -0.11082296073436737, -0.14013391733169556, -0.14635629951953888, 0.014443892985582352, -0.21804119646549225, -0.04316329210996628, -0.087890625, 0.20404690504074097, 0.2512786090373993, 0.2113829106092453], [0.013660626485943794, -0.09001580625772476, 0.0883517861366272, -0.1440720111131668, -0.07059242576360703, -0.05411408841609955, -0.03279782459139824, -0.18335554003715515, 0.0733976885676384, 0.21367371082305908, -0.11520741134881973, 0.052953630685806274, -0.02322688326239586, 0.05208655819296837, 0.018401453271508217, 0.2375331073999405, 0.026349589228630066, -0.15284889936447144, -0.018266351893544197, 0.09566786885261536, 0.03451552987098694, -0.028548764064908028, -0.038628123700618744, -0.08345077186822891, -0.14723536372184753], [-0.09274227917194366, 0.03202270343899727, 0.09129544347524643, 0.16474618017673492, -0.009362844750285149, 0.04353711009025574, 0.14577390253543854, 0.10938509553670883, 0.03010149672627449, 0.12029679864645004, 0.05661655217409134, -0.17110833525657654, 0.014237399213016033, -0.02024703472852707, 0.19485700130462646, 0.22556941211223602, -0.00015072652604430914, 0.22909723222255707, -0.1011648029088974, 0.2246902734041214, 0.22415202856063843, 0.020594367757439613, -0.12319755554199219, -0.10510880500078201, -0.1439315527677536], [0.029914213344454765, -0.18425561487674713, 0.07601664215326309, -0.0967288613319397, -0.03646396845579147, -0.12444817274808884, -0.0011388515122234821, -0.21982327103614807, -0.12729302048683167, 0.05365368351340294, 0.14555524289608002, 0.21527037024497986, -0.18192364275455475, 0.11049321293830872, -0.1413108855485916, -0.14079487323760986, 0.008748701773583889, -0.17652325332164764, -0.22619277238845825, -0.20718470215797424, -0.17158237099647522, 0.13224665820598602, 0.09499140083789825, -0.14116600155830383, -0.20284034311771393], [-0.17279905080795288, -0.12772348523139954, -0.09913987666368484, 0.1156899556517601, 0.06388317048549652, -0.10862243920564651, 0.1130886971950531, -0.14448265731334686, -0.16631630063056946, 0.011258667334914207, -0.1099194660782814, 0.051341768354177475, 0.18227282166481018, -0.15233363211154938, -0.14574505388736725, 0.015450776554644108, -0.1927703619003296, 0.21175067126750946, -0.16465020179748535, 0.09168297797441483, -0.17440059781074524, -0.17255613207817078, 0.039614323526620865, 0.04564681649208069, 0.24286402761936188], [0.16906528174877167, 0.01613510772585869, -0.05011700093746185, 0.014439111575484276, -0.048641420900821686, -0.017944997176527977, -0.20308831334114075, -0.18025411665439606, 0.1423255205154419, -0.14168135821819305, 0.19060704112052917, 0.0191118773072958, 0.05426424369215965, 0.1372416913509369, -0.11537797749042511, -0.10555478185415268, 0.05841571465134621, 0.07510776817798615, -0.2517414689064026, 0.0727049708366394, -0.13645002245903015, 0.007375158369541168, 0.11570879071950912, -0.08628109842538834, 0.004990148823708296], [-0.05133950710296631, 0.12595242261886597, 0.14542433619499207, -0.030875608325004578, -0.14819706976413727, -0.17954778671264648, 0.13417598605155945, 0.10145395994186401, 0.13561789691448212, -0.1919756680727005, 0.22457945346832275, -0.07891721278429031, 0.21799592673778534, 0.14140333235263824, 0.021917525678873062, -0.1413698047399521, 0.24243631958961487, -0.16828951239585876, 0.19099925458431244, -0.2611469328403473, -0.1304320991039276, -0.2432590276002884, -0.1488841474056244, 0.014152859337627888, -0.22373536229133606], [-0.16013139486312866, 0.14445804059505463, 0.09005391597747803, 0.007334188558161259, -0.12124337255954742, -0.05124650523066521, -0.06240103766322136, 0.1334376186132431, -0.028420856222510338, -0.06917717307806015, -0.1410127729177475, -0.07677822560071945, 0.091616690158844, 0.0859135314822197, 0.06635899096727371, -0.13245134055614471, 0.2260769158601761, 0.0594540610909462, -0.11521414667367935, -0.08278016746044159, -0.03936409950256348, 0.09995381534099579, 0.050862282514572144, 0.08759573101997375, -0.061359845101833344], [0.16849111020565033, -0.06779183447360992, -0.10365096479654312, -0.08496911823749542, -0.18424731492996216, -0.11704562604427338, -0.18557734787464142, -0.004039537627249956, -0.002130980836227536, -0.029186975210905075, -0.14072203636169434, 0.18938501179218292, -0.08063673228025436, 0.09764324873685837, 0.1427314728498459, -0.07614839822053909, -0.016853611916303635, 0.13894277811050415, 0.21195924282073975, -0.010411501862108707, 0.10165628045797348, -0.20075853168964386, -0.1406768262386322, 0.22808314859867096, 0.04407644644379616], [0.2147572785615921, 0.03516121581196785, -0.07159194350242615, 0.19062654674053192, 0.21304355561733246, 0.029137764126062393, -0.10929391533136368, 0.0007126962300390005, -0.08602346479892731, 0.18244928121566772, 0.03295086696743965, 0.052775196731090546, 0.11184676736593246, 0.09763792902231216, -0.10417921841144562, 0.2267475128173828, 0.16017815470695496, -0.1412266492843628, 0.19388757646083832, 0.05053297057747841, -0.08217374235391617, -0.18541894853115082, -0.06798268854618073, -0.13342909514904022, 0.14772486686706543], [0.15768025815486908, -0.04131718724966049, 0.21783535182476044, -0.08475272357463837, 0.06070622056722641, -0.15502849221229553, 0.009105225093662739, 0.09186217933893204, 0.08752615749835968, 0.03618136793375015, -0.10168565809726715, 0.14261560142040253, 0.12796850502490997, 0.07374683767557144, -0.08192317187786102, 0.09692982584238052, 0.01048115361481905, 0.21293309330940247, 0.08541101217269897, 0.0412367507815361, 0.011576331220567226, 0.10407207161188126, -0.020214959979057312, 0.22052417695522308, 0.10294002294540405], [-0.16448679566383362, -0.03673385828733444, -0.20227962732315063, -0.18633989989757538, 0.052386119961738586, 0.03394736349582672, -0.030770059674978256, 0.22076471149921417, -0.10927251726388931, -0.10946474969387054, -0.05630249157547951, -0.004351330455392599, -0.04248463734984398, 0.14203807711601257, -0.08751407265663147, -0.1588868498802185, -0.030751975253224373, 0.18694958090782166, -0.010040518827736378, 0.13822931051254272, 0.09398121386766434, 0.22630655765533447, 0.17215649783611298, 0.08987759053707123, -0.033844951540231705], [-0.17241252958774567, -0.0786195918917656, 0.050852220505476, 0.1369868814945221, -0.06342196464538574, 0.1581413298845291, 0.020027531310915947, -0.002939679194241762, -0.0026381677016615868, -0.0715675950050354, 0.15775536000728607, 0.008997997269034386, 0.11771045625209808, -0.21451106667518616, -0.1147148385643959, -0.03996735438704491, 0.15608635544776917, 0.09642565995454788, -0.021234329789876938, -0.21692466735839844, -0.02104228362441063, -0.15178152918815613, -0.16973184049129486, -0.027437375858426094, -0.1296379417181015], [0.19433215260505676, -0.11457832157611847, 0.08184897899627686, 0.12856607139110565, -0.15682893991470337, 0.13359850645065308, -0.013087650761008263, 0.1150483787059784, 0.21524326503276825, -0.044495563954114914, -0.06500999629497528, 0.16523616015911102, 0.018055813387036324, 0.012378433719277382, 0.1785818487405777, -0.04863693192601204, 0.005410726182162762, 0.13555699586868286, 0.11121691018342972, -0.1141437217593193, 0.004577754996716976, -0.19723528623580933, -0.12800168991088867, 0.15560729801654816, -0.07015154510736465], [-0.0897984579205513, 0.024565964937210083, 0.04576294496655464, -0.1275956630706787, -0.10121176391839981, -0.21749936044216156, 0.06391084939241409, -0.13919852674007416, 0.018700862303376198, -0.054688774049282074, -0.14768901467323303, -0.0411374568939209, -0.2038169950246811, -0.14837267994880676, -0.0014207414351403713, -0.2132612019777298, -0.1856028288602829, 0.12149576842784882, -0.040575481951236725, -0.10287255048751831, 0.01618289388716221, 0.17226766049861908, -0.1569003164768219, -0.15151147544384003, -0.1819910854101181], [-0.023457827046513557, -0.027795668691396713, -0.20365719497203827, 0.1116800457239151, -0.20459115505218506, 0.16436003148555756, -0.16598236560821533, -0.03964756429195404, 0.04562109336256981, -0.09180007874965668, 0.2320489138364792, -0.14436838030815125, 0.007486055139452219, -0.18521298468112946, 0.05896439030766487, 0.13004863262176514, 0.21043391525745392, 0.04093552753329277, -0.14033998548984528, 0.2530311346054077, 0.032608967274427414, 0.18756194412708282, -0.1323421448469162, -0.16312837600708008, -0.23456914722919464], [0.19306710362434387, 0.026415474712848663, -0.14066193997859955, 0.004149355925619602, -0.09022925794124603, 0.036086879670619965, 0.081458181142807, -0.09416385740041733, 0.034118909388780594, -0.08342410624027252, 0.07054464519023895, -0.20868071913719177, 0.058450765907764435, 0.2548365890979767, 0.18978609144687653, 0.13503871858119965, 0.15035496652126312, 0.24041438102722168, 0.12343961000442505, 0.09706627577543259, 0.026004256680607796, 0.1842847764492035, 0.1716850847005844, -0.08979865908622742, -0.1045529842376709], [-0.13791631162166595, 0.06565120071172714, -0.2294905185699463, 0.040516264736652374, -0.06801164895296097, 0.07638143748044968, 0.011475679464638233, -0.10548636317253113, 0.11177551746368408, 0.05778307467699051, -0.16135725378990173, 0.15961351990699768, 0.20808666944503784, 0.12760788202285767, 0.002593680750578642, 0.08321584761142731, -0.13226376473903656, -0.058153022080659866, 0.1410243660211563, 0.06663170456886292, 0.09191419184207916, -0.19438380002975464, 0.18272919952869415, -0.025409292429685593, 0.2448880672454834], [0.1772957146167755, 0.0709550678730011, 0.2502417266368866, 0.1537073701620102, 0.09516734629869461, -0.05536636710166931, 0.21538972854614258, 0.06258023530244827, 0.10557977110147476, -0.009924584999680519, 0.16017402708530426, 0.17925676703453064, -0.15343421697616577, 0.21940037608146667, -0.14619649946689606, -0.1283360719680786, -0.15030606091022491, 0.05416689068078995, -0.12035457044839859, -0.05035098269581795, -0.11749684065580368, 0.05091974884271622, -0.21217402815818787, -0.10688178986310959, -0.05837731808423996], [-0.0005281976191326976, -0.11321759968996048, 0.04429672285914421, -0.150915265083313, -0.16741347312927246, -0.02571495622396469, -0.13605734705924988, 0.13745607435703278, -0.13858433067798615, -0.0404861718416214, 0.11282259970903397, -0.19123536348342896, 0.1777738630771637, -0.13516299426555634, -0.057718001306056976, -0.18425725400447845, -0.11049143224954605, -0.055981479585170746, -0.23947450518608093, 0.09162147343158722, 0.04195145517587662, 0.23312824964523315, 0.17685510218143463, 0.12835392355918884, 0.10607914626598358], [0.11541830748319626, 0.16410714387893677, 0.1967499554157257, -0.16471731662750244, -0.07380858063697815, -0.22069460153579712, 0.02790824882686138, -0.06521515548229218, 0.18485328555107117, 0.07562733441591263, 0.009102923795580864, -0.15572406351566315, -0.1427120715379715, 0.08432747423648834, -0.0814436823129654, -0.06546861678361893, 0.1593693494796753, -0.08210422098636627, -0.061404529958963394, 0.1909639686346054, 0.05851176381111145, -0.1185343936085701, 0.03149523213505745, 0.07428693771362305, -0.25814101099967957], [0.04531599208712578, 0.04674523323774338, 0.000876092235557735, 0.19593080878257751, -0.13747286796569824, 0.1436222493648529, -0.09548403322696686, -0.1544763594865799, 0.1495416760444641, -0.06063062697649002, 0.01243511401116848, 0.11059621721506119, -0.17368179559707642, -0.14849452674388885, 0.08921383321285248, 0.23385867476463318, -0.010014425031840801, 0.17112290859222412, 0.12401849031448364, 0.08598023653030396, -0.13741007447242737, 0.18392522633075714, 0.07406739145517349, 0.07629247009754181, 0.13662678003311157], [-0.19574639201164246, 0.03184717148542404, -0.12079918384552002, -0.03474558889865875, 0.047042496502399445, 0.05997505784034729, 0.016765670850872993, -0.16755196452140808, -0.13476578891277313, -0.045300208032131195, -0.02024381421506405, -0.17801281809806824, 0.2074061632156372, -0.043248072266578674, -0.15251277387142181, 0.05999970808625221, 0.061461593955755234, -0.054711636155843735, 0.0864216610789299, -0.12665647268295288, 0.1130630224943161, 0.24077631533145905, 0.15651297569274902, 0.10767374187707901, 0.01221088133752346], [0.05234117805957794, 0.10392139852046967, 0.05383763834834099, -0.0433456152677536, 0.04957285150885582, -0.06791900843381882, -0.10058972239494324, -0.19878903031349182, -0.1493312418460846, -0.1210002526640892, 0.1808897852897644, 0.09339545667171478, -0.2342901974916458, -0.12210376560688019, 0.06341567635536194, -0.07721539586782455, -0.08586759865283966, -0.06470653414726257, -0.11991345137357712, 0.06854059547185898, 0.06147458404302597, 0.18055899441242218, 0.1627189815044403, 0.14707019925117493, 0.02448415383696556], [-0.12942741811275482, -0.030196473002433777, -0.16817153990268707, 0.0546175017952919, -0.07075301557779312, -0.06302975118160248, -0.2107255458831787, 0.07912520319223404, 0.08564411103725433, 0.14370588958263397, -0.05255269631743431, 0.0329703688621521, 0.03967353701591492, -0.14625169336795807, -0.14493325352668762, 0.10289613902568817, -0.1624775528907776, 0.16470003128051758, 0.06244565546512604, 0.061880189925432205, 0.18880850076675415, 0.1382916271686554, 0.13102594017982483, 0.07006601989269257, -0.1256818175315857], [-0.0903867557644844, -0.03551417961716652, 0.1478300243616104, 0.12193842232227325, 0.17538869380950928, -0.062280911952257156, -0.005123367067426443, -0.12842683494091034, 0.14380089938640594, -0.10517450422048569, -0.07007469236850739, 0.17754659056663513, 0.03738579899072647, -0.07385198026895523, -0.10948579758405685, -0.07593982666730881, 0.1928100436925888, -0.19879591464996338, 0.22310733795166016, 0.18910911679267883, -0.03570428863167763, -0.06257174164056778, 0.11225844919681549, 0.16707743704319, 0.2758232057094574], [0.15268386900424957, -0.12258093804121017, 0.08951536566019058, 0.08757612854242325, -0.14803874492645264, 0.1106553003191948, -0.12930753827095032, -0.14035160839557648, 0.006290311459451914, -0.03982822224497795, -0.022611429914832115, -0.14721648395061493, 0.13407005369663239, 0.1518741101026535, -0.055381834506988525, -0.19630283117294312, -0.03625432774424553, -0.1797192245721817, -0.21427789330482483, -0.027447015047073364, 0.15711811184883118, -0.13555723428726196, 0.003506729379296303, -0.15131334960460663, -0.16014176607131958], [-0.008933915756642818, 0.029257606714963913, -0.06806954741477966, 0.17441388964653015, 0.018815821036696434, 0.17569798231124878, 0.09746898710727692, 0.05781296640634537, 0.1232914850115776, -0.09695912897586823, 0.15379327535629272, 0.12761108577251434, -0.10781558603048325, 0.001341483206488192, -0.14451287686824799, -0.20011985301971436, 0.010376757010817528, 0.04234309494495392, -0.054271940141916275, 0.09781183302402496, -0.15149691700935364, -0.09842442721128464, 0.12795549631118774, -0.2208220362663269, 0.01857661083340645], [0.1850137859582901, 0.18108724057674408, 0.07756610214710236, -0.16245870292186737, 0.06338706612586975, -0.027641035616397858, -0.03199216350913048, 0.1882779896259308, -0.04005692899227142, -0.1217411532998085, -0.1774725466966629, 0.14210383594036102, -0.007271749433130026, 0.2331029772758484, 0.06610791385173798, -0.20322084426879883, 0.014106350019574165, 0.20771417021751404, 0.1308145821094513, 0.095438152551651, -0.12596140801906586, -0.11562701314687729, 0.1821250319480896, -0.15678560733795166, 0.038206346333026886], [-0.016584238037467003, 0.04321525990962982, 0.020391350612044334, -0.19387149810791016, -0.018269164487719536, 0.1733618527650833, 0.05080709606409073, 0.13656382262706757, -0.09883689880371094, 0.1375676542520523, -0.08794507384300232, -0.0468924343585968, -0.001247387146577239, -0.07371925562620163, -0.0796581283211708, -0.06983635574579239, -0.06559450179338455, -0.09817041456699371, 0.026787955313920975, -0.1593158096075058, 0.18272815644741058, 0.24830009043216705, 0.08773798495531082, -0.12008615583181381, -0.2459312230348587], [0.1039656326174736, 0.15194489061832428, 0.22011160850524902, 0.02735992521047592, 0.09919383376836777, 0.2123793363571167, 0.05254223197698593, -0.07631116360425949, -0.18811535835266113, 0.1271425038576126, 0.08829521387815475, 0.18213094770908356, -0.10565327107906342, 0.14459779858589172, -0.056817296892404556, -0.002042881678789854, 0.12577961385250092, -0.21860535442829132, 0.19470137357711792, 0.10595904290676117, -0.13849157094955444, 0.09777622669935226, -0.07131089270114899, 0.046953193843364716, -0.09487779438495636], [-0.21881702542304993, -0.03578254580497742, 0.08411835879087448, -0.036510251462459564, -0.12347917258739471, -0.018770217895507812, 0.013054757378995419, -0.06809243559837341, -0.1614392101764679, -0.15113091468811035, -0.013294590637087822, 0.059101615101099014, 0.19804875552654266, -0.05439217388629913, 0.06377582997083664, 0.06632602959871292, -0.10811631381511688, -0.04703892767429352, 0.06825359910726547, 0.13581188023090363, 0.05275135487318039, -0.17305198311805725, 0.1419847160577774, -0.19778570532798767, 0.1450493484735489], [0.030626745894551277, 0.08128417283296585, -0.2122850865125656, -0.09119254350662231, 0.1481548547744751, 0.16748939454555511, -0.05901683494448662, 0.20960769057273865, -0.030947882682085037, -0.12568482756614685, -0.16426393389701843, 0.026107357814908028, -0.08991527557373047, 0.1032172441482544, -0.10378172248601913, -0.03093140944838524, -0.22959646582603455, 0.17386741936206818, -0.014798572286963463, -0.1309797167778015, 0.019082386046648026, 0.039516184478998184, 0.0784863606095314, 0.04172143340110779, 0.20928843319416046], [-0.037193309515714645, -0.07785878330469131, -0.07863727957010269, 0.011664116755127907, 0.2034333050251007, -0.03724415600299835, 0.19139137864112854, 0.1964087039232254, -0.09171554446220398, -0.00985822081565857, -0.13939565420150757, 0.09610673785209656, -0.12057643383741379, 0.054981544613838196, 0.018682224676012993, -0.2008284479379654, -0.18382614850997925, -0.21886733174324036, -0.15595175325870514, 0.08174782991409302, 0.08088935911655426, 0.21971571445465088, -0.1371304988861084, -0.08548068255186081, -0.24475891888141632], [0.0008793419110588729, 0.07357195019721985, -0.18984653055667877, 0.1679029017686844, -0.09457235783338547, 0.19673101603984833, -0.026870746165513992, 0.12023137509822845, 0.18030479550361633, -0.051346682012081146, -0.046575531363487244, 0.10789286345243454, -0.17653612792491913, 0.1581311970949173, -0.11999741196632385, 0.2500791549682617, -0.17472060024738312, -0.10955392569303513, 0.19506707787513733, -0.07899099588394165, 0.20880655944347382, 0.16872631013393402, 0.22028020024299622, -0.136736199259758, 0.01919545792043209], [-0.07228519022464752, 0.08622131496667862, -0.19064947962760925, 0.03705441951751709, -0.0016780765727162361, -0.13414369523525238, -0.20704172551631927, 0.12163667380809784, -0.07810916006565094, 0.14354413747787476, 0.022245224565267563, 0.06603005528450012, -0.04426282271742821, -0.08416594564914703, -0.07340728491544724, -0.1904844492673874, 0.1651013195514679, -0.15099483728408813, 0.15097776055335999, -0.061969250440597534, 0.14840781688690186, 0.21227595210075378, -0.17180800437927246, 0.23054103553295135, 0.09273593127727509]], "bias": [-0.13999241590499878, 0.1024368554353714, 0.15370570123195648, 0.20366840064525604, -0.1650639921426773, 0.2053486555814743, 0.1895928531885147, 0.23710688948631287, 0.14623668789863586, -0.11209703236818314, 0.20788399875164032, 0.20217205584049225, -0.0536762960255146, -0.013938259333372116, 0.2049281895160675, 0.20988188683986664, 0.15942469239234924, 0.19899624586105347, -0.06072138994932175, -0.0048448145389556885, -0.05372656509280205, 0.15439358353614807, 0.10375311225652695, -0.0953783243894577, 0.011650116182863712, -0.144693985581398, -0.15435197949409485, 0.21193261444568634, -0.05658650025725365, 0.14391180872917175, 0.0015429502818733454, 0.012226812541484833, 0.03814762458205223, 0.18461842834949493, 0.014564345590770245, 0.17858077585697174, 0.13757385313510895, 0.15808621048927307, -0.11167830228805542, -0.03286892920732498, -0.1449775993824005, 0.0005397681961767375, 0.01545517798513174, 0.08807232975959778, 0.1844584196805954, 0.11291851848363876, -0.08218562602996826, -0.0882219448685646, 0.20195721089839935, 0.05220210179686546, 0.08804280310869217, -0.08700036257505417, 0.013337338343262672, 0.0786929652094841, -0.08224096894264221, 0.16220447421073914, 0.1378595232963562, -0.062903493642807, -0.04894716665148735, 0.008705814369022846, 0.06280181556940079, -0.0322386734187603, 0.21563570201396942, -0.1346137672662735, -0.08217372745275497, -0.0980122983455658, 0.10640739649534225, 0.0936553031206131, -0.023790724575519562, 0.18971467018127441, -0.15738001465797424, 0.12096919864416122, -0.05925915390253067, -0.030405865982174873, -0.13666605949401855, -0.10143439471721649, -0.150091752409935, 0.10402198135852814, -0.03534071147441864, 0.15640665590763092, -0.06284213811159134, -0.014115892350673676, 0.06859784573316574, 0.195747971534729, -0.0345456600189209, 0.15364354848861694, 0.09726067632436752, 0.14298559725284576, 0.16623888909816742, 0.10488288104534149, -0.017658116295933723, -0.042094163596630096, 0.11460094153881073, 0.14803466200828552, 0.0401376448571682, 0.14346158504486084, -0.10020614415407181, 0.15498024225234985, 0.040624409914016724, -0.15414394438266754, -0.0933852419257164, -0.11443561315536499, 0.06944523751735687, -0.0857471376657486, -0.055713918060064316, 0.0061515565030276775, -0.09587589651346207, 0.048466507345438004, 0.020362529903650284, 0.10633419454097748, 0.1508788913488388, -0.09831752628087997, 0.14200103282928467, 0.018853995949029922, -0.10198958218097687, -0.05986131355166435, 0.08696228265762329, 0.09777908027172089, 0.02213957905769348, -0.08193745464086533, 0.1293400526046753, 0.07568788528442383, -0.1745425909757614, -0.021087724715471268, -0.01338574755936861, -0.03171796724200249, -0.07801537960767746, -0.11432693898677826], "in_features": 25, "out_features": 128}, {"type": "relu"}, {"type": "linear", "weight": [[0.10181227326393127, -0.11693397909402847, 0.11058436334133148, -0.032718345522880554, 0.028436316177248955, -0.029557883739471436, -0.00797458179295063, 0.0649465024471283, 0.10384315997362137, -0.02019740454852581, -0.05774657800793648, 0.07692626118659973, 0.008362690918147564, 0.05180201679468155, 0.10183627158403397, -0.02443402260541916, -0.03633628040552139, 0.023768534883856773, -0.07737157493829727, -0.03060358203947544, -0.04633539170026779, -0.08795668184757233, 0.12510496377944946, 0.02452322468161583, 0.06710636615753174, 0.0022619483061134815, -0.010871058329939842, 0.04066755250096321, -0.009685524739325047, -0.03265367075800896, 0.10159933567047119, -0.0182724017649889, 0.03249027207493782, -0.06365083158016205, 0.0268542617559433, 0.0691303238272667, -0.0525754876434803, 0.08897063136100769, 0.0023479925002902746, 0.006038868334144354, 0.046586569398641586, 0.0904766097664833, 0.01376266684383154, -0.03142819553613663, -0.07065336406230927, 0.003906631376594305, 0.07270234823226929, 0.07678169012069702, -0.035615354776382446, 0.13215014338493347, 0.0787544995546341, -0.010673534125089645, 0.10224349051713943, 0.018372170627117157, 0.02745872549712658, 0.1155577003955841, -0.08811776340007782, 0.004388799890875816, 0.03721362352371216, 0.05125449225306511, -0.04890894144773483, -0.011555680073797703, 0.026718979701399803, 0.03296792134642601, 0.002621829742565751, 0.01224208902567625, 0.030140595510601997, 0.004993748385459185, 0.06302675604820251, 0.018059486523270607, 0.05501902848482132, 0.049520447850227356, -0.043136321008205414, -0.0036534143146127462, 0.03559007868170738, -0.026196012273430824, 0.05630983039736748, 0.05390201508998871, 0.027870293706655502, 0.013972753658890724, 0.049148961901664734, -0.06267193704843521, -0.08632592111825943, 0.14251434803009033, -0.07521062344312668, -0.07004893571138382, -0.03182675316929817, 0.027413124218583107, 0.051669392734766006, -0.0011304753134027123, -0.06026694178581238, 0.007392637897282839, 0.06582487374544144, 0.1282113641500473, 0.07845459133386612, 0.06720855087041855, 0.06840874254703522, -0.027225155383348465, 0.09705503284931183, -0.027229629456996918, 0.0686677023768425, -0.05742834880948067, 0.05534785985946655, -0.09445879608392715, 0.08765701204538345, 0.04620670899748802, 0.10671468824148178, -0.07113643735647202, 0.07303154468536377, -0.07329235970973969, 0.0005844616098329425, 0.05156490579247475, 0.03459230810403824, -0.06754978001117706, -0.07827478647232056, -0.004371338523924351, -0.021624306216835976, 0.07191316038370132, 0.1245318353176117, 0.04591308906674385, -0.02417127601802349, -0.03929798677563667, 0.12076679617166519, -0.04294288530945778, -0.04273177683353424, -0.010232584550976753, -0.04455981031060219, -0.013605761341750622], [-0.004077354446053505, 0.039964959025382996, 0.04044708237051964, 0.061967164278030396, -0.01751694828271866, 0.04920206218957901, 0.06783553957939148, 0.08332104980945587, 0.13481369614601135, -0.07077734172344208, -0.08100831508636475, -0.01307688932865858, 0.021438730880618095, 0.07450307905673981, 0.12315444648265839, 0.043189991265535355, -0.08311997354030609, 0.011974981054663658, 0.10003794729709625, 0.07641249895095825, -0.09518984705209732, 0.029155096039175987, -0.08348801732063293, -0.023352941498160362, 0.10171622037887573, -0.011996946297585964, 0.08154495060443878, -0.0556037537753582, 0.09461844712495804, 0.07098162919282913, 0.09415372461080551, 0.050800029188394547, 0.045817356556653976, -0.05802839249372482, -0.014611749909818172, -0.035641949623823166, 0.07569816708564758, -0.023643942549824715, 0.02792268618941307, -0.05587434396147728, 0.029796257615089417, -0.00014034008199814707, -0.03510561212897301, -0.006629491690546274, -0.06686843186616898, -0.02416038140654564, -0.0831933543086052, 0.08734467625617981, -0.05061085522174835, 0.04159991815686226, 0.0812399834394455, -0.06451477110385895, 0.09705229848623276, 0.08465808629989624, -0.020175017416477203, 0.042351655662059784, 0.06082170084118843, 0.10691048204898834, 0.09658525884151459, -0.09235867112874985, -0.06186215952038765, -0.02602243609726429, -0.043234627693891525, 0.007206168491393328, -0.02219896949827671, 0.1004871055483818, -0.09576421231031418, -0.04479343444108963, -0.043184179812669754, -0.03181510046124458, 0.08872148394584656, 0.01739954575896263, -0.0193931944668293, 0.01664154790341854, -0.04143329709768295, -0.007875114679336548, 0.047411613166332245, 0.07877938449382782, 0.09850776195526123, 0.041274428367614746, -0.0539437010884285, -0.014687922783195972, 0.07490623742341995, -0.04523596167564392, 0.030921434983611107, 0.010879633948206902, 0.10257700830698013, 0.02852948196232319, 0.019117701798677444, -0.0715128555893898, -0.012519417330622673, 0.0022943930234760046, -0.018159689381718636, 0.06444571167230606, 0.08259058743715286, 0.024967551231384277, -0.07866912335157394, -0.05645238608121872, -0.07518117874860764, 0.03628501296043396, -0.03434162586927414, 0.010194164700806141, -0.04093620181083679, -0.03410930186510086, 0.07001740485429764, 0.07082245498895645, 0.1082102507352829, 0.13823401927947998, -0.030479932203888893, -0.03221902251243591, -0.052434008568525314, 0.058854565024375916, 0.0703146830201149, 0.09323049336671829, -0.0569479838013649, -0.028770817443728447, 0.14196844398975372, -0.09440377354621887, -0.034246932715177536, 0.05394840985536575, -0.06422113627195358, 0.03719441220164299, 0.0450928695499897, 0.06030583754181862, 0.008287286385893822, -0.0278831347823143, 0.09772671014070511, 0.11070886999368668], [-0.06192881986498833, -0.0335090309381485, -0.06833919882774353, -0.03925962373614311, 0.06173565611243248, 0.01733449660241604, 0.05801386386156082, -0.039325278252363205, 0.006631843745708466, 0.10335465520620346, 0.036561742424964905, -0.0031328005716204643, -0.04798877239227295, 0.10589465498924255, -0.04020420089364052, -0.06392218172550201, 0.10509881377220154, -0.03722144290804863, 0.016068847849965096, -0.07409495860338211, 0.03507094085216522, -0.07777371257543564, 0.15074293315410614, 0.10612479597330093, -0.013580338098108768, 0.01888149231672287, 0.006718931253999472, -0.04907917231321335, 0.009485088288784027, 0.04055044427514076, 0.008819231763482094, 0.09306544810533524, -0.035264816135168076, 0.04135562852025032, -0.050679467618465424, 0.05781155824661255, -0.024161197245121002, 0.05776062235236168, 0.09558296948671341, 0.0361858531832695, 0.08919595927000046, 0.07520097494125366, -0.06135774031281471, 0.0037529405672103167, -0.053630098700523376, 0.09672591835260391, 0.1102413535118103, -0.008023669011890888, 0.05436870455741882, -0.02388181909918785, 0.08589594811201096, 0.0032886690460145473, 0.088233083486557, 0.11130709201097488, 0.07416947931051254, 0.04205751046538353, 0.0058119273744523525, 0.0608040951192379, -0.044788658618927, 0.04666716605424881, 0.027293801307678223, 0.0763067752122879, -0.02156936377286911, 0.0785069540143013, 0.1102280467748642, 0.06904028356075287, 0.09835359454154968, 3.8204481825232506e-05, 0.08727425336837769, -0.010489164851605892, 0.12517063319683075, 0.04267996549606323, 0.04276859387755394, -0.07642938941717148, 0.021388918161392212, 0.027985207736492157, 0.11532337963581085, -0.027616802603006363, -0.10769226402044296, 0.026574354618787766, -0.024808064103126526, 0.05354226380586624, 0.06861342489719391, 0.00339885544963181, 0.07868002355098724, 0.06632459163665771, -0.06733209639787674, -0.04073911905288696, 0.05265248194336891, -0.010006298311054707, 0.03460085764527321, -0.0406169593334198, 0.06459830701351166, -0.03653889149427414, -0.05088161677122116, 0.021839197725057602, -0.015403883531689644, -0.03962920233607292, 0.0773254856467247, 0.09332571178674698, 0.027754373848438263, 0.047492463141679764, 0.1168111115694046, 0.0384330078959465, 0.028245560824871063, -0.03826886788010597, 0.02538294531404972, -0.027563128620386124, -0.11823946237564087, -0.0546540692448616, 0.061532072722911835, 0.07599203288555145, -0.043957654386758804, -0.03846289590001106, -0.024114185944199562, -0.06801926344633102, -0.10600000619888306, 0.14964176714420319, 0.0885382667183876, -0.01580098643898964, 0.04674201086163521, -0.0872439444065094, 0.09036292135715485, -0.042861904948949814, -0.03554271534085274, -0.014014985412359238, -0.00028632310568355024, 0.11588668078184128], [-0.05305137857794762, 0.027831437066197395, 0.09361685067415237, -0.01991524174809456, 0.022143207490444183, 0.01868603006005287, 0.004993989132344723, 0.0968746468424797, 0.05339568480849266, -0.005455252714455128, 0.12163352221250534, 0.06631428003311157, 0.023669518530368805, 0.09628397226333618, 0.02040056511759758, 0.06411806493997574, -0.04668792709708214, 0.09735885262489319, 0.12040962278842926, -0.043417077511548996, -0.0653824731707573, 0.010718140751123428, 0.01425208617001772, 0.04867825657129288, 0.06544854491949081, -0.04042849689722061, 0.08079157024621964, 0.05679485946893692, 0.012673706747591496, -0.043862197548151016, 0.006153535563498735, -0.05124877393245697, 0.022877806797623634, 0.0513480119407177, -0.06733671575784683, 0.0671602413058281, 0.046265989542007446, 0.07520432770252228, 0.09331516176462173, -0.09927558898925781, -0.06541779637336731, 0.011004666797816753, -0.10985725373029709, 0.0764504075050354, -0.05915745347738266, -0.06590209901332855, 0.04207943379878998, 0.05415606126189232, -0.031209994107484818, -0.09865187853574753, 0.05309731140732765, 0.07021583616733551, 0.10781063884496689, 0.01760854944586754, 0.10077674686908722, -0.10693184286355972, 0.12373003363609314, -0.021502455696463585, -0.06469172239303589, 0.1202833503484726, -0.0054562389850616455, 0.039205700159072876, -0.05319363623857498, 0.10270385444164276, 0.15532249212265015, -0.005751759745180607, 0.08128251880407333, -0.05600975453853607, 0.0031815883703529835, 0.06774701923131943, 0.05454624816775322, -0.01738276518881321, 0.09924743324518204, -0.055482443422079086, -0.10011904686689377, 0.0059773982502520084, -0.08057263493537903, -0.046746693551540375, 0.05584239214658737, 0.014384789392352104, 0.08670322597026825, 0.0346142016351223, -0.04973190650343895, -0.1059899553656578, 0.10720501840114594, -0.027549665421247482, 0.020357415080070496, 0.09163198620080948, 0.09680899232625961, -0.04569268226623535, 0.00789289828389883, -0.047465890645980835, 0.10367076098918915, -0.05825098603963852, -0.10201919078826904, -0.018788132816553116, 0.0919877290725708, 0.08949863165616989, 0.0438079759478569, 0.043955519795417786, 0.012492849491536617, -0.06113918498158455, -0.04685581475496292, 0.012896222062408924, 0.036151446402072906, 0.0533917061984539, -0.06848552078008652, 0.021385012194514275, -0.07311853021383286, 0.03329501301050186, 0.00955172162503004, 0.039574749767780304, -0.0775565430521965, 0.13890893757343292, -0.04714592173695564, 0.08940218389034271, 0.07566563785076141, 0.10902807116508484, 0.07939887046813965, 0.09682092815637589, 0.05405709519982338, 0.016972409561276436, 0.0806688666343689, -0.01817961223423481, -0.03301485255360603, 0.049386125057935715, 0.06648289412260056, 0.04054618999361992], [-0.10882888734340668, 0.04082368686795235, 0.08302274346351624, 0.004345337860286236, 0.0396980382502079, 0.06815730780363083, -0.12499368190765381, -0.0043897321447730064, -0.024194832891225815, -0.035498689860105515, 0.07580047845840454, 0.1031702309846878, 0.008705098181962967, 0.08082333952188492, -0.0472969114780426, -0.015343916602432728, 0.014319789595901966, -0.0773371085524559, 0.05360756814479828, 0.030272657051682472, 0.024248715490102768, 0.056232478469610214, 0.08388955891132355, 0.05783070996403694, -0.022204333916306496, 0.020905427634716034, -0.004381997976452112, 0.053904950618743896, -0.03674899414181709, -0.0341108962893486, -0.04552872106432915, -0.04380878061056137, -0.05535552650690079, 0.10113295912742615, -0.07465355843305588, -0.007312767207622528, 0.007296201307326555, 0.09886998683214188, 0.1017523929476738, -0.08254382759332657, 0.09481371194124222, -0.06005743145942688, 0.032315656542778015, 0.115712970495224, 0.09591162949800491, -0.004358216188848019, -0.027510251849889755, 0.04218169301748276, 0.040389761328697205, -0.10217336565256119, -0.007275999058037996, -0.04198407009243965, 0.023899409919977188, -0.01824062317609787, 0.10138380527496338, -0.023575475439429283, -0.04978314787149429, -0.013895304873585701, -0.06859835237264633, 0.0201600082218647, 0.03563543036580086, -0.05826186388731003, 0.01744852028787136, -0.11239278316497803, -0.022513553500175476, -0.04941995069384575, -0.0037200935184955597, -0.09632410109043121, 0.0007198682287707925, 0.07136575877666473, 0.07891333848237991, 0.04700217396020889, 0.03277154639363289, -0.0025635110214352608, 0.056853920221328735, -0.07311983406543732, 0.08039835095405579, -0.05687877535820007, -0.0391298271715641, -0.004876338876783848, 0.00021064179600216448, 0.06204303354024887, 0.10055345296859741, 0.010144894011318684, 0.09294243901968002, 0.004694092087447643, -0.032646503299474716, 0.014973096549510956, 0.001409964170306921, -0.01908188872039318, 0.029947444796562195, 0.10577306151390076, -0.014105704613029957, 0.04059094190597534, 0.0066217221319675446, 0.07915715873241425, 0.051446251571178436, -0.018351595848798752, -0.010376927442848682, -0.02624114602804184, -0.03736071288585663, 0.07196804881095886, 0.08025567978620529, -0.0384245328605175, 0.0783880352973938, 0.0035394022706896067, 0.04813764616847038, 0.0897141546010971, -0.03143226355314255, 0.005911370739340782, 0.04613106697797775, 0.008810867555439472, -0.04245668277144432, 0.0027305742260068655, 0.10528239607810974, 0.09570738673210144, 0.008810336701571941, 0.06573986262083054, 0.016548987478017807, -0.02465270832180977, 0.01698305644094944, -0.04998331144452095, 0.005279052071273327, 0.005268888082355261, 0.000215759442653507, 0.12504030764102936, 0.06380428373813629, 0.08314508944749832], [-0.09419959038496017, 0.024660704657435417, 0.05039527267217636, 0.07984276115894318, -0.0015958158764988184, 0.010538092814385891, -0.08353916555643082, 0.05034966766834259, 0.09701376408338547, 0.06610924005508423, 0.0489860363304615, 0.07463476806879044, 0.06503678113222122, 0.05418917164206505, 0.0840412825345993, 0.0048005590215325356, -0.041494257748126984, -0.002294090110808611, 0.04448424652218819, -0.07120868563652039, -0.015428045764565468, -0.09160217642784119, -0.019809406250715256, 0.05249878764152527, 0.055327534675598145, 0.013903714716434479, 0.05139307677745819, -0.04360441118478775, 0.022513369098305702, -0.053027812391519547, -0.007255188655108213, -0.015428565442562103, 0.09634050726890564, 0.035344045609235764, -0.0762275978922844, 0.0059722368605434895, -0.1136879250407219, 0.023234112188220024, 0.11205841600894928, 0.03422554209828377, 0.030455878004431725, -0.036769043654203415, 0.0016372691607102752, 0.07565446197986603, -0.05451268330216408, -0.021814625710248947, 0.07998613268136978, 0.06233363598585129, 0.041001301258802414, -0.10599648952484131, 0.07207811623811722, -0.034412939101457596, 0.05895260348916054, 0.09212192893028259, -0.05102057009935379, 0.040329307317733765, -0.05564013123512268, 0.09373187273740768, 0.06477777659893036, 0.0304761603474617, -0.05616866797208786, 0.07338295876979828, -0.028162023052573204, 0.01620040461421013, 0.04513250291347504, -0.040240105241537094, -0.02464906871318817, -0.0227162167429924, 0.02482813224196434, -0.009078764356672764, 0.06084364652633667, -0.00427597388625145, 0.03396889939904213, 0.06749369949102402, -0.0036214282736182213, 0.07257349789142609, 0.0762467011809349, 0.041871074587106705, -0.00043344072764739394, 0.10172945261001587, -0.02763265185058117, 0.06583407521247864, 0.02742134965956211, 0.0962752252817154, -0.10164458304643631, -0.0013178472872823477, -0.08794015645980835, 0.06168122962117195, 0.058213405311107635, -0.0433468222618103, 0.00895538367331028, 0.060566551983356476, 0.05112583935260773, 0.12000231444835663, 0.019244616851210594, 0.0674358531832695, 0.06399445980787277, -0.0700194388628006, 0.06604073941707611, 0.012047868221998215, 0.03794809803366661, 0.012735043652355671, -0.02938382886350155, 0.0835474506020546, -0.03289291262626648, 0.011168325319886208, 0.07537245750427246, -0.01639261469244957, -0.004541904199868441, -0.10016986727714539, -0.03806261718273163, 0.05991968885064125, 0.07111059874296188, -0.09625968337059021, 0.04944927990436554, 0.04938344657421112, 0.10566576570272446, -0.07746324688196182, 0.002145908772945404, -0.02205251157283783, -0.06491789221763611, 0.0205561313778162, -0.0706813633441925, 0.0882922112941742, -0.0055732824839651585, 0.08265046030282974, -0.028573863208293915, 0.012934683822095394], [-0.04728633537888527, 0.12334966659545898, 0.08904195576906204, 0.09498517215251923, -0.037118177860975266, 0.09797417372465134, -0.05969312787055969, 0.06286243349313736, 0.0171566903591156, -0.09511231631040573, -0.031033648177981377, -0.07486994564533234, 0.042611658573150635, -0.03816011920571327, -0.048661570996046066, 0.13315391540527344, -0.021740298718214035, 0.06340722739696503, 0.02195240743458271, 0.0799042358994484, 0.03130451589822769, 0.10525676608085632, 0.013770878314971924, 0.020467689260840416, 0.10355517268180847, 0.021373065188527107, -0.03715647757053375, 0.05437951907515526, 0.0023461233358830214, -0.02379968948662281, 0.005765518639236689, -0.04629722610116005, -0.045799799263477325, -0.014782636426389217, -0.014426403678953648, -0.022953467443585396, 0.022207727655768394, 0.0836884006857872, -0.024327747523784637, -0.05654732882976532, -0.04080294072628021, -0.019402403384447098, 0.05162477493286133, -0.03747927024960518, 0.06710132211446762, -0.10277528315782547, 0.08819577842950821, -0.017256664112210274, 0.015461997129023075, -0.01419227384030819, 0.0673077329993248, 0.07925152033567429, -0.05220438539981842, -0.013221995905041695, 0.07375911623239517, -0.018215151503682137, -0.0428970605134964, -0.03835907578468323, -0.010302014648914337, -0.009053097106516361, -0.04128645732998848, -0.09612836688756943, 0.026641784235835075, 0.052542444318532944, 0.10836464911699295, -0.019872842356562614, 0.06389487534761429, -0.06196150183677673, 0.04931395500898361, 0.09492869675159454, 0.043573085218667984, 0.005072392988950014, 0.1100078746676445, -0.08107559382915497, 0.03777953237295151, 0.002365256892517209, -0.09295031428337097, -0.02453119307756424, -0.052254568785429, 0.007752150762826204, -0.04251321777701378, 0.07464534044265747, -0.01572609320282936, 0.09180747717618942, 0.03199739381670952, 0.1017945408821106, 0.10811828076839447, -0.07324951887130737, -0.03519781678915024, 0.03435429930686951, 0.1281135529279709, -0.04201788827776909, 0.04188229516148567, -0.010340002365410328, 0.10735001415014267, 0.051230233162641525, 0.06974823027849197, 0.04689842835068703, -0.025178266689181328, 0.062174972146749496, -0.022905301302671432, 0.023800667375326157, -0.006720163859426975, -0.031229864805936813, -0.05680903419852257, 0.03471006453037262, -0.026662567630410194, -0.03862478956580162, 0.008961495012044907, 0.05846751108765602, -0.06591816246509552, 0.08000148832798004, -0.08361934125423431, 0.029209697619080544, -0.03613503649830818, -0.059787098318338394, 0.04158111661672592, 0.08761028200387955, 0.09315505623817444, 0.020953448489308357, 0.06578134745359421, -0.02097744308412075, 0.055089596658945084, 0.09479951858520508, -0.05200325325131416, -0.08168008178472519, 0.07194999605417252, 0.00417238287627697], [-0.027173269540071487, -0.1153673529624939, 0.1142999604344368, 0.03637082874774933, 0.04710172489285469, -0.0680491030216217, 0.1254660040140152, -0.0657113790512085, 0.06410475075244904, 0.03467736393213272, -0.013966274447739124, 0.08493731915950775, -0.023772375658154488, 0.014544098637998104, 0.12078986316919327, -0.061690255999565125, 0.07697609066963196, -0.020658085122704506, -0.05932909622788429, 0.07846742868423462, 0.02241935208439827, -0.1212112084031105, 0.1351839303970337, -0.042268846184015274, 0.0966845154762268, -0.02083209529519081, 0.11620567739009857, -0.0028491055127233267, -0.024973325431346893, 0.027673933655023575, 0.0185965858399868, 0.009778381325304508, 0.09106884151697159, 0.08084743469953537, -0.03131147846579552, 0.10391359776258469, 0.03812384232878685, -0.0029956731013953686, -0.057985272258520126, 0.12002132833003998, -0.07661721110343933, 0.12163393944501877, -0.13238592445850372, -0.02669181115925312, -0.07657060027122498, 0.07779024541378021, 0.08751817047595978, 0.09422717988491058, -0.03087451308965683, -0.037613265216350555, -0.019710684195160866, -0.046841107308864594, 0.14225447177886963, 0.006086875218898058, 0.04817865416407585, 0.1271529197692871, 0.029321668669581413, -0.020021062344312668, 0.024919096380472183, 0.020552614703774452, 0.04738539457321167, 0.03693182021379471, 0.03660137578845024, 0.13220487534999847, 0.01383600477129221, 0.08065228164196014, -0.050152700394392014, 0.10888425260782242, 0.06594076752662659, -0.018880197778344154, 0.02873445488512516, -0.09802951663732529, 0.007226993329823017, 0.0868787169456482, -0.13459254801273346, -0.044055115431547165, 0.07540100067853928, -0.0020792691502720118, 0.03579332306981087, 0.07231499254703522, 0.01824650727212429, 0.06676790863275528, -0.012901205569505692, 0.003090475918725133, 0.028204619884490967, -0.09803785383701324, -0.021905535832047462, 0.03597736731171608, -0.024514073505997658, 0.09214933216571808, -0.12508746981620789, 0.001762456027790904, -0.03391692787408829, 0.09596565365791321, 0.04797925427556038, 0.002140314783900976, 0.04421094432473183, 0.054913125932216644, 0.1424085795879364, 0.08381236344575882, -0.04809728264808655, 0.08539194613695145, -0.029737364500761032, -0.04142365977168083, 0.06701783835887909, 0.1199021264910698, 0.05922025069594383, -0.046755921095609665, -0.03282209858298302, 0.05245097726583481, 0.022684162482619286, -0.03292321786284447, -0.02055584080517292, -0.07626888155937195, -0.06567026674747467, 0.03582784906029701, -0.013481678441166878, 0.07551435381174088, 0.11500098556280136, 0.06575843691825867, 0.0916706919670105, 0.0765475481748581, -0.04775579273700714, 0.021288583055138588, -0.052034586668014526, 0.12869946658611298, -0.03961461782455444, 0.00661864411085844], [0.039681341499090195, 0.047063764184713364, 0.05461323633790016, -0.06190887838602066, 0.061739493161439896, 0.07611765712499619, -0.013665199279785156, -0.061420321464538574, -0.061994511634111404, 0.011839151382446289, -0.009845254942774773, 0.03405695781111717, 0.020116152241826057, 0.001234301715157926, 0.09800848364830017, 0.015236679464578629, -0.02635580487549305, -0.027410829439759254, -0.02085108868777752, -0.011758970096707344, -0.07935059070587158, 0.039662156254053116, -0.013361480087041855, 0.011552144773304462, 0.09138111025094986, -0.06934230029582977, -0.062331199645996094, -0.05944480001926422, -0.0031144393142312765, -0.011152835562825203, -0.03064163401722908, 0.10518050938844681, 0.09296862781047821, -0.060183338820934296, -0.023725416511297226, 0.0019763323944061995, 0.022035622969269753, 0.07232913374900818, -0.011760411784052849, -0.011591272428631783, 0.058922018855810165, -0.031058350577950478, -0.03742111846804619, 0.03217974305152893, 0.08219794183969498, 0.10683464258909225, -0.008870371617376804, 0.0724458247423172, -0.08754027634859085, 0.019573351368308067, -0.005103273782879114, 0.06573774665594101, -0.0062475306913256645, 0.05691313371062279, 0.07692226022481918, 0.10023036599159241, 0.016802232712507248, 0.12944193184375763, -0.054315220564603806, 0.008767977356910706, -0.01798941195011139, 0.030381156131625175, 0.06666833907365799, -0.010052901692688465, 0.05494781956076622, -0.07389425486326218, -0.06754491478204727, 0.02896879054605961, -0.051974713802337646, -0.051628220826387405, -0.07104536145925522, 0.06224290281534195, 0.03649231046438217, -0.012013710103929043, -0.012340850196778774, -0.11253450810909271, -0.08460662513971329, -0.07334096729755402, -0.04497944936156273, 0.10311058908700943, 0.02168971300125122, -0.013852284289896488, -0.09520558267831802, -0.0036316057667136192, -0.024378076195716858, -0.07382647693157196, 0.06265868246555328, 0.09504442662000656, -0.050143249332904816, 0.07280333340167999, -0.006978943478316069, 0.02503092773258686, 0.048359230160713196, -0.016102485358715057, 0.11449282616376877, 0.09598399698734283, -0.03928343579173088, -0.004751842003315687, -0.07586994022130966, 0.04568127915263176, -0.06640267372131348, -0.11118343472480774, -0.07187285274267197, -0.07637447863817215, -0.058675963431596756, 0.09894894808530807, 0.06870102882385254, 0.11546744406223297, -0.03228122740983963, -0.027687957510352135, 0.026717400178313255, 0.032292213290929794, -0.01862134225666523, 0.017202123999595642, -0.05968150869011879, 0.052249595522880554, 0.08788619190454483, 0.00941348448395729, 0.10257472842931747, -0.0006164090009406209, 0.024356607347726822, -0.04414216801524162, 0.005202861037105322, -0.024682611227035522, -0.035012878477573395, -0.04140082001686096, -0.023374684154987335, 0.017713086679577827], [-0.037729643285274506, -0.08835627138614655, 0.0987154096364975, 0.07868289947509766, -0.056509774178266525, 0.05548448488116264, 0.07411807030439377, -0.07971428334712982, -0.1353575438261032, 0.061428993940353394, 0.0478886254131794, 0.04385441541671753, -0.031600579619407654, 0.04706430807709694, 0.05682109668850899, -0.03686334565281868, 0.020564444363117218, -0.08855117112398148, 0.02797779254615307, 0.10184993594884872, -0.04280399531126022, 0.043646905571222305, 0.1098228469491005, -0.02708003856241703, -0.04308057203888893, 0.006190500687807798, -0.016984887421131134, 0.05450877547264099, -0.04700814560055733, 0.04067825525999069, 0.01933450438082218, 0.03049469366669655, 0.01657216250896454, 0.0998825877904892, -0.06887635588645935, -0.08360151946544647, -0.04560072720050812, -0.0414503812789917, 0.03593667969107628, 0.08757328242063522, -0.053412262350320816, -0.10691042989492416, -0.02973129041492939, -0.018398471176624298, 0.04672256484627724, -0.05041694641113281, 0.03804873675107956, 0.014610156416893005, -0.048030346632003784, -1.2164877261966467e-05, 0.03591213747859001, 0.10117288678884506, -0.04094165563583374, 0.05393605679273605, 0.1347346305847168, 0.040087975561618805, 0.10065300762653351, -0.03880881518125534, -0.03826463595032692, 0.09604810923337936, 0.06737012416124344, 0.07179040461778641, 0.009889977984130383, -0.03398903086781502, 0.13365060091018677, 0.01662248559296131, 0.14362099766731262, -0.06505262851715088, -0.051254261285066605, 0.03293364495038986, 0.09227586537599564, -0.058989040553569794, 0.035370245575904846, 0.06366055458784103, -0.008609594777226448, 0.06736323982477188, -0.008651373907923698, 0.00819783378392458, -0.02589755319058895, -0.023454200476408005, -0.017157569527626038, 0.10110132396221161, 0.029483802616596222, -0.1028594970703125, 0.11328844726085663, 0.09292389452457428, 0.08580373972654343, 0.0021801802795380354, 0.08240379393100739, -0.05619111284613609, 0.11967741698026657, -0.02205006591975689, 0.08981245756149292, -0.03157196566462517, 0.04754834622144699, -0.08239099383354187, 0.030499067157506943, -0.0044189197942614555, -0.11353296786546707, -0.039834070950746536, 0.02704010345041752, 0.015025027096271515, 0.09775542467832565, 0.02476322464644909, 0.05519450455904007, -0.04179916903376579, -0.02065207250416279, -0.03320956602692604, -0.012628622353076935, 0.08336722105741501, 0.07092910259962082, 0.06964985281229019, -0.09358938038349152, 0.02793276682496071, -0.012105334550142288, -0.024807041510939598, 0.06344346702098846, 0.15349242091178894, 0.04343092441558838, 0.02516975998878479, 0.01602179929614067, -0.048253897577524185, -0.00981591735035181, 0.103523388504982, 0.01122716162353754, 0.057052284479141235, -0.026981784030795097, -0.002015871461480856], [0.040484718978405, -0.032904252409935, 0.05040650814771652, -0.06343474239110947, -0.040920864790678024, 0.06913235783576965, 0.11618029326200485, 0.013222720474004745, -0.06288182735443115, -0.06661824882030487, 0.013221447356045246, -0.027886247262358665, 0.0948898196220398, -0.08178018033504486, 