{"name": "predictor", "layers": [{"type": "linear", "weight": [[-0.06478956341743469, -0.08337892591953278, 0.12326378375291824, -0.07119415700435638, -0.05146479606628418, 0.09875038266181946, -0.011351991444826126, 0.0026778620667755604, -0.07086851447820663, -0.019072631374001503, 0.059158459305763245, -0.06933077424764633, -0.06862129271030426, -0.08701439201831818, 0.08256851136684418, 0.11579348891973495, 0.10918538272380829, -0.09826231002807617, 0.010803189128637314, -0.09549055993556976, 0.10690812766551971, 0.02425432577729225, -0.13106662034988403, -0.07591786980628967, -0.06393320858478546, -0.0142549192532897, -0.042615413665771484, -0.07437596470117569, 0.03320774808526039, -0.0927172303199768, -0.05391242355108261, 0.05687662214040756, 0.0007365703349933028, 0.02859337441623211, -0.03377627581357956, 0.09583798050880432, 0.07684158533811569, 0.03091728873550892, -0.10185869038105011, -0.11865231394767761, -0.0023322701454162598, -0.014996814541518688, 0.08791670948266983, -0.10511624813079834, 0.03007413074374199, -0.00997651182115078, -0.12370242923498154, -0.06004207953810692, 0.11674582958221436, 0.018330244347453117, -0.014576427638530731, -0.1208108440041542, -0.021323831751942635, -0.04321299120783806, 0.07934541255235672, 0.019312476739287376, 0.09311288595199585, 0.12358377128839493, 0.11867860704660416, -0.11590451002120972, -0.01090965699404478, -0.024017872288823128, -0.10020378232002258, -0.08024850487709045, 0.09475192427635193, 0.11014481633901596, 0.12277193367481232], [0.005418413784354925, 0.09311496466398239, 0.0012778309173882008, 0.15465319156646729, 0.07675331830978394, 0.08740364760160446, -0.14210915565490723, 0.0335666760802269, -0.014924845658242702, -0.002853843616321683, -0.04801017418503761, -0.11999090015888214, 0.12876126170158386, -0.08932922035455704, 0.022687630727887154, 0.05802665278315544, 0.05634694918990135, 0.09207504242658615, -0.10565809905529022, -0.07813160866498947, -0.020884713158011436, 0.048026666045188904, -0.13636784255504608, -0.1147700697183609, -0.04869554936885834, 0.07551950216293335, 0.10561775416135788, -0.10242774337530136, -0.019853752106428146, -0.10146482288837433, 0.055008068680763245, -0.009205790236592293, -0.011542459018528461, -0.025465775281190872, -0.03958582505583763, -0.09025208652019501, 0.11131665855646133, -0.09907114505767822, 0.05905266851186752, -0.0901394933462143, 0.02405027113854885, -0.06716547906398773, -0.10694114118814468, 0.03506586328148842, -0.12779225409030914, -0.0136416582390666, 0.036917928606271744, 0.07582142949104309, -0.1236598864197731, -0.07861723750829697, -0.09506776928901672, 0.06282054632902145, -0.07413151860237122, -0.04653681442141533, -0.0067788963206112385, -0.07309884577989578, 0.02630654349923134, -0.037518832832574844, 0.020285440608859062, -0.05991395190358162, -0.11947926133871078, 0.10256879031658173, -0.0747620239853859, 0.09501349925994873, -0.07069194316864014, -0.06522060185670853, -0.0458587184548378], [0.07982450723648071, 0.09366081655025482, 0.1477462202310562, -0.018573394045233727, -0.0670156180858612, 0.03992875665426254, -0.06845966726541519, 0.13579575717449188, -0.07619365304708481, -0.06836938112974167, 0.031090863049030304, -0.07907583564519882, -0.11678750067949295, 0.1241876482963562, -0.005976254120469093, 0.1623012274503708, -0.033631693571805954, -0.07931098341941833, -0.03304075077176094, 0.060769740492105484, 0.09379615634679794, 0.15197761356830597, 0.03380080312490463, 0.019260281696915627, -0.06913556158542633, -0.05307847633957863, -0.08803211152553558, -0.027919907122850418, 0.04622978717088699, 0.004703152924776077, -0.05390669032931328, -0.046338144689798355, -0.021443607285618782, -0.07334984838962555, 0.11321984231472015, 0.015670480206608772, 0.03484489396214485, -0.046754878014326096, 0.000621766725089401, -0.047185901552438736, -0.13274367153644562, 0.0308334082365036, 0.061879679560661316, 0.08126120269298553, -0.004074477590620518, -0.1194319948554039, 0.0905710756778717, -0.12367063760757446, -0.06004339084029198, -0.10506037622690201, -0.026896927505731583, -0.054246190935373306, 0.015554942190647125, 0.05466530844569206, 0.013213499449193478, 0.019626786932349205, -0.0668174996972084, 0.03362061455845833, 0.1442176103591919, -0.05906984582543373, 0.09636647254228592, -0.06645375490188599, 0.1283901482820511, -0.00612216629087925, 0.13144654035568237, -0.11210886389017105, -0.1255248636007309], [-0.09163173288106918, -0.0965142473578453, -0.06194593012332916, 0.09089797735214233, -0.019185859709978104, -0.023880910128355026, -0.016965430229902267, 0.0806780755519867, 0.027622057124972343, -0.0238188486546278, -0.12417667359113693, 0.05004523694515228, 0.10944140702486038, -0.09322873502969742, -0.071356862783432, 0.015654301270842552, -0.07219766080379486, -0.026606222614645958, 0.11586248129606247, -0.055499546229839325, -0.006330655887722969, 0.09954963624477386, -0.08928573131561279, -0.028050139546394348, -0.010218704119324684, 0.04747840389609337, -0.10345197468996048, -0.029615381732583046, 0.06320875138044357, 0.07269677519798279, 0.06018751114606857, -0.11003044247627258, -0.06363235414028168, -0.08480704575777054, 0.11270027607679367, 0.03849368914961815, -0.010995112359523773, 0.0938839465379715, -0.02207803912460804, 0.02443614974617958, 0.08868389576673508, -0.10906336456537247, -0.04066005349159241, -0.08075200766324997, 0.05557212606072426, 0.06123436614871025, -0.10974030196666718, -0.07231594622135162, -0.09156849980354309, 0.14093588292598724, -0.12708936631679535, 0.015346793457865715, -0.0270721185952425, -0.003398974658921361, -0.12853142619132996, 0.08162243664264679, -0.018754396587610245, -0.0713319405913353, -0.030950281769037247, 0.041369903832674026, -0.06694316118955612, -0.10611794143915176, 0.07747764885425568, -0.0822422131896019, -0.08620306104421616, 0.04856187850236893, 0.029965799301862717], [-0.09510651975870132, -0.004632980562746525, 0.09556068480014801, -0.04711810126900673, 0.07557651400566101, 0.01592300832271576, 0.09080914407968521, 0.09091296792030334, 0.011983795091509819, 0.061547547578811646, -0.10073404014110565, -0.11376485228538513, 0.05842931941151619, -0.09721925854682922, 0.03924025967717171, 0.04215391352772713, 0.011559795588254929, 0.099146768450737, 0.03610258921980858, -0.1251559853553772, -0.05697263032197952, -0.1185012087225914, -0.09276389330625534, -0.05515167862176895, -0.04846714064478874, 0.09829170256853104, 0.08239350467920303, -0.1194988340139389, -0.045678235590457916, 0.04094603657722473, 0.02579617314040661, 0.07081598043441772, -0.03956970199942589, 0.0928708091378212, 0.04053404554724693, 0.09865856915712357, 0.0840769112110138, 0.024471061304211617, 0.008244689553976059, 0.03621469810605049, -0.05205994471907616, -0.07252799719572067, 0.0853709802031517, 0.03407009690999985, -0.07677706331014633, 0.12982916831970215, 0.013719670474529266, 0.02146279811859131, -0.062065839767456055, -0.03440383821725845, -0.033056359738111496, -0.012772606685757637, -0.11456110328435898, 0.05062982439994812, -0.09287229180335999, 0.10943061858415604, -0.0707855373620987, -0.10438668727874756, -0.008560983464121819, 0.07968121021986008, 0.11301954090595245, 0.01991409622132778, 0.013427925296127796, 0.13461028039455414, 0.016018392518162727, -0.08280155807733536, -0.01457975059747696], [-0.09441740810871124, 0.005063811782747507, 0.0892438292503357, -0.09818875789642334, 0.13839684426784515, 0.12605109810829163, -0.020536839962005615, -0.08731160312891006, -0.08972182869911194, 0.05017036199569702, -0.05497017875313759, 0.01830221898853779, 0.026309898123145103, -0.10156019032001495, -0.0793498307466507, 0.057494599372148514, -0.08264918625354767, 0.0010263536823913455, 0.0394948311150074, -0.09785936772823334, -0.0439656563103199, 0.053749989718198776, -0.03453666344285011, -0.06261325627565384, -0.09069907665252686, -0.04773572459816933, -0.01993533782660961, -0.13122819364070892, -0.05995885655283928, 0.11589333415031433, -0.05615966022014618, -0.04613173380494118, -0.05301208794116974, -0.013366935774683952, 0.015152429230511189, -0.11001461744308472, 0.029893506318330765, 0.08469532430171967, -0.05944988131523132, 0.08071070164442062, -0.09525186568498611, -0.049169380217790604, -0.06693212687969208, 0.0051401108503341675, -0.0485110767185688, -0.003968406468629837, -0.09628690034151077, 0.05956634506583214, -0.04319402575492859, 0.007737371604889631, 0.008432840928435326, -0.010998357087373734, 0.059767067432403564, 0.11559595912694931, 0.1082465648651123, 0.12764915823936462, 0.012307523749768734, -0.09780137240886688, 0.04908234626054764, 0.11794117093086243, 0.06442085653543472, -0.016307327896356583, -0.061628006398677826, 0.08352472633123398, 0.08471639454364777, 0.11103586852550507, -0.0168590247631073], [0.09757756441831589, 0.10874979943037033, 0.07171917706727982, 0.1045272946357727, -0.13675075769424438, 0.11161784082651138, 0.08963441848754883, 0.02195197530090809, 0.0495024174451828, 0.012973744422197342, -0.10512218624353409, 0.014522809535264969, -0.012955885380506516, 0.09266155958175659, -0.06106676906347275, 0.04066089913249016, -0.07730163633823395, -0.08892863243818283, 0.1112494245171547, 0.09533750265836716, 0.1191147044301033, -0.04479917138814926, 0.04174336791038513, 0.0233754962682724, -0.09004674106836319, 0.06744372844696045, -0.08760365843772888, -0.004708706401288509, -0.03587007150053978, -0.130337193608284, 0.06841333955526352, 0.052910566329956055, 0.021071622148156166, 0.02612951211631298, 0.11548260599374771, 0.0645778700709343, 0.014494333416223526, 0.036247555166482925, 0.09947212040424347, -0.0004098373756278306, 0.12160733342170715, -0.08772996068000793, -0.12648987770080566, 0.0985335260629654, -0.08260563760995865, -0.0778544545173645, 0.10740895569324493, -0.03719295933842659, 0.021797921508550644, 0.07321608066558838, -0.02912115678191185, -0.08934389799833298, -0.09188657253980637, 0.026880867779254913, 0.07225903868675232, 0.08329182118177414, -0.07126183062791824, -0.06744427233934402, -0.06961479783058167, -0.05099596828222275, 0.040131278336048126, -0.07050471007823944, 0.030669348314404488, -0.07592680305242538, 0.10928069055080414, -0.10871919244527817, -0.0034522819332778454], [0.0641896054148674, 0.08294328302145004, -0.10477061569690704, -0.10204847902059555, 0.07702784985303879, 0.021551068872213364, 0.05112694203853607, 0.10140084475278854, 0.10066891461610794, -0.07362949848175049, -0.05386189743876457, -0.1532430797815323, -0.11168311536312103, 0.08642025291919708, 0.11613783240318298, 0.024545306339859962, -0.0439537949860096, -0.06283567100763321, -0.03497431054711342, 0.054491519927978516, 0.05916104093194008, 0.05000365898013115, 0.0677492544054985, 0.060034915804862976, 0.028904100880026817, -0.01826973631978035, 0.015380472876131535, -0.0994696319103241, 0.032353635877370834, -0.10908417403697968, -0.10526187717914581, -0.057883407920598984, -0.07884379476308823, -0.007506325375288725, 0.11861900240182877, 0.05774256959557533, 0.03037765622138977, -0.04178927466273308, -0.020592235028743744, 0.034676145762205124, -0.04479101672768593, -0.02965625375509262, -0.08929990231990814, 0.07940264791250229, 0.0005542216240428388, -0.02775653451681137, 0.01596473716199398, -0.048489272594451904, -0.08229466527700424, -0.0024746062699705362, -0.11140114814043045, -0.042380645871162415, 0.04708227887749672, -0.08597075939178467, 0.017189906910061836, 0.1020008772611618, 0.03687611222267151, -0.06266026198863983, -0.046188194304704666, -0.02498008869588375, -0.03363092616200447, -0.0654873475432396, -0.03405037522315979, 0.06784027814865112, -0.11917085945606232, -0.08688236027956009, 0.06027493625879288], [-0.0367443785071373, -0.04036516323685646, -0.007701484952121973, 0.09278929978609085, 0.05922463908791542, -0.050238870084285736, 0.012802560813724995, -0.00022724358132109046, 0.1124662384390831, -0.08642606437206268, 0.01197598036378622, 0.04382577911019325, 0.11422177404165268, 0.050487495958805084, -0.12382730841636658, -0.043943483382463455, 0.025515764951705933, -0.09866982698440552, -0.09072922170162201, -0.008042505010962486, -0.08959104120731354, -0.00764169916510582, -0.09776214510202408, -0.12926943600177765, 0.1536291390657425, 0.12275752425193787, -0.11401242762804031, 0.1504509001970291, -0.03432978317141533, 0.08293601870536804, 0.09917368739843369, 0.027360936626791954, -0.07789809256792068, 0.0933411493897438, 0.025417717173695564, -0.006970107089728117, -0.006262541748583317, -0.08765637129545212, -0.10257408767938614, -0.1196955144405365, -0.07452946901321411, -0.04293211176991463, 0.05931004509329796, 0.01922360435128212, -0.0395386628806591, -0.12847115099430084, -0.10321324318647385, -0.13039787113666534, -0.11346392333507538, 0.06422089785337448, 0.07594039291143417, 0.008982762694358826, 0.040763337165117264, 0.0594550222158432, 0.11650412529706955, 0.08953867852687836, 0.03062620759010315, -0.03135467693209648, -0.01885732263326645, -0.05632450431585312, -0.0005518461111932993, -0.0154309356585145, -0.026061886921525, -0.17060349881649017, 0.011719906702637672, -0.01645221933722496, -0.05477123335003853], [-0.05167662724852562, -0.11312585324048996, -0.03883151710033417, 0.09472660720348358, 0.040572639554739, 0.018552327528595924, 0.025820396840572357, -0.07934487611055374, -0.07742420583963394, -0.09277969598770142, -0.13481664657592773, -0.03472153842449188, -0.053430549800395966, 0.037887077778577805, 0.13754290342330933, -0.058512862771749496, 0.05486142635345459, 0.007574486546218395, 0.039810262620449066, 0.09008397907018661, -0.04287993907928467, 0.011623363010585308, 0.07869705557823181, -0.05170588195323944, 0.004000617191195488, 0.07919870316982269, -0.10032443702220917, -0.08928226679563522, 0.05254485458135605, -0.04542900249361992, -0.041216764599084854, 0.0045458488166332245, -0.10308770835399628, -0.027872852981090546, 0.08692990988492966, -0.09594526141881943, -0.022961903363466263, -0.056635431945323944, 0.05229879915714264, 0.029537459835410118, 0.01316454540938139, 0.07959066331386566, -0.09458771347999573, 0.11783140152692795, -0.0579746812582016, 0.0495816208422184, -0.11621469259262085, 0.1387072205543518, 0.1225401759147644, 0.009405757300555706, 0.06625150144100189, -0.0992644876241684, -0.027711622416973114, -0.07984256744384766, 0.07316560298204422, -0.06395170837640762, 0.0011385298566892743, 0.15493734180927277, -0.11823134124279022, -0.114887535572052, 0.05745672434568405, 0.004281429573893547, -0.11158140003681183, -0.08617303520441055, -0.09356949478387833, -0.041741758584976196, 0.09770465642213821], [-0.12533320486545563, -0.07878711074590683, 0.011325471103191376, 0.09245441854000092, -0.032721493393182755, 0.06850188225507736, -0.010267033241689205, 0.04842023178935051, -0.11561428755521774, 0.0694822147488594, 0.10273966193199158, -0.019268793985247612, 0.11619098484516144, 0.022191906347870827, -0.08067747950553894, -0.07049677520990372, 0.0015896735712885857, -0.11380944401025772, -0.0506630465388298, 0.036050163209438324, 0.04266814514994621, 0.17198358476161957, -0.15288765728473663, -0.07866866886615753, 0.04545718804001808, 0.10717961192131042, -0.03336391597986221, -0.10831309109926224, -0.10767222195863724, 0.1031704917550087, 0.14258933067321777, -0.10937586426734924, -0.009920408949255943, -0.046046044677495956, 0.03609062358736992, 0.06011500209569931, -0.10979834944009781, -0.050440140068531036, -0.08624711632728577, 0.11209406703710556, -0.15338218212127686, -0.10073137283325195, 0.027670064941048622, -0.14375247061252594, -0.025569964200258255, 0.02803444303572178, -0.011041177436709404, -0.09668970853090286, 0.08206702768802643, -0.07894103229045868, -0.03951944038271904, -0.09953667223453522, -0.07424579560756683, -0.03221364691853523, 0.09911666810512543, 0.0798698291182518, 0.08287704735994339, -0.12222898006439209, 6.828059849794954e-05, -0.10966045409440994, 0.0025085860397666693, 0.020255228504538536, 0.1501815915107727, 0.10886777192354202, 0.08263982087373734, 0.0034683479461818933, 0.08641775697469711], [-0.09141211211681366, 0.11591961979866028, 0.1226951852440834, -0.04326760396361351, 0.06538417935371399, -0.00986376404762268, 0.02925948053598404, 0.003312904853373766, -0.08271800726652145, 0.07638849318027496, 0.0349578782916069, -0.1003299355506897, -0.0765020027756691, -0.003389042802155018, -0.09001591056585312, 0.009473430924117565, 0.12422271817922592, 0.11332320421934128, -0.06031664460897446, 0.10085596144199371, -0.041412949562072754, -0.038798846304416656, -0.00863619800657034, 0.08428569883108139, -0.0833844393491745, 0.026521891355514526, 0.13369126617908478, 0.09599272906780243, 0.02503974363207817, 0.06044686213135719, 0.006895177066326141, -0.02707172930240631, 0.1525973379611969, 0.10541224479675293, 0.10292086005210876, -0.007747294846922159, 0.11108608543872833, 0.024776171892881393, 0.07346571981906891, -0.08875226229429245, 0.06775397062301636, -0.12168756872415543, -0.09062525629997253, 0.04797855392098427, -0.06202977895736694, -0.10356628894805908, 0.04988414794206619, -0.003911330830305815, 0.10567499697208405, 0.052239660173654556, 0.032174304127693176, -0.08101606369018555, -0.09092514216899872, 0.1024203971028328, -0.0325368195772171, -0.04165755584836006, -0.06799352169036865, -0.007039956282824278, -0.023705799132585526, 0.06821133941411972, -0.07812854647636414, -0.07442633807659149, 0.0019164285622537136, -0.03127904608845711, -0.11410709470510483, 0.09149619191884995, 0.08155164867639542], [-0.11203736066818237, 0.10087820142507553, -0.07639080286026001, 0.007153485435992479, -0.14154574275016785, 0.05290894955396652, 0.042790256440639496, -0.05605421960353851, -0.0494132824242115, -0.09938608109951019, -0.13704989850521088, -0.10839396715164185, 0.0865447074174881, -0.12441924214363098, -0.06290288269519806, 0.008513676933944225, 0.024721913039684296, 0.15219634771347046, -0.055198486894369125, 0.10520609468221664, -0.09229981899261475, -0.13128383457660675, 0.1554529368877411, 0.08914662897586823, -0.022451188415288925, -0.05882798507809639, -0.05225719138979912, -0.06756769120693207, -0.06414426118135452, 0.1179436594247818, -0.08590828627347946, -0.07694265991449356, 0.10039501637220383, -0.03440408408641815, 0.1439877599477768, -0.08416979014873505, 0.04660743102431297, -0.1351991593837738, -0.1392090916633606, -0.0472225584089756, 0.06706341356039047, 0.03623669221997261, -0.07404134422540665, 0.09777902066707611, -0.0381060466170311, -0.06784687936306, 0.032365478575229645, 0.12785404920578003, 0.09156632423400879, -0.14273937046527863, -0.10207109898328781, 0.05933710187673569, -0.11713934689760208, -0.07267720997333527, -0.11023042351007462, 0.07777313143014908, -0.07348200678825378, -0.0301603302359581, -0.0283232219517231, 0.013705573976039886, 0.04325665161013603, -0.03470655530691147, 0.0372433103621006, -0.09669001400470734, 0.004092086106538773, -0.06391735374927521, -0.038734618574380875], [-0.08689731359481812, 0.04909803718328476, 0.03152429312467575, 0.028276467695832253, -0.008366468362510204, -0.03822042793035507, 0.0641714408993721, 0.08147993683815002, 0.11630107462406158, 0.05126991495490074, -0.04861718788743019, -0.1397406905889511, 0.06052493676543236, 0.05205242708325386, 0.13052016496658325, -0.14168347418308258, -0.07592233270406723, -0.10965022444725037, 0.0064820777624845505, -0.006544073577970266, 0.0757235661149025, -0.07823416590690613, 0.047700781375169754, -0.10433054715394974, -0.042804040014743805, -0.10656753182411194, 0.011940195225179195, 0.09812133759260178, 0.00301171257160604, 0.0051402319222688675, -0.02552102506160736, -0.012022164650261402, -0.051126908510923386, 0.005604994483292103, 0.018266256898641586, 0.09949351102113724, 0.10256779938936234, 0.0489194355905056, -0.08914671838283539, -0.05749504640698433, -0.0708971917629242, 0.010487010702490807, 0.01420432236045599, 0.10334199666976929, -0.11405495554208755, 0.04801672324538231, -0.007541971746832132, 0.01706816256046295, 0.040131691843271255, 0.05164618045091629, 0.021662408486008644, 0.007980043068528175, 0.025384046137332916, -0.10990241914987564, 0.049788299947977066, 0.04994944483041763, -0.09414444118738174, -0.015583109110593796, -0.11076933145523071, -0.048379212617874146, 0.0605982281267643, 0.12467467039823532, 0.09505964815616608, 0.020436976104974747, -0.0007196314400061965, 0.05430186912417412, -0.014589397236704826], [0.05566182732582092, 0.08843391388654709, 0.049247946590185165, -0.09831350296735764, -0.15765662491321564, -0.037533238530159, -0.060078393667936325, -0.07220664620399475, -0.09847187250852585, -0.10250035673379898, -0.026094557717442513, 0.03758915513753891, -0.059633079916238785, -0.1096736416220665, 0.15171052515506744, -0.09551547467708588, -0.12260983139276505, 0.10579446703195572, -0.00970727950334549, -0.070883609354496, -0.046219270676374435, -0.10819949954748154, 0.05222705379128456, 0.020357877016067505, 0.03703746199607849, 0.11734279245138168, -0.11653553694486618, -0.009149572812020779, 0.0002198962465627119, -0.023831374943256378, -0.03246302157640457, -0.1015971451997757, 0.0705932006239891, 0.10205905139446259, -0.06332316994667053, -0.05170928314328194, 0.05610423535108566, -0.00038812990533187985, 0.019917629659175873, 0.07955899834632874, -0.05504899099469185, -0.06513408571481705, -0.09439705312252045, 0.07206986099481583, 0.08082761615514755, 0.02011578530073166, -0.06840533018112183, 0.0036968509666621685, -0.05831265076994896, -0.0988445058465004, 0.12294111400842667, -0.0946166142821312, 0.079713374376297, 0.056438278406858444, -0.008251081220805645, 0.048716217279434204, 0.013269469141960144, 0.04796759784221649, -0.08173855394124985, 0.1398700326681137, -0.017188021913170815, -0.08462068438529968, -0.13500025868415833, 0.04378596693277359, 0.0004156857030466199, 0.04032638296484947, 0.07112586498260498], [0.03864086791872978, -0.06252476572990417, 0.1215238943696022, 0.06480564922094345, 0.11734654009342194, 0.09158926457166672, 0.029955504462122917, 0.10904589295387268, -0.050987761467695236, -0.04195937514305115, -0.03636191412806511, 0.023934965953230858, -0.07400887459516525, 0.041216135025024414, 0.05795316398143768, 0.09821739792823792, 0.09902294725179672, 0.050636403262615204, -0.06763462722301483, 0.059009332209825516, -0.047688376158475876, 0.12207772582769394, -0.1047651618719101, 0.1402895599603653, 0.13568215072155, 0.05648055672645569, 0.0651015117764473, -0.015462801791727543, 0.1172429621219635, -0.106739342212677, -0.16203060746192932, -0.11970311403274536, -0.09082935750484467, 0.04396167770028114, -0.04268050193786621, -0.009055577218532562, -0.03135225176811218, -0.04673179239034653, -0.10442373156547546, -0.10340800136327744, 0.09058698266744614, -0.12687984108924866, -0.06827499717473984, -0.04193464666604996, -0.12093614786863327, -0.07169868052005768, 0.006890843156725168, -0.00878955703228712, 0.06705712527036667, 0.10774537175893784, 0.041006311774253845, -0.06150442361831665, -0.1027347669005394, 0.029781246557831764, -0.09672477841377258, -0.10307753086090088, -0.006621869746595621, -0.06442627310752869, 0.13333721458911896, -0.039390210062265396, 0.0782037228345871, 0.11815246939659119, 0.045585326850414276, -0.006773693021386862, 0.09742234647274017, -0.05540253594517708, 0.018687641248106956], [0.02166520059108734, -0.12394402921199799, 0.096152663230896, 0.01941111497581005, 0.01656661555171013, -0.019990302622318268, -0.03385004773736, 0.1468058079481125, -0.037742458283901215, 0.01311412826180458, 0.11781682819128036, 0.08503138273954391, 0.06381155550479889, 0.06374793499708176, 0.05480729043483734, -0.044268641620874405, 0.028474340215325356, -0.05862271785736084, -0.0813261866569519, -0.016282174736261368, -0.1170700266957283, -0.019182249903678894, 0.07831013947725296, 0.032732315361499786, 0.01755966618657112, 0.07538876682519913, -0.09736897051334381, -0.06969069689512253, 0.0322849377989769, 0.04695926979184151, 0.02226271480321884, -0.08777680993080139, 0.08734369277954102, -0.04798419028520584, 0.07831503450870514, -0.07386317849159241, 0.09027769416570663, -0.041168201714754105, 0.03962180018424988, 0.11129660904407501, 0.011078385636210442, 0.031353794038295746, -0.013883001171052456, 0.045056164264678955, -0.040469273924827576, 0.02735290303826332, 0.024884996935725212, 0.08280832320451736, 0.026580123230814934, -0.055991869419813156, 0.022330885753035545, 0.057604607194662094, -0.08059275150299072, -0.07519897073507309, -0.04326784610748291, -0.08377399295568466, -0.05738973617553711, -0.014521731995046139, 0.027522388845682144, -0.03322937339544296, -0.11106240749359131, 0.12305904179811478, 0.04274669662117958, -0.03989038243889809, -0.008923699147999287, -0.1245933473110199, 0.02839621715247631], [-0.11107156425714493, -0.10020449757575989, 0.12584468722343445, -0.05837754160165787, -0.09571658819913864, 0.015650248154997826, -0.03145081177353859, 0.056989993900060654, 0.09169913083314896, 0.010190987959504128, -0.09621730446815491, 0.007232585921883583, 0.03352271392941475, 0.08235877007246017, -0.05914774164557457, -0.060429468750953674, 0.029965849593281746, -0.05418207868933678, -0.06470762193202972, 0.06134464591741562, 0.039529647678136826, 0.11935792118310928, -0.0875122919678688, 0.04073738679289818, -0.02363138645887375, -0.10216394811868668, -0.07262132316827774, -0.006203141529113054, 0.05829164385795593, 0.08249776065349579, -0.09847964346408844, 0.033615920692682266, 0.07618457823991776, -0.03052302822470665, -0.035865671932697296, -0.03013915941119194, -0.120974600315094, 0.11531833559274673, -0.09285340458154678, 0.0286068357527256, -0.027957025915384293, -0.15075275301933289, 0.04779442027211189, 0.0029392337892204523, -0.0166166964918375, -0.08180902153253555, -0.017518654465675354, 0.03810279071331024, 0.019086593762040138, -0.09610424935817719, -0.1011277437210083, -0.10068895667791367, 0.09056971222162247, 0.030962321907281876, -0.061334725469350815, 0.020048990845680237, 0.015508134849369526, 0.03964859992265701, -0.05439404025673866, -0.050348490476608276, 0.13676591217517853, 0.017359275370836258, 0.09769339114427567, 0.09197581559419632, -0.007738369982689619, 0.11376513540744781, -0.02130911685526371], [0.09230092167854309, 0.02450629509985447, -0.12148817628622055, 0.06259115040302277, 0.010813993401825428, -0.09581016004085541, 0.05895537883043289, -0.1049395352602005, -0.11238638311624527, -0.018147248774766922, 0.017340082675218582, 0.13333551585674286, -0.058561041951179504, -0.07714470475912094, 0.013622341677546501, 0.1149282157421112, 0.1170884519815445, -0.02812095731496811, -0.0021101064048707485, -0.03604503348469734, 0.12081678211688995, 0.029021400958299637, -0.0045543150044977665, 0.024328911677002907, -0.05719759687781334, -0.002752036554738879, -0.08052722364664078, 0.05460735037922859, 0.09015853703022003, 0.029766757041215897, -0.0509311743080616, 0.09595458209514618, 0.017313120886683464, -0.09992217272520065, -0.0999084860086441, 0.06392844021320343, 0.08938820660114288, 0.10298176109790802, 0.04494975134730339, -0.08472727239131927, -0.07458391040563583, 0.0026847869157791138, 0.05587759241461754, -0.0344400517642498, 0.04899493232369423, 0.07891933619976044, 0.045462507754564285, -0.030395569279789925, -0.04212655872106552, -0.07246043533086777, 0.00022383540635928512, -0.11342296749353409, 0.09228605031967163, 0.029149355366826057, 0.05819949507713318, 0.12129565328359604, -0.040617719292640686, 0.0027771135792136192, -0.04327324405312538, 0.05564361810684204, 0.051627274602651596, 0.06166859716176987, -0.005739485379308462, 0.020204607397317886, -0.08433471620082855, -0.06662804633378983, -0.08935144543647766], [0.037835314869880676, -0.09902504831552505, -0.03594401851296425, 0.009308465756475925, 0.00706284586340189, 0.07841047644615173, 0.08628392219543457, -0.02827594056725502, -0.03822236880660057, -0.10198474675416946, -0.008611236698925495, -0.02837209776043892, 0.005894453730434179, 0.07652897387742996, -0.03956945613026619, 0.08993019908666611, -0.047788430005311966, -0.028696799650788307, 0.003969171550124884, -0.06278683990240097, 0.17057719826698303, 0.0024124914780259132, 0.06963503360748291, 0.04597759246826172, 0.062335025519132614, -0.10189742594957352, 0.09369345754384995, -0.06215295568108559, 0.10686474293470383, 0.11793006956577301, -0.04068528115749359, 0.031222185119986534, 0.08355586230754852, -0.0841120034456253, 0.022658925503492355, 0.014627313241362572, 0.018964068964123726, 0.12345279008150101, -0.07305589318275452, -0.11620362102985382, -0.08835024386644363, -0.020969975739717484, -0.04492169991135597, -0.0772886723279953, -0.03156568855047226, 0.019182685762643814, -0.0894656553864479, 0.07925374060869217, 0.03464119881391525, -0.0549592524766922, -0.044659554958343506, 0.0007554842159152031, 0.06534244120121002, 0.03061240166425705, -0.0756087452173233, 0.1416023075580597, 0.006641589105129242, 0.026890311390161514, 0.17457233369350433, -0.00694024283438921, 0.12616048753261566, -0.040840938687324524, -0.060185808688402176, 0.07673745602369308, 0.12981347739696503, 0.12595924735069275, 0.1063937172293663], [0.04182685911655426, -0.10786056518554688, 0.06980055570602417, 0.12352105975151062, -0.14824920892715454, -0.005710419733077288, 0.012285742908716202, -0.025752227753400803, 0.05822601914405823, -0.07888201624155045, -0.0667872428894043, -0.12234523892402649, -0.04027494788169861, -0.09461183845996857, -0.07411176711320877, 0.07885371893644333, 0.0021064227912575006, -0.06435923278331757, -0.056529607623815536, 0.02384517900645733, -0.058213867247104645, 0.07008028030395508, 0.05799783766269684, -0.07642196118831635, -0.0890292078256607, -0.0426277332007885, -0.09702764451503754, 0.07118119299411774, -0.10100454092025757, 0.06078667938709259, -0.06084847077727318, 0.04611737281084061, 0.023683134466409683, 0.08291220664978027, 0.08169097453355789, 0.11195624619722366, 0.08340054005384445, 0.10525492578744888, -0.044212304055690765, -0.08479946106672287, 0.0037503766361624002, -0.055969879031181335, -0.02491164393723011, -0.043979477137327194, -0.07801225036382675, -0.032231979072093964, 0.0958796814084053, 0.13498888909816742, -0.04221551492810249, 0.08279993385076523, -0.015999704599380493, -0.03380686417222023, -0.12278389185667038, 0.1369280070066452, -0.14811168611049652, 0.03678825870156288, -0.08262857794761658, 0.1399117112159729, -0.1273166388273239, 0.04031200706958771, -0.11320645362138748, 0.013925566338002682, 0.04746374860405922, 0.11287888139486313, 0.00021550159726757556, 0.10540291666984558, 0.0866306722164154], [0.10637043416500092, 0.05559367686510086, 0.01053446251899004, -0.0009561871411278844, -0.07476373761892319, 0.06859342008829117, 0.07062359154224396, 0.06899376958608627, -0.10616491734981537, -0.02348187007009983, 0.05731881782412529, -0.15957121551036835, 0.0654798299074173, -0.023985762149095535, 0.005147266201674938, -0.03318691626191139, -0.03435157984495163, -0.10845541954040527, -0.04173940047621727, 0.008453006856143475, 0.07809954136610031, 0.015065880492329597, -0.001333203399553895, 0.06258321553468704, 0.10871463268995285, -0.12849202752113342, -0.06622186303138733, -0.08090811222791672, 0.1221073642373085, -0.050335440784692764, -0.04209648817777634, -0.0826244056224823, -0.029355941340327263, -0.1273740828037262, -0.13402633368968964, 0.018430927768349648, 0.027548372745513916, -0.12087587267160416, 0.06399156898260117, -0.03243430331349373, 0.03047393448650837, 0.09191058576107025, 0.1289493292570114, 0.030226709321141243, 0.09191028773784637, 0.14034536480903625, -0.009388547390699387, -0.13078199326992035, 0.006249929778277874, 0.1297094076871872, 0.08514048904180527, -0.035965435206890106, -0.002642414765432477, 0.07801643013954163, 0.038879621773958206, 0.04848431795835495, 0.04607806354761124, -0.04445803910493851, -0.10776949673891068, 0.09138866513967514, -0.12327611446380615, -0.04121582955121994, 0.0026536360383033752, 0.026285510510206223, -0.10627854615449905, 0.07191471755504608, 0.05287030711770058], [-0.051259443163871765, 0.0002972965594381094, -0.05303392931818962, 0.11026231944561005, 0.03504657372832298, -0.14998465776443481, -0.0498599112033844, -0.007992999628186226, -0.1259312927722931, -0.12007497251033783, 0.004432882647961378, -0.011118685826659203, -0.11356598883867264, 0.07447873800992966, -0.09534792602062225, -0.09635735303163528, 0.027616066858172417, -0.07199593633413315, 0.13282735645771027, -0.04702243581414223, -0.04051469638943672, 0.021610070019960403, -0.07313047349452972, -0.015610847622156143, 0.10453654825687408, 0.12815146148204803, -0.0881570503115654, 0.12676191329956055, -0.1409774124622345, 0.07918443530797958, -0.08177350461483002, 0.010481176897883415, -0.06332937628030777, 0.12966950237751007, 0.08737295866012573, 0.0349525548517704, 0.09238041192293167, -0.11858455091714859, -0.06956658512353897, 0.06268386542797089, 0.09904581308364868, 0.022877652198076248, -0.07689114660024643, -0.03027970716357231, 0.1390332728624344, -0.012491797097027302, -0.13562940061092377, 0.09942500293254852, -0.031278643757104874, -0.130234494805336, -0.0876685380935669, -0.1354912370443344, -0.06151344254612923, 0.043553635478019714, -0.045154377818107605, 0.10429459065198898, -0.04712476208806038, 0.14958971738815308, -0.09416469931602478, -0.12935930490493774, 0.023880325257778168, 0.05896929278969765, -0.06415475159883499, -0.10612306743860245, 0.08914963901042938, 0.058980781584978104, -0.05284661054611206], [-0.11434971541166306, 0.0701293796300888, 0.015240348875522614, 0.13937148451805115, -0.1177048459649086, -0.08005614578723907, 0.11677764356136322, 0.07155395299196243, -0.035799119621515274, -0.04800473526120186, 0.07970242202281952, 0.10116960108280182, -0.07785341143608093, 0.052243687212467194, -0.024671249091625214, 0.15035894513130188, -0.0632454976439476, -0.044089749455451965, 0.11559683829545975, -0.07341843098402023, -0.08996613323688507, 0.06310595571994781, -0.05362323671579361, 0.022797543555498123, 0.020694872364401817, 0.10445820540189743, 0.027217891067266464, 0.013114456087350845, 0.05140969157218933, 0.004852765239775181, -0.1172533705830574, 0.034260302782058716, 0.08308061957359314, -0.023752404376864433, -0.03260810673236847, 0.14243397116661072, -0.08503622561693192, 0.03617078810930252, 0.0641704872250557, 0.03925716504454613, 0.017348824068903923, 0.01137319952249527, 0.09265792369842529, -0.017915144562721252, -0.01352781429886818, 0.08523491770029068, 0.027873298153281212, 0.1024520993232727, -0.1352163553237915, -0.02534760907292366, -0.12867625057697296, -0.07410523295402527, 0.0824827179312706, 0.003989115823060274, -0.048916060477495193, 0.004098476842045784, 0.09967872500419617, -0.07201168686151505, -0.07363568246364594, -0.14782598614692688, 0.1481393426656723, -0.08488951623439789, -0.09037579596042633, 0.07320436835289001, 0.1125369518995285, 0.0673648789525032, -0.1462954431772232], [0.09791112691164017, 0.07146262377500534, -0.04610537737607956, 0.02644314058125019, 0.09804736077785492, 0.016038810834288597, -0.0006716897478327155, -0.06873918324708939, -0.08150984346866608, 0.06285462528467178, 0.08123999834060669, 0.10281435400247574, -0.014744910411536694, 0.08368460834026337, 0.04870853200554848, 0.005015958100557327, 0.08511007577180862, 0.11265406012535095, -0.062036458402872086, -0.00020563096040859818, -0.004799808841198683, 0.0750432088971138, 0.011785591021180153, -0.09084651619195938, -0.016680864617228508, 0.0035122307017445564, 0.10843135416507721, -0.025844914838671684, -0.11481394618749619, 0.04022984579205513, -0.11346684396266937, 0.08006297051906586, 0.0760774239897728, -0.02018776163458824, 0.0003920641902368516, 0.04757183417677879, 0.06302636861801147, 0.08270533382892609, 0.00029106062720529735, -0.14088787138462067, -0.03671497106552124, -0.07502497732639313, -0.12707270681858063, -0.0660402774810791, -0.08679177612066269, -0.10020577162504196, -0.026842376217246056, -0.022188400849699974, 0.0714799165725708, 0.10549383610486984, -0.03805990517139435, 0.03205635026097298, 0.05517706647515297, 0.011363263241946697, 0.0804879441857338, 0.05879786238074303, 0.029137661680579185, -0.098373644053936, -0.06502502411603928, -0.1016741469502449, -0.05980711057782173, 0.11052524298429489, -0.009054195135831833, -0.12890732288360596, -0.013697036541998386, -0.005909991450607777, 0.09458281844854355], [0.11379867047071457, 0.11094101518392563, -0.06867166608572006, -0.09553530067205429, -0.048337917774915695, -0.0204605832695961, -0.07073156535625458, 0.012708214111626148, 0.09621135145425797, -0.09231015294790268, -0.016460761427879333, 0.061247795820236206, 0.09941432625055313, 0.052825670689344406, -0.03801289200782776, -0.051848992705345154, -0.06455223262310028, -0.0320870466530323, -0.054215580224990845, 0.01916114240884781, 0.050224658101797104, -0.022574812173843384, 0.002652842318639159, 0.1318769007921219, -0.10365280508995056, 0.12194681912660599, -0.05492997169494629, -0.048421576619148254, -0.10074344277381897, -0.10044597834348679, 0.0430716872215271, -0.08402170240879059, -0.1368558257818222, 0.024283522740006447, 0.04262722283601761, -0.015690065920352936, 0.09173380583524704, -0.12092069536447525, -0.019310252740979195, -0.08058933168649673, 0.07943327724933624, 0.12344851344823837, 0.0148289380595088, 0.06042642891407013, 0.13438937067985535, -0.03889472782611847, -0.11876698583364487, 0.09805566817522049, -0.027270028367638588, 0.07601260393857956, -0.024634459987282753, -0.051288072019815445, -0.013487299904227257, -0.07053964585065842, -0.058116648346185684, 0.07648122310638428, -0.04308893159031868, -0.013052765280008316, -0.1355416476726532, -0.0290058646351099, -0.12898485362529755, 0.0676926001906395, -0.011663430370390415, -0.09837374091148376, 0.08013367652893066, -0.004852824378758669, -0.03213188797235489], [-0.03152940422296524, 0.012065580114722252, -0.12617076933383942, 0.0830199122428894, -0.09049447625875473, -0.019483735784888268, 0.05761018022894859, 0.07569096982479095, 0.12929697334766388, 0.059358108788728714, 0.07009387761354446, -0.03840024024248123, -0.13370157778263092, 0.038524188101291656, 0.02571842260658741, -0.06690489500761032, -0.04944411665201187, 0.0609918087720871, 0.05003032833337784, 0.09499908983707428, 0.07133418321609497, -0.11897223442792892, 0.01723598502576351, 0.12608404457569122, 0.05802556127309799, 0.04758445918560028, 0.042954131960868835, 0.07674727588891983, -0.019055930897593498, -0.08526366949081421, -0.059214137494564056, 0.09869761019945145, 0.023109858855605125, 0.057391099631786346, 0.14297430217266083, -0.011991407722234726, 0.04110216721892357, -0.14348560571670532, 0.11350732296705246, -0.08790457248687744, 0.09376302361488342, 0.03348265588283539, -0.08175649493932724, 0.1266908347606659, 0.014096476137638092, 0.05208422616124153, 0.06680752336978912, -0.01624535769224167, -0.06109211593866348, 0.0207201074808836, -0.08735321462154388, -0.08433151245117188, -0.010552635416388512, -0.039247479289770126, 0.012860961258411407, 0.13895204663276672, 0.12171175330877304, -0.08257506042718887, 0.05968187749385834, -0.09174853563308716, 0.129599466919899, -0.11309916526079178, -0.0833870992064476, 0.08026792854070663, -0.04254094138741493, -0.13541457056999207, 0.05058380216360092], [-0.01541433297097683, -0.07718100398778915, -0.13557957112789154, -0.0012435379903763533, -0.07083045691251755, -0.10498597472906113, -0.07281060516834259, -0.0008374456083402038, 0.11265231668949127, 0.08568991720676422, 0.031103409826755524, 0.07644081860780716, 0.01888848841190338, -0.038884930312633514, 0.07837972044944763, 0.08786456286907196, -0.025763431563973427, 0.08530150353908539, 0.09939368069171906, 0.012920171953737736, -0.052526481449604034, -0.002963070524856448, -0.008666684851050377, -0.01018599048256874, 0.024289529770612717, 0.05470044165849686, 0.014995835721492767, 0.018205810338258743, 0.0659596174955368, -0.10743454843759537, 0.0995197519659996, -0.04427076503634453, 0.0466107539832592, -0.013792219571769238, -0.06881870329380035, 0.1343083679676056, -0.04442231357097626, -0.07332182675600052, -0.028208333998918533, -0.06760105490684509, 0.047183211892843246, 0.011466835625469685, 0.03043154999613762, 0.08905170112848282, -0.050845444202423096, -0.11863695830106735, -0.058352112770080566, -0.01960640586912632, -0.11225879192352295, 0.022881081327795982, -0.037521373480558395, -0.14428186416625977, -0.053344644606113434, 0.07975850999355316, -0.1153768002986908, -0.01895289123058319, 0.03104817494750023, -0.06877583265304565, 0.0058376118540763855, -0.008608709089457989, 0.08471567928791046, 0.060618095099925995, 0.045286741107702255, 0.046797532588243484, -0.01627068966627121, 0.09792739152908325, 0.016858907416462898], [-0.06545520573854446, 0.056061647832393646, 0.12777115404605865, -0.024533847346901894, 0.11843550950288773, 0.031817637383937836, 0.07748011499643326, 0.0018988966476172209, 0.012059337459504604, 0.001048334059305489, 0.0005425249692052603, -0.034356262534856796, 0.02906925603747368, 0.07553417980670929, -0.07827157527208328, 0.12391205132007599, -0.0964915081858635, -0.05873904377222061, -0.01288234069943428, 0.1262774020433426, 0.011306753382086754, 0.00221253908239305, -0.10551269352436066, 0.11561871320009232, 0.0741865411400795, -0.04304545745253563, -0.09555364400148392, -0.0927271693944931, 0.12761016190052032, 0.030799033120274544, -0.11164595186710358, 0.006271224934607744, -0.11907437443733215, 0.037677545100450516, -0.07247945666313171, -0.11574701219797134, 0.035369690507650375, -0.08785843104124069, -0.035886336117982864, -0.09089092910289764, -0.13406620919704437, 0.06866342574357986, 0.07763876020908356, 0.06798042356967926, -0.15634411573410034, -0.045551568269729614, -0.10514239221811295, -0.15205033123493195, -0.038583360612392426, 0.06916381418704987, 0.13205982744693756, 0.03778090327978134, -0.08748094737529755, 0.0951826274394989, 0.11353601515293121, 0.08949591219425201, -0.11780504882335663, -0.07432056963443756, -0.020984811708331108, 0.12499579787254333, 0.07204978168010712, 0.05019413307309151, 0.1078902930021286, 0.03681277111172676, -0.04258095100522041, 0.05231894552707672, -0.06156858801841736], [0.04165055975317955, 0.05866828188300133, 0.08714646100997925, -0.11579695343971252, -0.07217740267515182, -0.005471508949995041, 0.05923616141080856, 0.11970062553882599, -0.010788080282509327, 0.012047422118484974, -0.1321876496076584, -0.03532544523477554, -0.04360733926296234, 0.07008783519268036, -0.005477713420987129, 0.01106202881783247, -0.01841234229505062, 0.10952090471982956, -0.05527080222964287, 0.06277742981910706, 0.03085041232407093, -0.092946358025074, 0.1458711177110672, 0.016873817890882492, -0.012086987495422363, 0.021986305713653564, -0.045712023973464966, -0.08664654940366745, 0.07792439311742783, 0.10240623354911804, -0.04693512246012688, 0.058175262063741684, -0.0750521719455719, -0.0345379002392292, -0.09588645398616791, 0.07620423287153244, -0.07763581722974777, -0.022494757547974586, 0.07202597707509995, -0.06958142668008804, -0.07089509069919586, 0.07162904739379883, -0.030987126752734184, -0.05460680276155472, 0.027745578438043594, 0.01473943144083023, -0.07495313137769699, -0.011600249446928501, -0.05505216121673584, -0.009517189115285873, -0.010781299322843552, -0.11042486876249313, 0.06960129737854004, 0.062232304364442825, 0.058827370405197144, -0.12162668257951736, 0.049918849021196365, 0.14189481735229492, -0.10998032987117767, 0.09328866004943848, -0.08260570466518402, 0.06352631002664566, -0.06922462582588196, 0.052061911672353745, -0.07441379129886627, -0.014768289402127266, -0.038691502064466476], [0.12927302718162537, -0.1143777146935463, 0.09379148483276367, -0.09711113572120667, -0.018745403736829758, -0.06496897339820862, 0.04890863969922066, 0.049654629081487656, 0.08297374099493027, 0.047208692878484726, 0.006372545845806599, -0.02010595239698887, -0.08661789447069168, -0.020674197003245354, -0.017232133075594902, -0.05908513441681862, 0.0960853099822998, -0.08900970220565796, -0.021664390340447426, 0.03651279956102371, -0.008912168443202972, 0.0074180783703923225, 0.007745849899947643, -0.0019315459067001939, -0.07655561715364456, 0.04972533509135246, -0.04209321737289429, -0.12175390869379044, -0.07151303440332413, 0.04283983260393143, -0.15199266374111176, -0.032251644879579544, 0.13303467631340027, -0.0862942636013031, 0.07939624786376953, 0.05268724262714386, 0.07712972909212112, 0.07524104416370392, -0.0261908657848835, 0.05329422280192375, -0.11289968341588974, 0.11671192198991776, 0.018680840730667114, 0.013559581711888313, 0.09390316158533096, -0.03952449932694435, -0.07869253307580948, -0.10804468393325806, 0.020831657573580742, 0.09861903637647629, 0.05069926753640175, -0.061360642313957214, 0.03646940737962723, -0.10412260890007019, -0.0008029288146644831, -0.006248150486499071, -0.04612645134329796, -0.10121935606002808, -0.0340062640607357, -0.02859402447938919, -0.02159726247191429, 0.01979866251349449, 0.05838485807180405, -0.053246624767780304, 0.04173242300748825, -0.1356860250234604, 0.06464819610118866], [-0.06172813102602959, 0.025332218036055565, 0.023361364379525185, -0.02719539776444435, 0.11781474202871323, 0.06543182581663132, -0.10682424157857895, 0.04527801275253296, 0.01567869633436203, 0.056889019906520844, 0.01535782776772976, 0.15045304596424103, 0.0590362586081028, -0.012622549198567867, -0.1174633577466011, 0.052664417773485184, -0.12322917580604553, 0.048659004271030426, 0.012700662016868591, 0.05556388199329376, 0.033452536910772324, -0.07078451663255692, -0.06840890645980835, -0.056335993111133575, -0.13225552439689636, 0.07340613007545471, -0.06302136182785034, -0.055742617696523666, -0.03334592655301094, 0.05709807202219963, -0.005408105440437794, 0.04033077135682106, 0.04958835616707802, -0.015227673575282097, 0.07555291056632996, 0.053330592811107635, 0.0790472999215126, 0.150087371468544, 0.060663942247629166, 0.08123558014631271, 0.056149616837501526, -0.04994247108697891, 0.011954639106988907, -0.08198347687721252, 0.07754166424274445, 0.04918830096721649, -0.0701676532626152, 0.08728477358818054, 0.08587439358234406, 0.025266289710998535, -0.06668677926063538, -0.04701198637485504, -0.09525204449892044, -0.08220227062702179, 0.12858478724956512, -0.01746618188917637, 0.09489881247282028, 0.048381078988313675, 0.11077551543712616, 0.051643531769514084, -0.07973648607730865, 0.12959006428718567, -0.09297405928373337, 0.039651717990636826, 0.021049246191978455, 0.09646447002887726, -0.07338271290063858], [0.03486190363764763, 0.020004956051707268, -0.12718132138252258, 0.02501695603132248, -0.05989398807287216, 0.10382906347513199, -0.09990054368972778, 0.06366679072380066, 0.10224366933107376, -0.10211416333913803, 0.10431060940027237, -0.10766220837831497, 0.06842275708913803, -0.04307617247104645, 0.1253313422203064, -0.11321864277124405, 0.07052426785230637, -0.019597865641117096, 0.0426761731505394, -0.11492832005023956, -0.04182400926947594, -0.044386252760887146, -0.0541720911860466, 0.07319296896457672, -0.06777992844581604, -0.02010772004723549, -0.012362095527350903, 0.00514197675511241, -0.061226241290569305, 0.03756297007203102, -0.05303814262151718, 0.029090601950883865, -0.09044190496206284, -0.0017667650245130062, -0.07388456910848618, -0.0765920951962471, 0.09797065705060959, -0.11939524859189987, 0.08762563019990921, -0.053060803562402725, 0.1142500638961792, -0.0685841292142868, -0.06784108281135559, 0.07311715185642242, -0.05303564295172691, -0.08295221626758575, -0.13363677263259888, 0.14228060841560364, 0.10971175134181976, -0.0968550592660904, 0.06759678572416306, -0.14125214517116547, 0.04214419052004814, -0.08585326373577118, 0.05680738762021065, -0.08268286287784576, -0.029094111174345016, 0.07691743969917297, -0.10848290473222733, 0.07025401294231415, -0.01112116128206253, 0.04527653753757477, 0.0398113951086998, 0.08924195915460587, -0.03312726691365242, 0.02345483936369419, -0.12407679855823517], [-0.06019553914666176, -0.1420309841632843, 0.011092150583863258, -0.0788012370467186, -0.09063047170639038, -0.014435360208153725, -0.06567657738924026, 0.052222758531570435, -0.023169271647930145, 0.11160275340080261, 0.05752917751669884, -0.05406558886170387, -0.03160623088479042, -0.10534215718507767, 0.0683387741446495, -0.030374800786376, 0.07070131599903107, -0.12436682730913162, -0.004777959547936916, -0.03129846975207329, -0.10322809964418411, -0.010551344603300095, 0.03987669199705124, 0.03724284470081329, -0.07545918226242065, -0.1115841493010521, 0.030596904456615448, -0.11042672395706177, 0.012837334536015987, 0.09496329724788666, -0.11802906543016434, -0.07848398387432098, -0.004223996307700872, -0.0427548810839653, 0.009653177112340927, 0.06000077351927757, 0.014757754281163216, 0.08781895041465759, -0.07952848076820374, -0.0842684805393219, -0.10971703380346298, 0.022195536643266678, -0.0729699581861496, 0.07481320202350616, 0.034482065588235855, 0.06844129413366318, -0.011411534622311592, -0.10126049816608429, 0.034643545746803284, -0.08003091812133789, -0.0962710827589035, -0.043466322124004364, -0.043183788657188416, -0.09532666206359863, 0.013523774221539497, -0.15242692828178406, 0.10601948946714401, -0.03571503981947899, -0.00787542387843132, 0.028034841641783714, 0.09225530922412872, 0.07587054371833801, 0.07985427975654602, 0.0007413892890326679, -0.016817498952150345, -0.009043280966579914, 0.09573885053396225], [0.06182149052619934, 0.07525993138551712, 0.10198485851287842, -0.09557283669710159, -0.08288022875785828, 0.06665043532848358, 0.04979431629180908, -0.0938354954123497, 0.06940367072820663, -0.0008533530053682625, 0.04115438461303711, -0.02262377180159092, -0.09055760502815247, 0.07155313342809677, 0.04926058650016785, 0.1416471153497696, 0.138274684548378, -0.04884473979473114, -0.018960218876600266, -0.08315515518188477, 0.05558896064758301, -0.08533378690481186, 0.062234096229076385, -0.09120187908411026, 0.1100488230586052, 0.0716821700334549, -0.11148687452077866, -0.05697754770517349, 0.010226096957921982, -0.03740324452519417, -0.08872482180595398, -0.04218060523271561, -0.07757619023323059, 0.00261170556768775, 0.13455456495285034, -0.03648010641336441, 0.048684388399124146, 0.010271928273141384, 0.07596954703330994, 0.06179837882518768, -0.01642332784831524, -0.021487383171916008, -0.05008229613304138, 0.09311573207378387, 0.03857988119125366, 0.050845757126808167, -0.0018516461132094264, -0.09015580266714096, -0.0900932103395462, 0.055770255625247955, 0.019121360033750534, 0.07037150859832764, 0.08960910141468048, 0.03337518498301506, 0.035268478095531464, -0.06590579450130463, -0.06441865861415863, 0.049221813678741455, -0.022349901497364044, 0.08857926726341248, 0.11186385154724121, -0.03537854179739952, 2.816756023094058e-06, 0.066684789955616, -0.10997682809829712, 0.05781721696257591, 0.04244575276970863], [0.021987037733197212, -0.03741983324289322, 0.0919344425201416, -0.09838087856769562, 0.046336498111486435, 0.03652413561940193, -0.11078909039497375, 0.04721204191446304, -0.06507597118616104, -0.05521530658006668, -0.03247525542974472, 0.022934382781386375, -0.01828770339488983, -0.026349758729338646, 0.038538429886102676, -0.01053985022008419, 0.02651757188141346, 0.01020956039428711, -0.05714338272809982, 0.10850590467453003, -0.01991252973675728, 0.030780889093875885, 0.06380850821733475, 0.0978226587176323, 0.023164577782154083, 0.03820190578699112, -0.002883507637307048, -0.04098501428961754, 0.12203330546617508, -0.08193792402744293, -0.09518137574195862, -0.08038101345300674, 0.022358955815434456, 0.08707951009273529, -0.12027887254953384, -0.054771844297647476, -0.0928170457482338, -0.027161063626408577, 0.01580606959760189, 0.018691767007112503, -0.030196113511919975, -0.07878968119621277, 0.10673616826534271, -0.06800487637519836, 0.008041207678616047, -0.02089938521385193, -0.01003850158303976, 0.10728003084659576, -0.05795089155435562, -0.007302047684788704, 0.08678385615348816, 0.09018519520759583, -0.052384261041879654, 0.07374110817909241, 0.08199933916330338, -0.002217899076640606, 0.07144918292760849, 0.0075642564333975315, 0.08473208546638489, 0.003978934604674578, -0.006324309855699539, -0.020231328904628754, -0.07360606640577316, 0.005447964649647474, -0.10088347643613815, -0.14397208392620087, -0.03345786780118942], [-0.08036559820175171, 0.015691833570599556, -0.03247830271720886, 0.08747629076242447, -0.05330649018287659, 0.052944786846637726, -0.04039382562041283, -0.003825051710009575, 0.07996959239244461, 0.062273889780044556, -0.09729871153831482, 0.06494014710187912, -0.05975814536213875, 0.036419160664081573, -0.12222084403038025, -0.022471396252512932, 0.12123249471187592, 0.04573565348982811, -0.030336705967783928, 0.03713363781571388, 0.13202081620693207, -0.08275734633207321, -0.050541795790195465, 0.0691872164607048, 0.07963617146015167, 0.10747574269771576, 0.09043878316879272, -0.11413004994392395, 0.08508040755987167, 0.008699554949998856, -0.0075309621170163155, 0.07956425100564957, -0.07576338946819305, -0.0032999704126268625, 0.08752816915512085, -0.027924243360757828, 0.030098751187324524, 0.019699612632393837, 0.022850176319479942, 0.024988854303956032, -0.0855407565832138, 0.06488774716854095, -0.04379966855049133, -0.002850741846486926, -0.05244093015789986, -0.015467789955437183, -0.00708426907658577, -0.03512196987867355, -0.09465079009532928, -0.008642292581498623, 0.03425344079732895, -0.01197388581931591, 0.024057339876890182, 0.032823655754327774, -0.11868825554847717, -0.08481112867593765, 0.04780832678079605, 0.13510411977767944, 0.12810346484184265, -0.11163241416215897, -0.021916402503848076, -0.05660353973507881, 0.08611374348402023, -0.10247065871953964, -0.07638828456401825, 0.08399607241153717, -0.11988615989685059], [0.12706144154071808, -0.046683453023433685, 0.006946191191673279, -0.0070282574743032455, -0.08548623323440552, -0.053639501333236694, 0.06748717278242111, 0.0008675865828990936, 0.017507417127490044, 0.04157458618283272, 0.12073646485805511, 0.04890768975019455, 0.049290191382169724, 0.0008495234651491046, 0.10867677628993988, -0.06001098453998566, -0.06717197597026825, 0.01507908571511507, 0.014217905700206757, 0.1297311782836914, 0.049387089908123016, -0.06354719400405884, -0.043385520577430725, 0.005880454555153847, 0.12649379670619965, -0.07073785364627838, -0.006834057159721851, -0.015858806669712067, 0.12301016598939896, -0.02992759644985199, 0.052829865366220474, 0.041375793516635895, 0.024727649986743927, -0.01686469279229641, -0.11261676251888275, -0.020250331610441208, -0.07467809319496155, -0.0004543261311482638, -0.045672595500946045, -0.02554912678897381, -0.10743532329797745, 0.03223089128732681, 0.09062757343053818, -0.03708209469914436, -0.11274781078100204, -0.03941221907734871, 0.11762426048517227, 0.07804746925830841, -0.1097978875041008, 0.03036956675350666, 0.0217870082706213, -0.09659093618392944, -0.02100621536374092, 0.11242800205945969, 0.09571851789951324, -0.0029848413541913033, -0.08099387586116791, 0.016705922782421112, 0.05384262651205063, 0.039473723620176315, -0.007380553521215916, 0.10932043939828873, -0.04074525833129883, -0.06527997553348541, -0.07106397300958633, -0.03694433346390724, -0.05346054583787918], [-0.11566870659589767, 0.03543902561068535, 0.11306799948215485, 0.06555518507957458, -0.01673724502325058, -0.01381633710116148, -0.09774700552225113, -0.08704107254743576, 0.05158112198114395, -0.08788228034973145, 0.09291486442089081, 0.11495617777109146, -0.0832730382680893, -0.008964437991380692, 0.10720594972372055, 0.12617672979831696, 0.13878078758716583, 0.11556445807218552, 0.05318216606974602, -0.00632122065871954, 0.10916346311569214, 0.07568027079105377, -0.1265939176082611, 0.03453439101576805, 0.13288092613220215, -0.0458499975502491, -0.010067759081721306, -0.03495332971215248, 0.04203876852989197, 0.11322242021560669, -0.010986760258674622, -0.08740131556987762, 0.07396717369556427, 0.04294615611433983, -0.04481242969632149, 0.1393858939409256, 0.018855521455407143, 0.029660368338227272, 0.06094857677817345, -0.07949011027812958, 0.08163755387067795, -0.17043158411979675, 0.04943607375025749, 0.10649425536394119, 0.09340798854827881, -0.056361544877290726, -0.06773392856121063, -0.11932999640703201, -0.023412209004163742, 0.0695798397064209, -0.09826891869306564, 0.039756957441568375, -0.003278437303379178, 0.00597277982160449, -0.05865984410047531, 0.11165925860404968, -0.028512248769402504, -0.021983308717608452, -0.07006984949111938, -0.10761258751153946, -0.09461414068937302, -0.007727768272161484, 0.0898989737033844, -0.0675884261727333, -0.12104647606611252, 0.08239049464464188, 0.03948427736759186], [0.02651720866560936, 0.12582428753376007, -0.0879434272646904, -0.07827337831258774, 0.0578579343855381, -0.08762823045253754, -0.11619284003973007, 0.1280066817998886, -0.056643374264240265, 0.0410209558904171, -0.019846556708216667, -0.08201204985380173, -0.012698237784206867, 0.019922710955142975, -0.010170496068894863, 0.13383598625659943, 0.012754562310874462, -0.08283411711454391, 0.04834466800093651, 0.052313245832920074, 0.006727620959281921, 0.04737447574734688, 0.03681293502449989, 0.01190791092813015, 0.09350263327360153, 0.01974724791944027, 0.12296075373888016, -0.09108752012252808, -0.08496713638305664, 0.08343104273080826, 0.07323908060789108, 0.09399055689573288, -0.040714506059885025, 0.11471204459667206, -0.001390227465890348, 0.13538488745689392, 0.019028643146157265, 0.06448247283697128, -0.04489646479487419, -0.055376484990119934, 0.1223578229546547, 0.07511663436889648, 0.03605255112051964, 0.028543002903461456, -0.011387575417757034, -0.04309923201799393, -0.12664556503295898, -0.01668308675289154, 0.03605113923549652, -0.028862744569778442, -0.02332448773086071, -0.023784562945365906, -0.12895098328590393, 0.033220697194337845, -0.08808337897062302, 0.010860057547688484, 0.0459415465593338, 0.11699886620044708, 0.05894865095615387, -0.13253402709960938, -0.08038859069347382, 0.05545017123222351, -0.08425763249397278, -0.06010156497359276, 0.01119562890380621, -0.03921300545334816, -0.06565122306346893], [-0.009318769909441471, 0.026312239468097687, 0.09171373397111893, 0.09540902078151703, -0.07982674986124039, 0.049552079290151596, -0.010163365863263607, 0.054641153663396835, 0.023126041516661644, 0.11385627090930939, 0.10235507041215897, 0.0147878248244524, 0.01660856604576111, -0.07148419320583344, -0.009771142154932022, 0.03833948075771332, -0.0005509901093319058, -0.08716139942407608, -0.026177475228905678, -0.09863398224115372, 0.0015939818695187569, 0.09214458614587784, -0.08060325682163239, -0.023226343095302582, -0.015439391136169434, 0.10117338597774506, -0.08976653218269348, 0.034732647240161896, -0.06208327040076256, -0.04010530933737755, -0.09715338051319122, -0.09689924865961075, 0.047287438064813614, 0.0104895681142807, -0.06752175092697144, 0.0904712826013565, 0.09085880219936371, 0.11007669568061829, 0.1109011322259903, -0.009330074302852154, -0.030458340421319008, -0.09677952527999878, -0.04185738414525986, -0.07413722574710846, -0.017228802666068077, 0.08016674965620041, 0.0018338202498853207, 0.06213953346014023, -0.10947190970182419, -0.030236853286623955, 0.04527810961008072, -0.05441223457455635, -0.08246561139822006, 0.02176807075738907, 0.04630458727478981, 0.11701349914073944, 0.09401343017816544, -0.05567150190472603, 0.00833253376185894, -0.008255540393292904, 0.019601736217737198, -0.017368461936712265, -0.12270653247833252, 0.017108961939811707, -0.020895469933748245, 0.015579740516841412, 0.06499782204627991], [-0.02961610071361065, -0.044981297105550766, -0.15542879700660706, 0.04617783799767494, -0.03965314105153084, -0.051978666335344315, 0.019994394853711128, 0.031331341713666916, 0.08800279349088669, -0.016332687810063362, -0.01100078597664833, 0.0189177505671978, 0.11326668411493301, -0.06924479454755783, -0.0029987115412950516, -0.08677960932254791, 0.1227017417550087, 0.014701880514621735, 0.0211970005184412, 0.015485537238419056, -0.027209706604480743, -0.04736645147204399, -0.0686793103814125, -0.0030138667207211256, -0.0868929922580719, -0.1125112771987915, -0.04518216848373413, -0.01350610051304102, -0.0008806532714515924, -0.08304593712091446, 0.11249696463346481, 0.12079589813947678, -0.11006966233253479, -0.0030830504838377237, -0.06919890642166138, 0.11374977231025696, -0.03828071057796478, 0.043290041387081146, -0.10017374157905579, -0.028038451448082924, 0.05159596726298332, 0.01454775407910347, -0.01877421699464321, 0.11222074925899506, -0.019334865733981133, -0.10365686565637589, 0.05902143195271492, -0.041028205305337906, -0.036257822066545486, 0.061219941824674606, 0.00045222832704894245, 0.030711233615875244, -0.12849758565425873, -0.05729783698916435, 0.06959333270788193, 0.11922979354858398, 0.039137959480285645, 0.15219444036483765, -0.03520858660340309, 0.0746697261929512, -0.07342561334371567, -0.11328920722007751, 0.007429108023643494, -0.07804201543331146, 0.031071608886122704, 0.04261820763349533, 0.10795239359140396], [-0.11519210785627365, -0.06206861138343811, 0.09599147737026215, -0.00246176915243268, 0.06400667130947113, -0.01448888797312975, 0.11542227864265442, -0.025935444980859756, -0.0777725875377655, 0.10728324949741364, 0.018540671095252037, 0.09266448020935059, -0.03207707405090332, 0.0028135869652032852, -0.04406352341175079, 0.05875958502292633, -0.07665009051561356, -0.11723346263170242, -0.12876588106155396, -0.06993307918310165, 0.013692853040993214, 0.04606448858976364, 0.08987770229578018, 0.042045798152685165, -0.09317392855882645, -0.008666080422699451, 0.057910412549972534, 0.11760180443525314, -0.10033934563398361, 0.020338209345936775, -0.09569358080625534, -0.0596613772213459, 0.04166318103671074, -0.019114000722765923, -0.11555080860853195, -0.1054457351565361, 0.07514166086912155, 0.1062525138258934, -0.08695270866155624, -0.0803130641579628, -0.12183074653148651, 0.10881921648979187, 0.0039052411448210478, 0.05929622799158096, 0.0914449393749237, -0.07197777181863785, -0.07627923041582108, -0.09455788135528564, 0.1137901321053505, -0.09902361035346985, -0.08002002537250519, 0.10956573486328125, -0.08523637056350708, -0.07640834897756577, -0.07400880008935928, -0.11155524104833603, 0.11847172677516937, 0.04957839101552963, 0.12547072768211365, 0.08816101402044296, 0.03806614875793457, -0.021520312875509262, 0.024721797555685043, 0.04640216752886772, 0.08300696313381195, 0.06310752779245377, 0.07752500474452972], [-0.021918023005127907, 0.09052634984254837, -0.0494619645178318, 0.032966725528240204, 0.01760873757302761, 0.06758144497871399, -0.025164656341075897, 0.03483407199382782, -0.00975793320685625, -0.03656821325421333, 0.08152121305465698, 0.04886994510889053, 0.03802834823727608, -0.03856943920254707, 0.044422347098588943, -0.018485525622963905, 0.0710534006357193, 0.08993083983659744, 0.10373304039239883, 0.08604198694229126, -0.0900905579328537, -0.07304070889949799, 0.03264263644814491, 0.13155171275138855, -0.07843512296676636, -0.09229721873998642, 0.050651565194129944, -0.06537646055221558, 0.09519083052873611, -0.0781482681632042, 0.054989345371723175, 0.02438688650727272, -0.009250632487237453, -0.07156405597925186, 0.09174425154924393, -0.09128270298242569, -0.0639180839061737, -0.1150088980793953, 0.12234766781330109, 0.006001604720950127, -0.026607569307088852, 0.01177605427801609, 0.09168663620948792, 0.08579046279191971, 0.1111397072672844, -0.08369271457195282, -0.08276314288377762, 0.08693128079175949, 0.033859796822071075, -0.0030593720730394125, 0.08169674128293991, -0.12709571421146393, 0.05889400094747543, -0.06463197618722916, -0.08564050495624542, 0.03197371959686279, 0.1068100705742836, 0.09151124954223633, 0.03165797144174576, 0.03989348188042641, -0.05291256681084633, 0.1081874668598175, 0.06375370174646378, 0.0591229684650898, 0.13595084846019745, -0.03651260957121849, -0.07740386575460434], [-0.09831259399652481, 0.07506001740694046, -0.1124100461602211, 0.033907271921634674, 0.08713178336620331, -0.09217266738414764, -0.03489306569099426, 0.021347003057599068, -0.09370611608028412, -0.04439491778612137, 0.02255120500922203, 0.08248817920684814, -0.11754827946424484, -0.1353282332420349, 0.04125698655843735, 0.062493059784173965, -0.005468098912388086, -0.07461415231227875, 0.11574903875589371, 0.08383707702159882, -0.04008936136960983, 0.0630967915058136, 0.09037372469902039, 0.005632356740534306, 0.015153879299759865, -0.03037719801068306, 0.1447100043296814, 0.10061592608690262, 0.048525430262088776, 0.11981141567230225, -0.014747894369065762, 0.024028368294239044, 0.11188849061727524, 0.11835607141256332, 0.061704155057668686, 0.03654571995139122, -0.03896124288439751, -0.0032758195884525776, 0.08361033350229263, 0.07459744065999985, -0.0036674474831670523, -0.10568200051784515, -0.015075156465172768, -0.009550485759973526, 0.13784679770469666, -0.11739398539066315, 0.03392432630062103, 0.07655142992734909, 0.04426518827676773, 0.020719995722174644, -0.043674811720848083, -0.13076138496398926, 0.031947482377290726, -0.08200423419475555, -0.12765160202980042, -0.059232816100120544, 0.0756203681230545, 0.13175995647907257, 0.015173111110925674, -0.07967156171798706, -0.07995418459177017, -0.06596767902374268, -0.13314129412174225, -0.030921071767807007, -0.03589942678809166, -0.10527810454368591, -0.1417323350906372], [-0.018305392935872078, -0.07238628715276718, -0.015271495096385479, -0.024966463446617126, -0.07079373300075531, -0.0031735401134938, -0.042637407779693604, -0.028822340071201324, 0.08510798215866089, 0.0939188227057457, -0.10429370403289795, -0.10307823866605759, 0.052057549357414246, -0.06135741248726845, 0.049715541303157806, 0.01776103675365448, 0.05087090656161308, -0.0043219816870987415, -0.006160430144518614, 0.033062249422073364, -0.1434667855501175, 0.04309878498315811, -0.03595108166337013, 0.0024450081400573254, -0.01142092701047659, -0.005939009599387646, 0.11448311060667038, -0.10044032335281372, -0.11735686659812927, 0.059169743210077286, 0.01473909616470337, -0.09513555467128754, -0.0984489917755127, 0.07371305674314499, 0.024672258645296097, -0.07880768924951553, 0.08216620981693268, 0.00728208152577281, 0.013799114152789116, -0.03136637061834335, 0.0559382364153862, 0.04555639624595642, -0.03216240182518959, -0.08682861924171448, 0.03796839341521263, -0.04778521507978439, 0.06580933183431625, -0.0036984651815146208, 0.00818786770105362, -0.09912608563899994, -0.06389832496643066, 0.11594857275485992, -0.12015718966722488, 0.04883718863129616, -0.0538734532892704, -0.11544351279735565, -0.06909990310668945, -0.0359107106924057, 0.05387401953339577, 0.10702812671661377, 0.13173328340053558, -0.09329354017972946, 0.020350944250822067, -0.01704181171953678, -0.06507313251495361, 0.04490000754594803, -0.007343241013586521], [-0.0841025710105896, 0.10766278207302094, -0.09237596392631531, 0.1038164496421814, -0.07851064205169678, -0.05723807215690613, -0.058322422206401825, 0.10628421604633331, -0.09818531572818756, 0.013672038912773132, -0.08017505705356598, 0.1150253638625145, -0.0030175410211086273, 0.011128905229270458, -0.0729203149676323, 0.11437036097049713, 0.09317924827337265, 0.08793718367815018, -0.07498236000537872, -0.11388906836509705, 0.0388176329433918, -0.028414668515324593, -0.07080046087503433, 0.06274253875017166, 0.015964332967996597, 0.0640380010008812, -0.07241611927747726, 0.033120058476924896, -0.11531876772642136, -0.05375966429710388, 0.03860281780362129, -0.08802797645330429, 0.08699202537536621, 0.09405077248811722, 0.06084397807717323, 0.0019962398800998926, 0.004215148743242025, 0.017179429531097412, -0.016880210489034653, -0.11406757682561874, -0.0012080918531864882, 0.0371730700135231, -0.07535140961408615, 0.046344369649887085, -0.029846036806702614, -0.05290597677230835, -0.10295110195875168, -0.13305649161338806, -0.06590703874826431, -0.012593972496688366, -0.10280364006757736, 0.09745655953884125, -0.11836910992860794, 0.0892331451177597, 0.0913223996758461, 0.03282951936125755, 0.10956375300884247, -0.036668818444013596, 0.137558713555336, 0.016301067546010017, 0.00014923664275556803, -0.1265045404434204, 0.017996318638324738, -0.11224770545959473, 0.05642890930175781, -0.08131850510835648, -0.08384939283132553], [0.007113243918865919, -0.07798348367214203, -0.0015181327471509576, 0.050982747226953506, 0.016519511118531227, 0.09631705284118652, 0.07683747261762619, 0.08915409445762634, -0.05483604967594147, -0.051815081387758255, 0.07154496759176254, -0.09399297833442688, -0.014119433239102364, 0.06059213727712631, 0.14461126923561096, 0.05337430536746979, 0.059256888926029205, 0.12686902284622192, 0.08903609216213226, -0.06679697334766388, 0.04166150838136673, 0.0012464683968573809, 0.07022857666015625, -0.059950992465019226, -0.008181978017091751, 0.033980634063482285, 0.08774616569280624, 0.04285460710525513, -0.07885974645614624, 0.017968030646443367, -0.045168764889240265, 0.030308738350868225, 0.057195331901311874, 0.05704260990023613, -0.04569024220108986, 0.10930430144071579, -0.008338325656950474, 0.08333074301481247, 0.07374664396047592, 0.06532705575227737, -0.025126585736870766, 0.06589575856924057, -0.028940558433532715, 0.0729513168334961, -0.007904491387307644, -0.021199023351073265, 0.058576058596372604, -0.06889928132295609, -0.06883830577135086, -0.09726832062005997, 0.0766458660364151, 0.097620390355587, 0.017083417624235153, 0.064699187874794, 0.04517248645424843, 0.0569266751408577, 0.02382083050906658, 0.06954887509346008, 0.06311502307653427, -0.08751579374074936, -0.04928966239094734, -0.019931461662054062, -0.13160982728004456, 0.03558560460805893, 0.011770838871598244, -0.01716768369078636, 0.0729413777589798], [-0.08366239815950394, 0.0003019122523255646, 0.03942505642771721, 0.09142057597637177, 0.020916685461997986, -0.0577334463596344, -0.03815635293722153, -0.04311126843094826, -0.10251318663358688, 0.0639180839061737, -0.12565475702285767, 0.12206479907035828, -0.019721705466508865, 0.02212904393672943, 0.0990435779094696, 0.03356198966503143, 0.12054607272148132, 0.04332026466727257, -0.043806225061416626, -0.053300488740205765, -0.023345299065113068, 0.10508684068918228, -0.07683652639389038, -0.07599106431007385, 0.011602701619267464, -0.03295845538377762, -0.060577742755413055, 0.016634434461593628, 0.060629308223724365, -0.038197990506887436, -0.03392894193530083, -0.09166208654642105, 0.059573158621788025, 0.05545392259955406, 0.08603855222463608, 0.12455946207046509, -0.07843688875436783, 0.08822224289178848, -0.07657725363969803, -0.04617302492260933, -0.09306586533784866, -0.06770800799131393, -0.10207386314868927, -0.10709751397371292, -0.0602249801158905, -0.063371442258358, -0.10873035341501236, 0.08215499669313431, 0.08869470655918121, 0.02083733305335045, -0.03391501307487488, -0.11438954621553421, 0.09079766273498535, 0.05881559103727341, -0.02584308385848999, -0.010298864915966988, 0.13000713288784027, 0.10345263034105301, 0.13536810874938965, 0.07828841358423233, -0.09905819594860077, -0.11346342414617538, -0.08681048452854156, -0.1118118166923523, -0.03906259313225746, -0.07626421749591827, -0.03758908808231354], [0.05444760248064995, -0.04630066081881523, 0.07899345457553864, 0.013072242960333824, 0.08229288458824158, 0.10632370412349701, -0.04649847000837326, 0.0027856044471263885, -0.007070670370012522, -0.11116647720336914, -0.06445241719484329, -0.14710156619548798, 0.061998434364795685, -0.06600280851125717, -0.05081557109951973, -0.09600292146205902, 0.005993913859128952, -0.04157617688179016, -0.14444026350975037, 0.15323613584041595, -0.05002112314105034, -0.013811297714710236, 0.04852134734392166, 0.02239917404949665, 0.035079192370176315, 0.03274866193532944, -0.058215510100126266, -0.09869908541440964, -0.011693792417645454, -0.13952483236789703, -0.06960783153772354, 0.044512514024972916, 0.0025059652980417013, -0.06690113991498947, -0.0753469169139862, -0.04131407290697098, 0.12361109256744385, 0.06816417723894119, -0.05700362101197243, 0.05892089009284973, -0.1155921146273613, 0.10638163983821869, 0.020006412640213966, -0.0006608441472053528, 0.11011075973510742, -0.0019100174540653825, -0.11545434594154358, 0.10080322623252869, 0.011577829718589783, -0.0947154313325882, 0.030153606086969376, 0.07417435944080353, 0.06766998022794724, -0.08495517075061798, -0.10979261994361877, 0.08727753162384033, 0.12512803077697754, 0.03930116072297096, -0.02819564752280712, 0.12356431782245636, -0.011934088543057442, 0.10349038243293762, -0.14643172919750214, -0.05225997790694237, 0.00819854624569416, 0.004435264505445957, 0.0014962928835302591], [-0.0275714173913002, 0.03759818896651268, -0.13633719086647034, -0.021933820098638535, -0.1513640284538269, -0.033914145082235336, 0.06280911713838577, -0.03062048926949501, -0.08438257873058319, -0.10939107090234756, -0.0002007778239203617, -0.054933782666921616, -0.007752024102956057, 0.0650729238986969, -0.015613595023751259, -0.10363814234733582, 0.07140973955392838, 0.12106100469827652, -0.06326519697904587, -0.0862264633178711, -0.0538940504193306, -0.0059527987614274025, 0.027914991602301598, 0.041864775121212006, 0.11348765343427658, -0.09955737739801407, 0.05469835177063942, 0.07983086258172989, -0.043547406792640686, -0.11601100862026215, 0.08478651940822601, 0.10768869519233704, 0.025750119239091873, -0.047912225127220154, -0.018262818455696106, -0.1178228035569191, -0.0095093147829175, -0.08393144607543945, 0.1369461864233017, 0.014949575066566467, 0.05905371159315109, 0.07142343372106552, 0.052366890013217926, 0.06162256374955177, 0.010416733101010323, -0.008437923155725002, -0.10433118045330048, -0.054098181426525116, 0.00746755488216877, 0.12869243323802948, -0.007726413197815418, 0.0430581271648407, 0.04239404574036598, -0.09662588685750961, 0.11034952849149704, 0.04750509932637215, -0.019514698535203934, -0.036173127591609955, -0.09775415807962418, -0.04153137654066086, -0.04293033108115196, -0.0227828212082386, 0.06208384782075882, -0.06354431807994843, -0.06192219257354736, -0.04713735729455948, -0.07409080862998962], [0.00466301292181015, -0.027648717164993286, -0.05521472916007042, 0.13517044484615326, -0.033897243440151215, -0.11515121161937714, 0.03766841068863869, -0.011016800999641418, -0.06844725459814072, 0.1223842054605484, -0.03631296381354332, -0.0603211410343647, 0.03348567336797714, -0.020992550998926163, 0.1152665913105011, 0.1215803250670433, 0.019947940483689308, -0.026308661326766014, 0.07715179771184921, 0.05353325232863426, -0.052503228187561035, 0.04036505147814751, -0.003121206071227789, 0.10684756189584732, -0.06664883345365524, -0.0871262401342392, -0.008292557671666145, -0.1242399737238884, -0.01619880087673664, 0.054128050804138184, -0.06126169487833977, 0.12596367299556732, 0.09718122333288193, 0.09433979541063309, -0.06417279690504074, 0.09243575483560562, 0.06496286392211914, 0.09776207059621811, -0.07437510788440704, 0.056512750685214996, 0.022288385778665543, -0.02350536547601223, 0.0901704877614975, 0.005402578506618738, -0.030174313113093376, -0.09283880889415741, -0.08808762580156326, -0.051294732838869095, 0.0735764354467392, 0.06857938319444656, 0.03287748992443085, 0.03033382259309292, 0.012523050419986248, -0.008402742445468903, 0.04519258812069893, -0.013781841844320297, 0.06918817013502121, 0.0637301579117775, -0.04978231340646744, -0.11008960008621216, -0.10354717820882797, 0.012400357984006405, -0.02777198702096939, -0.00016906464588828385, 0.030414454638957977, 0.007086909841746092, -0.12232737243175507], [0.01638001762330532, -0.02140739932656288, -0.05978159233927727, -0.11217918246984482, -0.12892673909664154, -0.05277799069881439, 0.010853591375052929, 0.07555875182151794, -0.0494694858789444, -0.00041644234443083405, 0.04014347493648529, -0.06094986945390701, 0.03192565590143204, 0.06016339734196663, -0.020715216174721718, -0.06679267436265945, 0.06992831826210022, 0.06660281121730804, -0.03184299170970917, -0.11824078857898712, -0.007116119377315044, -0.034182168543338776, 0.07709112763404846, -0.06307967007160187, 0.06662625819444656, 0.018705355003476143, 0.03194527328014374, -0.09983949363231659, -0.036660607904195786, -0.14936326444149017, 0.011691519990563393, -0.06755722314119339, -0.09341210126876831, 0.11432988196611404, -0.04388444125652313, 0.05312304571270943, 0.05366068705916405, 0.00018358515808358788, -0.09355361759662628, -0.0807310938835144, -0.07688997685909271, -0.017036058008670807, 0.018056143075227737, -0.04583103954792023, 0.07472896575927734, -0.11680829524993896, -0.11167725920677185, -0.060272324830293655, -0.04562446102499962, 0.1253422498703003, 0.10749661177396774, -0.1410263478755951, -0.0240135807543993, 0.07952972501516342, -0.0203262809664011, -0.008816744200885296, 0.038848742842674255, 0.16206741333007812, -0.0765361487865448, -0.0009586987434886396, 0.024669235572218895, -0.096751369535923, -0.10645190626382828, -0.02513658069074154, 0.10044431686401367, 0.013279887847602367, -0.10043127834796906], [0.07924703508615494, -0.02610936015844345, -0.03062157891690731, 0.12008952349424362, -0.1238168478012085, -0.05970762297511101, -0.04374309256672859, 0.016353419050574303, 0.052267204970121384, -0.11085507273674011, 0.009146377444267273, 0.00020643332391045988, -0.03728414326906204, -0.09788091480731964, 0.10247176140546799, 0.0045872339978814125, 0.008383299224078655, 0.08206114172935486, 0.11435458064079285, 0.06764519214630127, -0.04649338126182556, -0.011438718996942043, -0.045939851552248, 0.058101728558540344, 0.07320202887058258, 0.0707051157951355, 0.10130255669355392, 0.047413911670446396, 0.0480487160384655, -0.13180872797966003, 0.02253270335495472, -0.045362744480371475, -0.04615388065576553, 0.03449888154864311, 0.029947515577077866, -0.10314834862947464, -0.015284769237041473, 0.058401525020599365, 0.057672854512929916, 0.027368901297450066, 0.07061333954334259, 0.018241843208670616, -0.025216076523065567, 0.08198557794094086, 0.019760318100452423, 0.09470133483409882, -0.04310646280646324, -0.1204923763871193, -0.0227812547236681, -0.031940750777721405, 0.08255242556333542, 0.044211700558662415, -0.021083209663629532, -0.03412477299571037, -0.0363268107175827, -0.02109810896217823, 0.12109211087226868, 0.009186522103846073, 0.012696187011897564, -0.009732740931212902, 0.014481930062174797, -0.09920788556337357, -0.008843622170388699, 0.051972243934869766, -0.002853826154023409, 0.08353860676288605, 0.07413830608129501], [-0.027424296364188194, 0.07517591118812561, -0.09133420139551163, 0.01233241893351078, 0.008449241518974304, 0.0686977431178093, 0.046172186732292175, -0.014870363287627697, -0.07834883034229279, -0.044208869338035583, 0.01676408015191555, -0.1531480997800827, 0.026642393320798874, 0.09303653240203857, -0.05071244388818741, 0.03448458015918732, 0.050900205969810486, -0.021425161510705948, 0.06837485730648041, 0.01232057623565197, 0.09919293224811554, -0.04437693953514099, 0.09587191790342331, -0.08741840720176697, -0.02192692458629608, -0.06330838799476624, -0.027730897068977356, -0.005262997932732105, 0.1121804490685463, -0.037786975502967834, 0.06990428268909454, 0.07560472935438156, 0.11049897968769073, 0.02591218613088131, 0.02739640139043331, -0.08253278583288193, -0.040874261409044266, -0.05324540659785271, 0.10364054143428802, 0.0500812754034996, 0.009621700271964073, -0.028325429186224937, 0.04942706599831581, 0.12181650847196579, -0.07236320525407791, 0.025435796007514, -0.014150470495223999, -0.07989580184221268, 0.06155078858137131, 0.035231929272413254, -0.018306201323866844, 0.03274904936552048, -0.07989872992038727, -0.07387467473745346, -0.1496601700782776, -0.09204185754060745, -0.01863577961921692, -0.016320066526532173, -0.12134008854627609, 0.03234332054853439, -0.018413539975881577, -0.1079070121049881, -0.1459125578403473, 0.10968300700187683, -0.103643037378788, 0.07672464847564697, 0.0136292465031147], [0.10333379358053207, -0.11692819744348526, 0.06290941685438156, 0.06965114921331406, -0.028177769854664803, 0.01852157525718212, -0.1255027949810028, 0.1336444765329361, 0.07228901237249374, 0.0753975510597229, 0.0022172608878463507, -0.12700946629047394, 0.07942698150873184, -0.10275450348854065, 0.06760814785957336, 0.03331264853477478, 0.06450971215963364, -0.03843635693192482, -0.06157626211643219, -0.05753500759601593, -0.008783730678260326, 0.030390840023756027, 0.041384439915418625, 0.09635641425848007, -0.05968644097447395, 0.022168541327118874, -0.01373735349625349, -0.10810974985361099, 0.014464125968515873, -0.02691076695919037, -0.08199653774499893, -0.10809658467769623, -0.048700302839279175, 0.11668578535318375, -0.06207661330699921, -0.04841064289212227, -0.025207310914993286, -0.09363795071840286, 0.13343603909015656, 0.08228304982185364, -0.08474399149417877, -0.030151445418596268, 0.019619258120656013, -0.07588446885347366, 0.12374185770750046, 0.08668767660856247, 0.03957943618297577, -0.10160695761442184, -0.10244803130626678, 0.00392213836312294, 0.08062350749969482, -0.06730767339468002, 0.04810086265206337, -0.004146216902881861, -0.10611587762832642, 0.000853381585329771, 0.018296588212251663, -0.017157193273305893, 0.05170073360204697, 0.07952582836151123, 0.035882215946912766, 0.03241073340177536, -0.028533024713397026, 0.13601908087730408, 0.11836391687393188, -0.011942621320486069, 0.09890531003475189], [0.0645534098148346, 0.05546317249536514, -0.06536858528852463, 0.022850530222058296, 0.03939828649163246, 0.06467672437429428, -0.018727432936429977, 0.08688605576753616, -0.03709382191300392, -0.0679844543337822, -0.0361163429915905, -0.10574638098478317, -0.1297636479139328, 0.07772165536880493, 0.04452947527170181, -0.02655206434428692, -0.01836966536939144, 0.040217481553554535, -0.015823181718587875, 0.025319425389170647, -0.10495754331350327, 0.04874168708920479, -0.10028570890426636, -0.045906901359558105, 0.10367127507925034, -0.059329546988010406, -0.09968405961990356, 0.0807252898812294, 0.03590971231460571, -0.05941926687955856, 0.03397108241915703, -0.13245916366577148, 0.03468836098909378, -0.10875262320041656, -0.12521740794181824, -0.07903242856264114, 0.10892868787050247, 0.0322604738175869, -0.016853448003530502, -0.0933239683508873, -0.048394639045000076, 0.09720906615257263, 0.1054193452000618, 0.08024226874113083, 0.054025065153837204, -0.04632008820772171, 0.10827907919883728, 0.0006272410391829908, 0.07210247218608856, 0.07412612438201904, 0.062102366238832474, 0.10862379521131516, 0.08268138021230698, -0.05346810445189476, 0.014355392195284367, 0.010039926506578922, 0.03493257984519005, 0.10420071333646774, 0.09160436689853668, -0.046621643006801605, 0.025029394775629044, -0.06835868209600449, -0.006728929467499256, 0.040517646819353104, 0.022412223741412163, -0.07539567351341248, -0.11341872811317444], [0.047608137130737305, 0.02890445664525032, 0.12015058100223541, -0.057133108377456665, -0.1307886838912964, -0.04615026339888573, -0.003244966734200716, 0.03604505583643913, -0.10906213521957397, 0.10160934180021286, 0.032445766031742096, 0.05087487772107124, 0.01899399608373642, 0.10957089811563492, 0.013095327652990818, 0.02971011959016323, 0.058306142687797546, 0.008960842154920101, 0.06590159982442856, 0.09710067510604858, 0.01658635586500168, 0.0060031176544725895, 0.0292483139783144, -0.11042609810829163, 0.07589591294527054, -0.07297031581401825, 0.006912601180374622, -0.09307585656642914, -0.09599736332893372, -0.13948620855808258, 0.06737984716892242, 0.10404317080974579, -0.0895150899887085, -0.002917043399065733, -0.012349349446594715, -0.11048980057239532, -0.10688307136297226, 0.019630441442131996, 0.07411311566829681, 0.0982537567615509, 0.08087445050477982, -0.02688203938305378, 0.0014967259485274553, 0.06590163707733154, -0.020163629204034805, -0.02239927276968956, -0.038306839764118195, 0.07918998599052429, 0.014940515160560608, -0.011598077602684498, 0.09596764296293259, 0.06982401758432388, 0.058440305292606354, 0.029566580429673195, -0.10866517573595047, 0.05934317409992218, -0.0484938807785511, 0.12022404372692108, 0.008231176994740963, 0.07727646827697754, -0.07882869988679886, 0.025519922375679016, 0.01222964096814394, -0.04199888929724693, -0.05527077615261078, 0.07067546248435974, 0.09341251105070114], [0.05076530575752258, -0.09846574813127518, 0.14384973049163818, 0.05268636718392372, -0.024969782680273056, -0.024978194385766983, -0.09025590866804123, -0.04874294996261597, 0.11238577961921692, 0.016852017492055893, 0.0342022180557251, 0.016562601551413536, 0.02893991582095623, 0.09888415038585663, 0.0621752105653286, -0.04207371920347214, 0.03625459969043732, -0.11072264611721039, -0.09287325292825699, 0.06615928560495377, -0.09795056283473969, 0.08739866316318512, 0.075321264564991, 0.036479972302913666, -0.007238386664539576, 0.07235366106033325, -0.0036047003231942654, 0.10003239661455154, 0.08657719194889069, 0.09638836234807968, -0.12536245584487915, 0.05485635623335838, 0.056934889405965805, 0.04785400629043579, 0.027412261813879013, -0.09499724209308624, -0.047180481255054474, -0.02049517259001732, -0.019309984520077705, 0.05149117857217789, 0.06279492378234863, -0.01782258041203022, -0.07410982251167297, 0.024425754323601723, -0.02604011259973049, -0.09032557159662247, -0.06490746885538101, -0.002976767485961318, 0.0035217043478041887, -0.019798118621110916, 0.06668075919151306, -0.09063243120908737, 0.07102742791175842, -0.05087113752961159, -0.06968513131141663, 0.015229134820401669, 0.10747101157903671, 0.09238534420728683, -0.03162091597914696, -0.09356396645307541, -0.07102431356906891, -0.014577846974134445, -0.05526866391301155, -0.06257953494787216, 0.0929327979683876, 0.11995873600244522, -0.08523409813642502], [-0.025392763316631317, -0.08129444718360901, 0.09573183208703995, 0.04780489206314087, -0.12603339552879333, 0.16076982021331787, 0.06875965744256973, 0.14500923454761505, 0.018400443717837334, -0.05723252147436142, -0.06574307382106781, -0.027447355911135674, -0.003927414305508137, 0.09293963015079498, -0.025669412687420845, -0.04593066871166229, 0.031621675938367844, 0.11338210105895996, -0.14688065648078918, -0.042757779359817505, 0.06416390836238861, -0.05126480385661125, 0.06065108999609947, 0.12407536059617996, 0.10607954114675522, -0.08778444677591324, -0.14437228441238403, -0.036540351808071136, -0.010219916701316833, 0.05822179093956947, 0.04001797363162041, -0.14281415939331055, -0.06815896928310394, -0.10356929153203964, 0.06747784465551376, -0.14258985221385956, 0.004707297310233116, 0.06431908905506134, 0.05651743337512016, -0.0629248395562172, -0.01413843221962452, 0.07590200006961823, 0.010703136213123798, -0.08597241342067719, -0.13248978555202484, 0.12943895161151886, 0.008892225101590157, -0.07827984541654587, 0.03165255859494209, 0.0751802921295166, 0.16426484286785126, 0.13842327892780304, -0.08150079846382141, -0.02085724100470543, -0.01604974828660488, 0.040295496582984924, -0.0240471251308918, 0.12039078772068024, -0.1393747478723526, -0.0007803254993632436, -0.029802611097693443, -0.08629707992076874, 0.11025717854499817, 0.046863824129104614, 0.013969543389976025, -0.08147349953651428, 0.10874117165803909], [-0.08692971616983414, -0.009360106661915779, -0.030728820711374283, -0.09782879054546356, 0.11973334848880768, -0.06712053716182709, 0.037635888904333115, -0.11975755542516708, -0.1224650964140892, -0.07170877605676651, -0.08340763300657272, 0.049419328570365906, 0.05824757367372513, -0.07448209077119827, -0.0729953721165657, 0.11381910741329193, 0.10991556197404861, -0.06942886859178543, -0.117409847676754, 0.03770296648144722, 0.09496275335550308, 0.021308990195393562, -0.12244746088981628, -0.12345154583454132, -0.008325986564159393, 0.016210194677114487, 0.004886672366410494, 0.08345372974872589, 0.10904288291931152, 0.12009184807538986, -0.07544869184494019, 0.07621878385543823, -0.05426802858710289, 0.10223013907670975, -0.12478730827569962, -0.007397158537060022, 0.07875070720911026, 0.010259637609124184, 0.008710476569831371, -0.06162689998745918, -0.06505869328975677, -0.07347653061151505, 0.09693305939435959, 0.055954210460186005, -0.011774810962378979, -0.13909758627414703, 0.00982758030295372, 0.06517556309700012, -0.03727800399065018, -0.1000562235713005, 0.03859654441475868, 0.10933641344308853, 0.0583578459918499, 0.11901865154504776, -0.03529719263315201, 0.06471913307905197, -0.02528126910328865, -0.05046505108475685, 0.18503223359584808, 0.03457890450954437, -0.05555832013487816, 0.0627710223197937, -0.034815460443496704, -0.0014964570291340351, -0.10269277542829514, -0.025679603219032288, -0.03848865628242493], [-0.021408013999462128, 0.03767790272831917, 0.06302694976329803, 0.00212989398278296, 0.10079621523618698, -0.04932854324579239, 0.0553237684071064, 0.08520067483186722, -0.04129887744784355, -0.005453742109239101, 0.07194561511278152, -0.11894535273313522, 0.1189635843038559, 0.08115249127149582, -0.08753546327352524, -0.055121660232543945, -0.10471910238265991, -0.08066152036190033, 0.01056175958365202, 0.004258726257830858, 0.08929086476564407, 0.08872415870428085, 0.09673196077346802, -0.02923164702951908, -0.12426095455884933, -0.05093782767653465, 0.09625259041786194, -0.1270517259836197, 0.1006685346364975, 0.09582559764385223, -0.03993035480380058, -0.013113700784742832, -0.07228637486696243, 0.0754670649766922, -0.03164679557085037, 0.010877618566155434, -0.01873181015253067, 0.10978548973798752, 0.00798222329467535, 0.09742914140224457, 0.011689999140799046, 0.01456166710704565, 0.0962856113910675, -0.019353624433279037, -0.006084447260946035, -0.04344581812620163, -0.05043662339448929, -0.052738167345523834, -0.0895620808005333, 0.09529083222150803, 0.0999479591846466, -0.030707072466611862, 0.0997372567653656, -0.11170127242803574, -0.11978934705257416, 0.05676707997918129, 0.0022254460491240025, -0.02383788302540779, -0.010830770246684551, 0.12864969670772552, 0.010159815661609173, 0.009386039339005947, 0.12927678227424622, 0.022019365802407265, -0.10741293430328369, 0.037769950926303864, 0.05275346338748932], [-0.06872241944074631, 0.012487952597439289, 0.010793635621666908, -0.02715829387307167, -0.028873935341835022, 0.08798938989639282, 0.034697555005550385, -0.09281600266695023, 0.11929213255643845, 0.036188915371894836, -0.10840263962745667, 0.050105396658182144, -0.11054276674985886, -0.035948049277067184, -0.021847408264875412, -0.04451753944158554, 0.016484906896948814, 0.036286577582359314, 0.028103269636631012, 0.02864673361182213, -0.10752104222774506, -0.0019269440090283751, 0.01643025502562523, -0.027737513184547424, -0.10539862513542175, -0.12411070615053177, 0.07601913064718246, -0.097401462495327, 0.06748278439044952, 0.06933057308197021, 0.03965350612998009, -0.04423881322145462, -0.06104062870144844, 0.12107500433921814, 0.09886569529771805, 0.07883325219154358, 0.1085793673992157, -0.10184311121702194, 0.016618045046925545, -0.10611829906702042, 0.028267724439501762, -0.003479022765532136, -0.10908107459545135, -0.026093274354934692, -0.009265007451176643, -0.00234311749227345, 0.0708010271191597, -0.08523485064506531, -0.07015084475278854, -0.024350779131054878, 0.08703768253326416, -0.10385771095752716, 0.07525613903999329, 0.06611669808626175, 0.039447639137506485, -0.08612453937530518, -0.0587947852909565, 0.05444281920790672, 0.02441335655748844, 0.09375309199094772, -0.0025115725584328175, 0.07648718357086182, -0.05371158570051193, -0.011577624827623367, -0.0808212161064148, 0.0697576105594635, 0.05594298988580704], [-0.10163672268390656, 0.061276547610759735, 0.06133153289556503, 0.09814782440662384, 0.044333405792713165, -0.1444932073354721, 0.03246551379561424, 0.06123723089694977, -0.04887482523918152, -0.03871370479464531, -0.060796108096838, 0.10280467569828033, -0.070991151034832, 0.006866478826850653, 0.1301320344209671, 0.1251041293144226, 0.06387662142515182, 0.10117924958467484, -0.08374597877264023, -0.009908612817525864, -0.06391678750514984, -0.06210953742265701, 0.08638621121644974, 0.09202506393194199, 0.11305936425924301, -0.047478191554546356, 0.001972796395421028, 0.1346755176782608, 0.03415868058800697, -0.047756753861904144, 0.0749998614192009, -0.034247711300849915, 0.13022519648075104, -0.04493425041437149, 0.02899518795311451, -0.02591061033308506, -0.0934344008564949, -0.03982929140329361, 0.050519343465566635, -0.03144453838467598, 0.1079840138554573, -0.0669858381152153, -0.07020656764507294, -0.07544690370559692, -0.03661976009607315, 0.0685606449842453, 0.10084393620491028, -0.08929362893104553, 0.02385995350778103, 0.07522927969694138, -0.08498229086399078, -0.12749451398849487, 0.023188142105937004, -0.09245610982179642, 0.01646294817328453, 0.13941697776317596, 0.020366884768009186, 0.09360527992248535, 0.08577471226453781, 0.04972568154335022, -0.02386893518269062, -0.06894900649785995, -0.11804000288248062, -0.09488355368375778, 0.058065265417099, 0.06135084107518196, -0.07149601727724075], [0.031764935702085495, -0.02139907516539097, 0.023628240451216698, -0.09604890644550323, -0.040798116475343704, 0.03861677646636963, 0.030967213213443756, -0.032725740224123, 0.07339172810316086, -0.11204689741134644, -0.07013136148452759, -0.1610206812620163, 0.05173952877521515, -0.10428369045257568, 0.04533781856298447, -0.04544713348150253, -0.0573999285697937, 0.12628377974033356, -0.06823566555976868, 0.052298661321401596, 0.09340715408325195, -0.1697581261396408, 0.12296732515096664, -0.08127430081367493, 0.09321573376655579, -0.06604171544313431, -0.049804024398326874, -0.053958870470523834, 0.06005849689245224, -0.02095891907811165, -0.10209134221076965, -0.07438899576663971, -0.03981738165020943, -0.07135327160358429, 0.027679843828082085, 0.08261258155107498, 0.05388981103897095, -0.02195766754448414, 0.0924510657787323, 0.021162519231438637, 0.02264535240828991, -0.0751899927854538, 0.009144648909568787, -0.04273203760385513, 0.007967066019773483, -0.10192762315273285, -0.09417671710252762, -0.009433663450181484, -0.00715088052675128, -0.0322108156979084, -0.0038838335312902927, -0.06267540901899338, -0.13095569610595703, 0.023054558783769608, 0.0684560090303421, 0.08726469427347183, -0.07700255513191223, -0.0716513842344284, -0.16494649648666382, -0.07268929481506348, -0.08185669034719467, 0.09180689603090286, -0.07074610143899918, 0.03492625430226326, 0.03800613060593605, 0.07064267992973328, -0.09115927666425705], [0.13612811267375946, 0.07820185273885727, -0.13801150023937225, -0.1121809184551239, 0.03357619047164917, -0.02942238748073578, -0.08526346832513809, -0.01651567406952381, -0.11873799562454224, 0.07719460874795914, 0.07731378823518753, 0.05056094378232956, 0.05117923021316528, -0.0881529375910759, -0.019961243495345116, 0.04148027300834656, 0.021852053701877594, 0.11348170042037964, 0.04979867488145828, -0.10369077324867249, -0.08480269461870193, 0.06282156705856323, 0.0891934484243393, 0.04797452688217163, 0.02943911775946617, 0.08018132299184799, -0.1275699883699417, -0.10372025519609451, -0.05392919108271599, -0.06846118718385696, -0.020970987156033516, 0.06681812554597855, -0.05606059730052948, -0.006357097066938877, -0.08740496635437012, -0.057389046996831894, 0.09359444677829742, 0.07692190259695053, -0.04446162283420563, 0.06014147773385048, 0.12133873999118805, 0.1148754432797432, -0.004486179444938898, -0.0649765133857727, -0.025980114936828613, 0.05982767045497894, -0.06365373730659485, 0.07379857450723648, -0.09544558078050613, 0.035720642656087875, 0.07147061079740524, -0.018076373264193535, 0.10377851873636246, 0.052155088633298874, 0.01833963952958584, -0.007785051129758358, -0.0009377191890962422, -0.057553552091121674, -0.03704908490180969, -0.1040332168340683, 0.04437444359064102, -0.01151448767632246, -0.11333718150854111, -0.0378323458135128, 0.04514699429273605, -0.036112140864133835, 0.04438399896025658], [-0.07814384996891022, 0.003120825393125415, -0.006786874495446682, -0.04690513387322426, -0.03147665038704872, -0.06347820907831192, -0.029491737484931946, 0.007512098178267479, 0.0012858345871791244, -0.0012976310681551695, 0.0770421102643013, 0.1272895336151123, -0.05685781314969063, 0.024851275607943535, 0.04328674077987671, 0.02359119988977909, 0.024166051298379898, -0.04427824541926384, 0.008406257256865501, -0.07616324722766876, -0.03274010494351387, -0.046767428517341614, 0.009283660911023617, 0.029448486864566803, -0.07557354867458344, -0.10227695852518082, -0.005544607527554035, 0.045071858912706375, -0.11645298451185226, -0.0010846223449334502, -0.08386776596307755, -0.12056316435337067, 0.12124709784984589, -0.059521619230508804, -0.04618579149246216, 0.1309070736169815, -0.07245852053165436, -0.05212103947997093, -0.06552931666374207, -0.09255184978246689, 0.018165642395615578, 0.025186512619256973, 0.024322185665369034, -0.03406292945146561, 0.034807540476322174, -0.09008345752954483, 0.08575417101383209, -0.10648966580629349, 0.04002280533313751, -0.06723446398973465, -0.055384427309036255, -0.1330934315919876, 0.025534316897392273, 0.0785689651966095, -0.08671083301305771, 0.06987923383712769, -0.01867176778614521, 0.03404312580823898, -0.06786660850048065, -0.10294453054666519, -0.025652270764112473, 0.05814588442444801, -0.13071408867835999, -0.0934595987200737, -0.11978255957365036, -0.03128655627369881, -0.062235187739133835], [-0.04476392641663551, -0.07671759277582169, -0.06429146975278854, -0.09231314808130264, -0.05900735408067703, -0.002802601084113121, 0.05974220857024193, 0.04968993738293648, 0.12022418528795242, 0.02506386861205101, 0.05990414321422577, -0.019537128508090973, -0.036947257816791534, 0.12676875293254852, -0.04978615790605545, -0.026405470445752144, 0.017501896247267723, 0.01858316920697689, -0.0896899476647377, 0.09496114403009415, -0.12053908407688141, 0.10824233293533325, 0.07145994901657104, 0.02087060548365116, 0.128457173705101, -0.07502433657646179, -0.14470230042934418, -0.12317097187042236, 0.11577709764242172, -0.09348425269126892, 0.010753633454442024, -0.05531713739037514, 0.09690900146961212, -0.05258757993578911, 0.09248597919940948, 0.09118326753377914, 0.02389981970191002, -0.11910290271043777, 0.0432785265147686, -0.0639650896191597, -0.10903908312320709, -0.03980181738734245, 0.0059085749089717865, 0.04122192785143852, -0.0217107143253088, 0.035397619009017944, -0.00745302252471447, -0.11071506887674332, -0.009953977540135384, 0.05746392533183098, 0.11797849833965302, -0.10231442749500275, -0.03380085155367851, -0.07558384537696838, -0.06612370163202286, -0.09262969344854355, 0.1059836745262146, -0.07960034161806107, -0.0935014858841896, 0.003216165816411376, 0.005073613487184048, 0.13168883323669434, 0.01650349609553814, 0.12399773299694061, 0.006454153452068567, -0.12448805570602417, 0.05747321620583534], [0.03992881625890732, -0.013170301914215088, 0.002840124536305666, -0.0678923949599266, 0.06841154396533966, -0.10374841094017029, 0.12850786745548248, 0.07042576372623444, 0.09213745594024658, -0.06328336149454117, -0.15161970257759094, 0.05970626696944237, -0.11479420959949493, -0.11296926438808441, -0.0027525355108082294, -0.09115143865346909, 0.03187030553817749, 0.11914589256048203, -0.004925363697111607, -0.04295223206281662, -0.0698370710015297, 0.0050268578343093395, 0.04128004238009453, 0.09689513593912125, -0.09885761886835098, 0.04005174711346626, -0.07917942106723785, 0.06596644967794418, -0.03794276341795921, 0.09569275379180908, -0.05457806587219238, -0.10613603889942169, -0.01380788255482912, 0.13354994356632233, -0.03693891689181328, 0.031967565417289734, -0.06014487147331238, -0.08190476149320602, 0.04495936632156372, -0.040127333253622055, -0.0548328198492527, 0.10691092908382416, -0.1128559559583664, 0.006309186108410358, 0.14091680943965912, 